{"layers": {"0": {"output": {"rows": 100, "data": [0.0, 0.0, 0.0, 1.0, 1.0, 1.0, 0.0, 0.0, 0.0, 1.0, 1.0, 0.0, 0.0, 1.0, 0.0, 1.0, 1.0, 0.0, 0.0, 1.0, 0.0, 0.0, 1.0, 1.0, 1.0, 1.0, 0.0, 0.0, 1.0, 0.0, 0.0, 1.0, 1.0, 0.0, 1.0, 0.0, 0.0, 0.0, 0.0, 1.0, 1.0, 0.0, 1.0, 1.0, 1.0, 1.0, 1.0, 0.0, 1.0, 1.0, 1.0, 1.0, 0.0, 0.0, 0.0, 0.0, 1.0, 1.0, 1.0, 1.0, 0.0, 1.0, 0.0, 1.0, 0.0, 0.0, 0.0, 1.0, 0.0, 1.0, 1.0, 1.0, 0.0, 0.0, 1.0, 0.0, 1.0, 0.0, 0.0, 0.0, 0.0, 0.0, 0.0, 1.0, 0.0, 1.0, 1.0, 1.0, 1.0, 0.0, 0.0, 0.0, 0.0, 0.0, 1.0, 1.0, 0.0, 1.0, 0.0, 1.0], "cols": 1}, "activation": "sigmoid", "bias": {"rows": 100, "data": [-0.011240520649947926, -0.18629574057094955, 0.8913571334464071, 0.5910793108955831, -1.1754177895277036, 0.4836780519827843, 1.4668280653714507, 0.11408441250497871, 0.45788702529808817, 0.7587047357919244, -0.06531721018760867, -0.09840930048563085, -1.2674009014168368, 0.76523559972789, -1.396067218591003, -0.028916306393136162, 0.4624814033560276, -0.8392276514982797, -0.03136809393365238, 0.697692330851239, -0.30310756775342396, 1.0598477213849171, -0.12285080944310209, -1.1407682929123346, 1.3733412460310623, 1.2669863465043676, -0.7436196970355413, -0.4586908909156232, -0.6585456102413387, 1.1217950168485489, 1.054853742337402, -0.07447875643274587, 1.0500331939856462, -1.0408475979585494, -0.3981786618532844, -0.8286711002858053, 0.3617725666420686, 1.1051368559374162, 0.6235031208552028, 0.008809350655583059, 1.1642214942260731, 1.1653969023602229, -0.645989661073937, 0.7393375506539194, 0.9433924608284504, 0.4137817328268752, -0.7607735446599918, 0.43345489419215316, -0.18481384904308468, 1.0239087857923603, -0.5270215450128455, 0.28092657141067634, 0.04724683958526385, -0.8580497185519032, 0.4548892968433996, -1.9982988471746965, 0.8887315858812415, 0.8376872703040161, 1.0319284651583853, 0.3000214211606717, 0.19582436740623882, 0.44645496877637203, 0.9461610006042911, 0.5696632416825769, -0.06944633009612668, 0.3084227173668557, -0.7556639330568001, -0.30290448537074377, 0.5440522012096464, -0.6623489044612046, 0.15761877468147473, 0.8088084270922113, -0.31043038394511896, -1.5272603440093762, -0.4681118120834899, -0.5187987488867783, 0.4877937680045917, -0.46462670730185873, 0.40110923910758917, 0.6455461883110626, 1.2187841638627002, 0.8713813664667726, 0.7022320987083464, 1.1451330211702222, 0.16820712827069276, -0.49057140064287497, 1.6433465695404876, 1.2007621126298087, 0.24578099305949824, -1.4541171872342467, 1.2503286055570355, -0.509784993376956, -0.09060097864369224, 0.7228353183609161, -0.03681200999358725, -1.3495302859635947, 0.3790206407441353, 0.4116100071282908, -0.39715300349512644, 0.8227343670924754], "cols": 1}, "weights": {"rows": 100, "data": [0.30417210934179195, -0.8976471155661405, -0.31797250325916604, 0.2693219405550584, 0.35874237671601383, -0.21762402340947729, 0.28327753163837355, -0.7304072126261336, -0.3866193179010966, -0.7331197308107567, -0.11517636602807468, 0.905105273743988, -0.2334362431290562, 0.28147050577766386, 0.26176157144468637, -0.5136233384613995, 0.5233620055774513, -0.8655538603246768, -0.8879528449481446, -0.8155697367918999, -0.5461696362965107, -0.42025909603559786, -0.3849313689687641, -0.13151244975867438, -0.04213114152779429, 0.37587577598047717, -0.8609100190525423, 0.04485114338384144, -0.0728512536028072, 0.3464354686277247, -0.20119510222969006, 0.9874841990272185, -0.34270809111237854, 0.16170322750852484, -0.8664878760144799, -0.8672249390609237, -0.5097384596762935, 0.35273250313427185, 0.3930260706921558, 0.7794653647336331, -0.21286402953902894, 0.41370161397943805, 0.1266432648749647, 0.008229127117455715, -0.9191102521518075, 0.254190927436204, -0.8394097760653008, -0.6813525964377134, 0.7518751118082445, 0.07768644664978952, -0.8696956514180962, -0.2016453473897477, 0.6316370577798418, -0.3832698700018644, -0.6232306746276222, 0.9737029636921628, 0.10983031690303902, -0.2763159945721465, 0.8962466412671493, -0.7040384978501841, -0.03688953225849145, 0.10268073378685982, 0.7404713503394857, 0.8501426503109666, 0.786610688298949, -0.0505749100660382, -0.14284956006531613, 0.9299061870335468, -0.3995531974156623, 0.7493742429053372, -0.16117226563183862, -0.6200723693369761, 0.9092767560802812, -0.20752467414311093, 0.9075387269242092, -0.6968039665568901, 0.69736192739892, -0.9475008157755846, 0.4750478000127112, -0.6112466432572201, -0.07518419528998077, 0.8552948689254107, -0.0878415714868257, -0.6480939020057743, -0.3232566983386582, -0.28030060716865424, 0.07767874074466796, 0.8622421412928847, 0.4509902603002778, 0.282598240520612, -0.7824633160860435, 0.5570009966994756, -0.22609392712627097, 0.4208404235076104, -0.5001472920623973, -0.33755783141928064, 0.9273070333796869, -0.046267163659013955, -0.6512149528486217, -0.9174223078169093, 0.9837844059946339, -0.20587104378527243, -0.004771576050021764, 0.10766564687770264, 0.9354650170968268, 0.10620282904304656, -0.6802249103100622, -0.6405363653749188, 0.8640524790859996, 0.7205743434197489, -0.1388254701421474, 0.32716349576384096, 0.49726335422658496, -0.7937788881613714, -0.15489090551026719, -0.7543180829075362, 0.4482752782807029, -0.7697690115291873, 0.5349614198309793, 0.9557469711624136, 0.09245507383690432, -0.34579959805138905, 0.1656181002256627, -0.7858126121967028, -0.33795915590145986, -0.34127014925340116, 0.5500079348094771, -0.6469310720644255, -0.695112989561455, -0.7138571529230928, -0.27389558304371486, 0.9325234264222422, 0.2159761717753017, -0.8596457630389263, -0.27089872559916883, -0.8231832098849639, -0.8961489343637219, -0.6523217139253152, 0.17619694217085247, 0.0165906323410705, -0.015006942814314235, -0.9457153595516391, 0.7310170916671955, -0.05320477858276307, -0.2233560113256011, 0.30413898368885917, -0.713219781062477, 0.09516647446140467, 0.5836993574662797, 0.06330591038586751, 0.435906363300338, -0.502463225731757, -0.6912539468223345, -0.9774771042317707, -0.5527351237992879, 0.32953439516112626, 0.8573725953108124, 0.23094656310305695, -0.09934560940146575, 0.024483782444692404, -0.06203327921174728, -0.06715622702356328, -0.8573726473841932, 0.6225311070338198, -0.6113716788979788, -0.5418513956232471, 0.1351810947129286, 0.6970032615876025, -0.08946647692510745, 0.1379799649068636, 0.7973586558197132, -0.9486192413937904, -0.5817347637433248, -0.15414724156561999, -0.31253003251385003, -0.5870775099670722, 0.5509838406287553, -0.42887372490739173, -0.4115048396477603, 0.23120733874067945, 0.5449283835224092, -0.6426599207855326, -0.1860618699899277, -0.3209776571401606, -0.33863290005171676, 0.6885562331931134, 0.5430747384905408, 0.856799312118292, -0.08826169425197539, 0.6637471868845735, 0.10091665433242913, 0.4717043082925849, -0.2512989379111299, 0.3828002916407567, -0.7342573327017203, -0.26278679769134317, 0.4555692028354008, 0.23803232486074433, 0.5992609424100945, 0.3663163866113821, 0.9571848956655042, 0.8544442819507498, -0.6135332539018323, 0.36095492370465765, -0.7399442162776464, 0.47338177805280957, 0.06725888160937932, 0.9224279948240643, 0.4212224474311421, -0.1349338581493409, 0.14162002091305048, 0.05896920556233498, 0.9392687460251137, -0.8294675667129359, -0.14737286120572302, -0.05193723135383399, 0.08844462956952714, -0.35461255705390715, -0.8680283147862935, -0.8820105815143628, -0.9230603985727543, -0.6764504189554725, -0.12048877220702647, -0.6229351399069236, 0.28654669413457334, -0.022429407856427996, 0.7796364963434432, 0.15345602652749424, -0.7996190361560691, 0.2910506829299624, -0.3629873095758296, -0.3593917649004599, 0.1838401660118174, -0.8730960233297118, -0.5699742273762254, -0.44553295293836137, 0.8680966973588045, -0.6064342923493748, 0.1061465450722936, 0.07584465230438253, -0.7633518039871632, -0.8090136880590102, 0.9305858401791971, -0.33386991642026187, 0.3528839605084184, -0.19596315686381116, -0.4096310512083965, -0.3687340014760345, 0.3101300594832399, -0.04312982084590122, -0.46204884314123684, -0.6135204272811094, -0.619708103950541, -0.16508859936160047, -0.43015807441028797, 0.5629080184343445, -0.034034714585242654, -0.381386976303806, -0.6689257924546981, 0.4026378863965461, -0.23964077791541016, -0.6964689582535502, -0.7419761956656925, 0.8976527983023999, -0.5762639279100217, 0.7466843163880161, 0.23907555968564398, 0.3730190887975118, 0.8415995911049856, 0.7515957479530402, 0.540899117830937, -0.6899695496862122, -0.8958268466073758, -0.11129119302680102, 0.3574101465457631, -0.3312750872890702, 0.6199014669683693, 0.18843577454246163, 0.8656531121280682, 0.32383913696322075, -0.4852245869149614, 0.7758606946232389, -0.19759076755394145, -0.3522443670651778, -0.9855170094595049, -0.6112620678465883, 0.3425225391709419, -0.4240673881208421, -0.2774762316310886, -0.7443492511343694, 0.06003841291338352, -0.09756902366987719, 0.6945190447490797, -0.12140704911235578, -0.029303753611994443, 0.3364463384241889, 0.3449252677999868, -0.9910235671031891, -0.3333365888360462, 0.5385871454177835, 0.6991153227196529, -0.8736465330733563, 0.4206194345159615, 0.4622634424925769, -0.6509261263067232, 0.5055126905187102, 0.4348111052930128, 0.08786544769735394, -0.26296175864357796, -0.8775963646686498, 0.9470781742809078, -0.3129330708421434, 0.9630132488594085, 0.8970098174414411, 0.18563391674325214, 0.5505624099371695, 0.25746034753802904, -0.7916489530644137, 0.9831474159966027, -0.982866655154083, 0.4011623003964071, 0.716436626003399, 0.5336716674787079, 0.013673171329596556, 0.11499263744371802, 0.3107144335783145, 0.8304194330118995, -0.022162423546478793, -0.17896202570097164, -0.9655129514812697, -0.16361034477001035, 0.7121115476932787, -0.20416694097449506, 0.45615052558053915, 0.03761876130632724, 0.676998813298574, 0.16548389547614661, -0.24305677306550288, -0.2519934881755286, 0.8554423611952597, 0.2320945665663463, -0.7033637099465118, -0.7106004221834092, -0.2760180820419289, -0.23713841816460124, -0.6510060603731471, -0.4631535618510427, -0.8517193112714525, -0.4347139590519409, -0.1301489172883874, -0.15000444413254432, -0.8031726366976701, 0.28708700416408584, 0.02447925348596458, 0.5325430700602503, 0.4021382671485043, 0.5346119194458381, -0.2914739622660425, -0.4472785703776647, 0.6271392944983643, 0.07615015353510535, 0.6898617427789837, -0.030365474934727573, -0.2220957148526926, -0.11200013752925886, -0.412320899769594, -0.7691279983391541, 0.4978816033441436, -0.925596384132735, -0.8384562635513733, 0.7741822224103014, 0.9841283398361425, 0.8744912321966456, 0.11639317588482934, 0.3493760915579611, 0.7749582805617283, -0.25228462063071255, 0.4605453714406613, 0.7051526557305474, 0.8856604764916938, -0.7813456372475898, -0.1918521075071451, 0.9989700377221518, 0.7401794566010349, 0.22188785439664072, -0.28814198081477027, 0.6688158974377525, 0.4138240421991042, -0.363272086983651, 0.8480621841497218, -0.11402877624453289, 0.8714627319182848, -0.2756278265286647, -0.38359249201536927, 0.31259249152313284, 0.7971697852180999, -0.01249305733987116, 0.022916292365635416, 0.013912724214566907, 0.20995301979833103, 0.34553311030641276, -0.7741072898150088, 0.13229082290831284, -0.7030167715140059, 0.34844227086905133, 0.15856094180433544, -0.23052255830448143, 0.28554526313127515, -0.9404704537338107, 0.35936165749695537, 0.9418832244888413, 0.31012471619247184, 0.12689172184678665, -0.06198185881348173, -0.021124643950774846, 0.6761943097618848, 0.5237531602830898, -0.5474419788848157, -0.19708450228243946, -0.019304888079300087, -0.2342379255570095, -0.4862515623572228, -0.6680529252426068, 0.9341941201721486, -0.6583396980910017, 0.4436378842417976, -0.10892984276931128, -0.8807084136863184, -0.6770302089432805, 0.4520148306500431, -0.859487334360185, -0.2628849160458846, -0.16488465341852043, -0.23196828233588485, 0.28111977147342126, 0.6697648841441941, -0.7624577057036128, -0.0033556395708107534, -0.301973014056387, 0.9185721307542956, -0.283104406510271, 0.784006305278256, -0.4105844287684519, 0.24980636158870828, 0.4201209720272505, -0.1765049976350439, 0.5805417641016801, 0.17837420629233258, -0.5789636415620472, -0.06113268830868157, 0.7356256838048592, 0.871777929916874, -0.7722183489677885, 0.05368735923332424, 0.7300294097761111, 0.048649257637958465, -0.24671179761756457, 0.8671065473665824, -0.43182014911176814, -0.5623403556155782, -0.23783111605240914, 0.39936819230932996, -0.9677872940321728, 0.7110288773955591, 0.8413519997613983, 0.214151078410606, -0.8785664868371268, 0.16683438237417936, 0.561156514087803, -0.7818344468886884, -0.4933696089037829, -0.4258058895560368, 0.364825620548602, 0.8445847946990714, -0.7560002263676306, 0.37587162861459467, 0.29241090582277485, 0.22621301862243648, 0.6776179612031159, 0.2342070371663938, 0.8312266300989668, -0.252271774640076, -0.7987285847671797, -0.731109600651578, -0.39934815116399847, 0.7611471736976376, 0.6626460633563169, -0.9849001480775113, 0.635175659527093, -0.9940364215707898, -0.7465321818840571, -0.5757366371185131, -0.7558333592665254, 0.657467066063143, 0.3623098070074271, 0.4569281538278023, -0.5590220349487187, -0.8748558069273102, -0.4299132111616013, -0.6189060734968364, -0.40683076819948916, 0.8123355091714397, 0.354633637293148, 0.4687358304432139, 0.9099608266338994, 0.019396903467518545, -0.8677373836764506, 0.931758106921148, -0.15403123839847632, -0.7779944004667407, -0.14495869817319806, 0.21102117367270257, -0.2727897834272599, 0.3892363589958616, -0.1654841348820204, 0.843798155425886, 0.8728010657166774, -0.5043000178326924, -0.9222747989096962, 0.9402866219517556, -0.24368790020202025, -0.053087723429093625, 0.6946675778590936, -0.014813847404216762, -0.9318356157654857, -0.04136119693367557, -0.7859240769010318, -0.35979649228981914, -0.9534283445853571, -0.7934116693307911, -0.1491248041283555, 0.07365478260378211, 0.8455780505813533, -0.043354828897370856, -0.9650388820386882, 0.3191629299780865, -0.46266013262864947, -0.951917682520651, -0.7153061785831789, -0.8826203740107161, 0.4383414627766209, -0.8815753984484713, 0.24861673608398904, -0.28662216716483724, 0.9071000587861662, 0.8260444441803558, -0.31260362472288894, 0.7822803681217207, -0.27079819021242146, -0.23249330054316442, 0.1369233273194863, 0.2612226241254443, -0.6267100453156873, -0.165148877343972, -0.5442757775387639, 0.008841034865660236, -0.27953081944950986, -0.6424875453080285, 0.36373651560495057, -0.23219918363764958, -0.8185820392911145, 0.3930819896305098, 0.36933316273699845, -0.5645273263614787, -0.08624510159904242, 0.236363981356702, 0.5806320506065723, -0.8109068510282449, 0.0800625370990844, -0.22145566035981923, -0.08775463297687769, 0.834217523605024, 0.46501491867718947, 0.05962666927989613, 0.25555373353022337, -0.4021356856278142, -0.2930493773956211, 0.9758827577378806, 0.3805545290889767, 0.011156745841509386, -0.5569183481165767, 0.31061045528638104, -1.005984340814475, -0.1318264742086832, -0.1919948928747833, 0.11890191762578917, -1.094802239306262, -1.1697324378807157, -0.3029239793859631, 0.3655266231441851, -0.8951843593322677, 0.0073336285140019886, 0.9891660450172244, -0.6028793539045589, -0.9681592285763918, 0.43510700361045873, 0.15832384200487648, 0.8178296704787797, 0.6926679850165296, -0.6785621446653904, 0.6656692563605813, 0.9195672774522621, -0.630532134283746, -0.15653869370940043, -0.3136848647893409, -0.7311737254359407, -0.7612691980099691, 0.7896698666961517, -0.16976107998679502, 0.7139514180789572, -0.943719608321488, 0.29857504024018544, -0.5776292845127564, 0.5348112512034586, 0.5551928531858767, -0.9962525922393544, 0.42886817286070156, 0.8462768604543462, 0.31912728001427526, -0.46816101393668896, -0.062463457618606055, 0.20705280908778279, -0.040641666692769585, 0.20883359024102943, 0.9460755500264681, -0.7125813755321595, -0.5888884339576004, 0.21402688297343175, 0.3771137753872842, -0.20435943796914868, -0.922765082465439, 0.5761139143134688, -0.07552740423586402, 0.1348009837372719, 0.9543573066892515, -0.9231149947114956, -0.07758429876688089, -0.13184050641311895, 0.19196347897104138, -0.9078850225237916, -0.42884056029599327, 0.9904565533432359, -0.17518650986960305, -0.43431098430090564, -0.7632279163040814, -0.5993800837807954, 0.5749645347599672, 0.9456967691303106, -0.1795050492917778, 0.14499654926835048, -0.18245214736441207, 0.04391646624954415, 0.6484760179447833, 0.7907328600529315, -0.40370013100612656, 0.675223009974415, 0.01981219523895228, 0.38039654646557675, -0.07699602641570924, 0.06416597488026166, 0.8341043954493972, 0.7795346953637361, -0.29792520241512443, -0.8660899656341088, 0.4068061466517652, -0.22827603194540314, -0.9023359394423636, -0.8833211595756802, -0.30190610892957337, -0.9124940314842156, -0.8567785236808809, -0.4061892684134276, -0.8827316833099068, 0.8285079305392338, -0.860974426742781, 0.7775691394749151, 0.22395930507071693, 0.996920801853441, 0.4138479943729514, 0.22687320184992288, 0.3798478848308422, 0.2220268147557627, 0.5777886969367998, 0.7592882074555938, 0.39946398206284606, 0.14403814757238553, 0.9479326951819533, 0.9864789078290894, -0.45673590906005734, 0.07214943671689311, 0.4609368954524613, 0.5108777087265903, 0.25285541996941596, -0.18684773348713168, -0.33577310739908994, 0.1929899136590003, 0.02748391198916922, -0.2589175567045705, 0.8243352416928316, 0.4221141181053203, -0.675271450563957, 0.953569869950001, 0.07794029336031283, 0.21900162391263311, -0.8174439071294319, 0.5238441694169014, -0.2704989846840038, 0.541741881360785, -0.5060778572246112, 0.5977598382048197, -0.8826684403671223, -0.19906631126319296, -0.04367937534247757, -0.9385381508175892, -0.46245129269244445, 0.10160647009972168, -0.5999399630339819, 0.6505359818834546, -0.9804105384654518, -0.8267931392268277, 0.7025533728918665, 0.7047431463547129, -0.6298904210437459, -0.5233377482577228, -0.26342067544278835, 0.8123253634234877, -0.5199338897770709, -0.820305386948839, -0.5436868387686984, 0.21956575782858812, -0.5056652207631214, -0.9507077793352052, 0.9087351344353314, 0.22466967773720725, 0.4875422282375601, 0.7068793657542143, 0.7534793411074177, -0.48744118459299024, 0.5880598142032809, 0.5505460142203613, -0.8702969780313978, -0.819120966066782, 0.5630406227219884, 0.990028435957351, -0.3533814615184281, -0.9647484071109316, -0.262818158939246, -0.10021250096894296, 0.9018133346166768, -0.792491961490861, -0.38847163799099094, -0.871247236350029, -0.43349535986917664, 0.22297968707792504, 0.7068451184474527, -0.631467427675614, -0.3939444298613062, 0.8262189762951284, 0.19737922978717615, 0.7147470199658039, 0.6757746773234161, 0.5980563494270574, -0.42430560125107997, -0.9458001000936951, -0.4279795720465056, -0.3015302810560796, -0.29114573290705326, 0.4846149912116491, 0.07863526377098728, -0.1454841215158862, 0.5989382265529224, 0.6056728250805425, -0.6148921516130914, 0.5512551670292036, -0.966021919134781, -0.7712492293222073, -0.8671987224852729, 0.11358169460259959, -0.6391868708721544, -0.7637646357479313, -0.5540989570419212, 0.4570968148082486, -0.20956207940836036, 0.6860648335890349, -0.15248464599452793, 0.9312011515363021, 0.6477476435399214, 0.16541037272264547, -0.24299489879268932, -0.7188231111910033, -0.6473514814442676, 0.7520604201888268, -0.06647380539555092, -0.09085850295692155, -0.8926758214688171, -0.22852579078455348, -0.456505526287015, -0.30704724992393584, -0.36408237319582293, 0.30368433798438565, 0.7414462427011079, 0.613096045712808, -0.8468960981285869, 0.36815038078373075, 0.11125256774041113, 0.08525335050173403, -0.08953328069360325, 0.010700850995992797, -0.19587741542364667, 0.26473513013939387, -0.671239158855609, -0.5652108584073181, -0.5501893927764525, 0.20808932055101526, 0.39368656636450905, -0.4248504544896792, -0.8156219692340223, -0.9358158342455805, 0.9226409380354812, -0.8073085941615998, -0.40983917264851955, -0.6708088053174526, 0.08483455495903547, 0.21134113254626796, 0.6722689931853694, -0.36487559792723556, -0.27758430904806586, -0.2541146407418, -0.609138520731112, 0.1704471701162582, 0.7353785573941567, 0.7856409254302001, 0.2404340577791626, 0.8293972425694411, 0.6688664201588332, 0.5971930192296921, 0.8439882393189251, 0.8405266079910143, 0.9960289720837536, 0.689690618616386, 2.589662569360706, 1.073416701290243, 2.1468720335514475, 1.6342671417679908, -0.9797763338665477, 0.2886605918935228, -0.7495273660269586, 0.1881142989297866, 0.8398172798833863, 0.29421993426649795, 0.9478936254218726, -0.5362485951444547, -0.8340314187612956, 0.02145687899402149, -0.24711243751923417, 0.4279556298315279, 0.7635689227490243, -0.9966648856134868, 0.4442516471151947, 0.1322656075882036, -0.9426636170203921, 0.7695075319950471, 0.8910435502199385, -0.40231370498294994, -0.6041332464928524, -0.5575435512035074, 0.6874072389532604, 0.9798396220489365, 0.09065812254919403, -0.7312106548339699, 0.16600823858110703, 0.14185808397368072, 0.9040836335304046, -0.35902513840351524, -0.7669930886957317, -0.15279731426372956, -0.4913450635151726, -0.8092483060445717, -0.011560416753060965, -0.9630199337808814, 0.4914433482331262, 0.9188468943061443, 0.018532132404213586, 0.5026702729520875, 0.15251176376205478, 0.9766210162419828, 0.3886649796473156, -0.8618405617339113, -0.7904826340731295, 0.7639363422828256, -0.7218051801515486, 0.339531546830375, -0.470801996773778, 0.19947609058858284, 0.18378987195037033, 0.8994671319697731, -0.6734634716987822, -0.8444860123472882, -0.26042767003114853, 0.03498520853576159, 0.9687547282709357, -0.9276659110791947, -0.8420952862971831, 0.7151149293621155, 0.9324126393432008, 0.638805963686657, 0.6745687554103377, 0.264227625481803, 0.8465435803215844, -0.13637551755266086, 0.3146674463805017, -0.27547792122176173, 0.6224601447770473, 0.2332159200981574, -0.6072632036566206, 0.8358851796155509, 0.6471734771250113, 0.5513086633686464, 0.10960532156491687, -0.9393143978152252, -0.6564463425307281, 0.46081684642425524, -0.3100112362264351, 0.11869510295052788, 0.22138611444336465, -0.9497119851138978, 0.4524158303979029, -0.7433274398310015, 0.11341088579235259, 0.2435706614517823, -0.02325822380477205, 0.03307379901152108, -0.0578453034955515, -0.39369395727463563, -0.1796561946529993, 0.40413460243956756, -0.7608935343785848, 0.7524539493429829, -0.13287895396981408, 0.12375097699576187, -2.8802070277722014, -1.0721068204727442, -4.73120860741, -1.6702939345024654, -0.37264857257118855, -1.5315529919526865, -0.48435484881879587, -0.34565668454400766, -0.6638807821429638, 0.7063739925842736, -0.4791576645935818, 0.11306394381270013, -0.7829438544900482, -0.6843282138390467, -0.25022224455435405, 0.7390440866857542, 0.1346499336291802, -0.8613986783888035, 0.9280470879020928, -0.604686060434803, 0.8268663376318806, -0.9523683741452655, 0.326487042183794, 0.763550072319156, 0.5373882147412885, -0.15866458447622334, 0.5536427634553847, 0.8602041730541239, -0.23355339104670558, -0.2358535327747875, -0.4211179006313872, 0.9861069767428161, -0.33915638422193917, 0.033805269442421126, 0.4663590062227845, 0.979518612456433, 0.9994197587822491, 0.4904378832343208, 0.709512812302624, 0.298791227260387, 0.8847011229533444, -0.010048700750254547, 0.12241088468058359, -0.16922777355133145, 0.3584012283176743, 0.6245223734678218, -0.035152256603448784, 0.2408790686347595, -0.6763465166167164, -0.2570324079332593, 0.8326437538610085, 0.1523518173482763, 0.35456362148223186, 0.9688724088366698, -0.6437530266064804, -0.40794773956000707, -0.40426094611714913, 0.8658451003955625, -0.7498176496242126, -0.8119677880431653, 0.8960514473265706, -0.06249539247043567, 0.22351097451398805, 0.5959312775198318, 0.05181354300611729, 0.14464436438863193, -0.17987359077905052, -0.4053758713601834, 0.7625563491066627, -0.7756883007597035, -0.5757736287598345, 0.2639623037805854, 0.01803066760800598, -0.974839540533581, -0.922774158201817, -0.33196772062337354, 0.523054047120669, -0.9947126647907716, -0.971868877992343, -0.7815720740905066, 0.3486979701655848, 0.9889390530300788, 0.49946235266995287, 0.23792480669078908, 0.7753984369224398, -0.0002649252821953496, 0.7056585247871574, -0.9747182816582394, 0.7385526339547897, -0.47253340587039117, -0.4708514958167591, -0.17591970065653229, 0.3121701860123738, -0.7626718136425727, -0.9152941368917922, 0.940992877052272, -0.4335232127206612, 0.7474832848988024, -0.3183099063051571, -0.20167581363168496, 0.37728803365806707, 0.12406545879747144, -0.4846409496849149, -0.994950197430899, -0.6389980925271506, 0.20196836133392915, -0.04049259559694285, -0.887898975615377, 0.4519141165914127, 0.3322201307873214, -0.557527850152663, -0.24918949080013753, -0.2544562693811592, -0.04234766677412649, 0.5394036382165142, -0.099009990133474, -0.0946755622470179, -0.347207583898425, -0.0962448539929599, 0.07757523935847321, 0.06531942662919188, -0.906924126916753, 0.04573666933900489, 0.41496347307022985, 0.17150097430831046, -0.45505131320548564, -0.5908718022226138, 0.25618969951883264, 0.5642480790293782, 0.35497247653826114, -0.8563463204093333, -0.5000375841763294, 0.322828818986324, 0.8878467567199289, -0.021115706537067958, 0.28168758036532027, -0.22931474590484835, -0.358296381051596, 0.5248800072536095, -0.7873292658606283, -2.8706029634313435, -2.860231411606165, -1.933985348876162, -0.7639578414168056, -0.1753368327710545, 0.29702033657615656, -0.42496124515676303, 0.2204420183320046, 0.5901687308301868, -0.9819929841780086, 0.02624264505950724, 0.1321949477001716, -0.6295745959122105, -0.4866221632040426, -0.9077344281154964, 0.3643735932862957, -0.9757926864825943, -0.09401837441195826, -0.3391647704056917, 0.4252766555597609, 0.6208995049567152, -0.6553596381253959, -0.6226615688896446, 0.3601872769586767, -0.48286589419898895, -0.1607986184925323, -0.9260146694596096, 0.687328015541768, 0.9143476531909933, 0.06491702054258597, 0.5018707847907773, -0.5721515440811833, 0.04479870082517534, -0.5266082613865957, 0.2762839707235447, -0.6978273251634028, 0.5120559091393924, 0.8818386756903767, -0.7024830408518705, 0.72630468355273, -0.13154111764074283, -0.23437015761883329, -0.6648719939590717, 0.7162082101352769, 0.23080274747382235, 0.6262766709869743, 0.19523837142986777, 0.5227007431181623, 0.6355270535960256, 0.31466394057976577, -0.9911810024776442, -0.21363043208604826, -0.22713525981352145, 0.2803258928466492, 0.19742782680502247, 0.31063456696046843, 0.8279821716494495, -0.20679753650638277, 0.04083102852884335, 0.16930154576897083, -0.674706604343434, 0.5129587147122854, -0.7739643303352297, 0.7390180600253891, -0.47256666078501475, -0.5890044676063679, 0.3527094896994971, -0.37451467733560007, 0.5425928310195218, -0.9879645318570156, 0.9888349468948143, 0.23216914721767767, -0.13912079723099935, -0.34247058332587654, 0.8703047810016589, 0.9615502942878882, -0.6005810288892661, -0.7741713193520363, -0.7738225058653103, 0.9251037054580644, 0.5482171462135468, 0.950889768755536, -0.12413527598727914, -0.6222111705190327, 0.608682325603153, -0.7184317735743027, 0.537281310506464, -0.9548031161444488, -0.32302351433594745, 0.9561311771365149, -0.9581523396247325, 0.09432531847091474, -0.0319874793990238, 0.7696818154802161, -0.014997354384869821, -0.4938409771684944, -0.7933042910155692, -0.3207250497718592, -0.4790659003527231, 0.22899920518406547, 0.0557522520377598, -0.19283678066426613, 0.47173773712079914, 0.7082084400058442, -0.025540385575208324, 0.22679102227883075, 0.4383890800722041, 0.8156262421443452, 0.19964387416628893, -0.6581455226068809, -0.5435048334293886, 0.5491218682529251, 0.24914060354583345, 0.28133602917885536, 0.822405675393826, -0.9498199054953678, -0.8697531108677539, -0.7140921784892407, -0.8945516049217919, 0.27693643067822804, -0.5111552199801073, 0.897206459735328, 0.30164058681938655, -0.7251519967541393, -0.7953872592739035, -0.13097801316737345, -0.6932799182732761, 0.3950298614352863, 0.30961581980221364, 0.9640456363223413, 0.8251052229466451, 0.035519879509549934, 0.06985731146744456, 0.21598630068888558, 0.0779567075472336, 0.6467582025833367, 0.0028474754400378277, 0.25203858015381586, 0.2654536758587922, -0.8981684924424929, -0.8367602748412148, 0.5829048599140207, 0.1583805085246004, 0.4672218038742184, 0.7111079680098644, 0.49907436524407345, 0.7956066159684518, -0.5755470482376996, -0.2522626728592712, 0.68688167220526, 0.49877405052694823, 0.338130140782569, 0.029300089042848754, -0.18503614870546836, -0.4775921831455441, -0.17429211259593136, -0.9977923095219094, -0.9507608094561553, 0.6894454541561386, 0.8014016155231178, 0.4902114168441931, -0.990187338260289, -0.75922187363064, 0.5927410655325123, -0.8086111171575217, -0.5322616167177914, -0.8452306683559159, -0.7660109188449029, 0.007654763271527143, 0.9290075266899349, -0.006969396819030305, -0.9952557205717394, 0.8390845606076018, -0.5354835374868103, -0.751793452175201, -0.13673308146305718, -0.6981317787725347, 0.7096945743347078, 0.3651284142589206, 0.3133192165208327, 0.9240203646449565, 0.21450355513384856, 0.8849023570930812, 0.960411537099426, 0.023836007546321092, -0.13451152025847546, -0.6771023012157704, -0.5670171398904942, 0.7194700399050078, 0.24233954091075383, 0.5465674871584916, 0.5969341004827893, -0.3823194884945058, 0.8757281723500177, -0.3485379844062444, 0.1291893458042277, 0.4299930129454732, 0.2663720870623536, -0.7113881061932286, 0.6336307637015604, -0.9303625643896665, -0.9758326460034974, -0.8944823262677986, -0.28677066466760026, -0.27028641622134875, -0.33287007950665526, 0.36251159303069524, -0.7743056254663763, -0.37931614906270816, 0.4993570901477815, 0.7298437189134619, -0.8594567702120397, -0.4509068024586753, 0.011380928011063718, 0.9731962464143948, -0.7098311861282571, 0.8752299228152247, 0.38480807830826236, -0.9051426991287335, 0.8153940653234231, 0.560108807148392, 0.8098637468190246, -0.5944766825506449, -0.1888843277975789, -0.3879290476184205, 0.3590356834810129, -0.8372321897875503, 0.13632055535777798, 0.32557118326978784, 0.08548626042979923, -0.8912868738614048, -0.9807003372603731, 0.4033891592278571, -0.15134525085307704, 0.8276824807549432, 0.6604790946580277, -0.9767450825145094, -0.6075178870182687, 0.6943350851481287, -0.5387523695223473, 0.038597549353382776, -0.23820852924353475, 0.10626704918877805, -0.560659580488738, -0.09925702729935848, 0.33529586015375945, -0.4277697501965867, -0.8869971307141584, 0.7163169819273236, -0.7570832493110353, -0.8349583635662718, 0.5634509919825423, -0.1402984043521236, 0.6894397446188076, 0.7060392199874403, 0.15024416115109895, 0.8626268721642678, 0.5941793201339114, 0.821063854590488, 0.11590564227283862, -0.32808835062483466, -0.08818749755870758, 0.8367265357164311, -0.3097570215442229, -0.16833771843936507, 0.4095709214588512, 0.33011922764092816, -0.28082391993967204, -0.14913288854893203, 0.6592550560017285, -0.9984177494471846, 0.39792602987844794, -0.7087375194745849, 0.4157104684336501, -0.6981976810356565, 0.04012264701020407, -0.09180742899804906, -0.44383043435243863, -0.675208162387724, 0.553484115879737, 0.05278340999250952, 0.5823106887292091, 0.6042404451159833, 0.5167121606768732, -0.4259679207069764, 0.910134850992641, -0.5360460876785242, -0.9497004731643899, -0.9401548038964422, -0.9708084496989902, -0.04961256841116635, -0.2314513521068442, 0.06122017474233821, 0.48184595387976326, 0.6131637671451691, 0.8186407415681098, 0.7805697791663821, -0.9309957507961095, -0.2831770653879424, 0.14556571359490622, -0.42769409330406405, -0.274140824839616, 0.9338283401771377, 0.9222311574139745, 0.15779341225243937, 0.33981549933983235, 0.8144016445988413, -0.1439924812605502, -0.8326970856885045, 0.4555083103490718, 0.3047985887841078, -0.6098301662680266, -0.2606039534517708, -0.9093927394733952, -0.49076417718502285, 0.9865512801763507, -0.1195725355342816, 0.5752076327270885, -0.12203902529906241, -0.355851166961346, -0.017975902269417254, 0.5853175444820455, 0.5935978211702411, 0.8112474966047221, 0.7807163780760076, -0.4051827217939421, -0.17362204766115763, 0.02821808116629909, -0.7448912628840578, -0.9021188357025098, 0.2198961078977022, 0.0279191519895996, 0.7610411428725059, -0.43614306711533857, 0.6447224808957919, -0.6418084459712126, 0.7040980692978167, -0.6599959996169249, 0.6905998978608787, -0.07643380199201277, -0.47627910115649086, -0.7279174738831153, -0.03189497601724134, 0.912453955093024, 0.37116745539911866, -0.2579169972251507, 0.5529370858268974, -0.490910138984634, 0.5703279872021203, 0.0576673972438273, 0.8840098895095656, 0.8950797056484141, -0.4565309022850539, -0.40793805745892886, -0.6282661604808901, 0.34618132889175146, 0.35584163471484453, -0.7529026550022069, -0.5913779496382428, 0.19707967724930864, 0.04767306401897087, 0.0073770944153244145, 0.9023962486784554, -0.5941880714156329, 0.3292682309511621, 0.3122198125665989, -0.4866779005985342, 0.4517916057153233, 0.04015449163682949, -0.7679689938351273, -0.5173401184348625, 0.813389139071863, -0.140493522266101, 0.7653678698815976, -0.6883826262214363, -0.44786899581981987, 0.1225515800426018, -0.6869286098815428, 0.10355845606629521, -0.022262236163390403, -0.6728371951205327, -0.43498595350285774, -0.450699251742783, 0.5227552479525577, -0.48736741695337615, 0.30354179118631786, 0.3724469270839419, 0.33742828241496015, 0.4610015462521715, -0.2840539119639123, 0.7125993377560587, 0.7190019193030162, -0.5466321907434819, -0.35557228950033437, 0.8124465918223227, -0.8112037532290794, -0.4403425115170725, -0.6194523661002482, 0.6721749913946446, -0.6348716336353786, 0.28152908056905823, 0.9751226025922712, 0.43479624434721176, 0.2047593320548653, 0.8675650140380937, -0.9944654602717291, 0.8752865356087789, 0.02812883521162557, -0.2674052092032022, 0.6219213837180118, 0.9811263934028898, 0.28159941303021196, 0.4241965308671072, -0.15746733070929886, -0.7017148576814352, 0.16079049355997643, -0.5812982485727824, -0.8843202337935152, -0.27155617577973956, 0.9624476731472202, 0.45431269896727466, 0.7345013190737152, -0.5976222676093365, -0.864364178788773, -0.8928922816143384, -0.3804785271874903, -0.8970879871315895, 0.6098150243082793, 0.5924215642055888, 0.6913560822869516, 0.7966060532548127, 0.5171647165432627, 0.9237747898455426, -0.5531994855577076, -0.9174729070292771, 0.19691566034231878, 0.21112450881826117, -0.7859294555995535, 0.25335265785587446, 0.6461858921125954, 0.7987136908521404, 0.9802449180659081, -0.6177061340633381, 0.062104661756103186, 0.26481290854274553, 0.8960994093967616, -0.5336047624397375, -0.09757676594135245, -0.47043983363516984, 0.017664482603530374, 0.8569831212868566, 0.008372870846569125, -0.33736106468248717, 0.36515615658140765, 0.27609988371104954, -0.448583677466472, 0.41996718415786205, -0.8791936701616272, -0.0023907695903127024, -0.8542309468265228, 0.10276265287283626, -0.43840830210990234, -0.3069736081510597, 0.2784435426762797, 0.8530945157118801, 0.7924666031238901, -0.3834156486231124, 0.4341911483339791, -0.9558615438953235, -0.2395937771347083, 0.36068729321541904, -0.39690398488932876, -0.21982264037841515, -0.867241182423361, 0.7221974177139687, -0.30157323531514124, 0.8461936535164953, 0.3072354996385762, 0.5533241731027065, 0.5582384588808313, -5.627002043563611, -14.468968453953126, -4.452991082413595, -12.849462951118717, -24.000770603930526, -12.121443562999364, -11.939504906534506, -21.89999395763218, -28.875715055185378, -9.326201901493016, -13.940476214936819, 0.8054241446184152, 0.378336621669354, 0.1046981587955067, -0.9321965660590843, 0.8477742626619282, 0.8903435385363181, 0.5585419569302632, -0.625078110363239, 0.540160997733885, 0.3574494775934167, 0.17054133453679587, 0.45550865175474864, 0.3002158997547888, -0.4394773612602261, -0.47287423966553255, -0.8154223020665128, -0.41031022467843004, 0.404573696454261, 0.3831153856758338, -0.9931720276794533, 0.6243818587591881, 0.8898299612025293, -0.7762557751276371, -0.5463098355473957, 0.20384392618820968, 0.8025930168933209, 0.5907070233388312, 0.3978518629025396, 0.7144537373549067, 0.3919710860276251, -0.7284434763220806, 0.8620103585440252, -0.7632243067472134, 0.812496970943949, 0.22383603196900093, -0.07469298629583175, -0.5375899744156438, 0.19052176879761462, 0.7149656177595445, 0.6497080447785686, 0.6410253845614398, 0.38892815317505325, 0.848999371487291, 0.6011520378898849, -0.5714452592919319, -0.9814167521282953, 0.03411916127805448, -0.32720598989173144, -0.7945386904469711, -0.5563875943683292, -0.9620260801968312, -0.17854667580284644, 0.5247970961599011, -0.4667963289219863, -0.15144207043986424, 0.4534004670045355, 0.01858139050274099, -0.41002823146999456, 0.8587839292449142, 0.7130981774901626, -0.4031913315649498, 0.2034927078032256, -0.4497977846902246, -0.19506200955499442, -0.9183954032349744, 0.6754595441993905, -0.5621099017431281, 0.21122355995695297, 0.8491459995032116, 0.9031638099758348, 0.08393639599542602, -0.4765421925216702, -0.22073338052382696, -0.1692917662403226, 0.07863138380415347, -0.2141499085539067, -0.475835825196381, -0.27772211426809124, 0.06114759460800312, 0.7630189524290636, 0.18225179962605065, -0.8505365501854645, -0.7979348019683383, 0.55061127072541, 0.8267852688542832, -0.5808340149654412, -0.11383953679877346, 0.19626330877353015, -0.795517037331612, 0.28994370213827003, -0.6062158262826298, 0.9985488105792351, 0.8231138570360281, -0.16081613014394125, -0.9152761668132601, 0.9920874519781393, 0.6968599801657624, 0.42928093987255034, 0.3817035551032635, 0.04057541458518088, 0.5121885166137248, -0.5789285310274948, 0.9617242194385329, 0.48065661251625547, 0.8927295252752707, -0.4816854484824764, 0.20519051320690274, -0.19754230011908724, 0.6131985270396982, -0.5028276434721952, 0.754810869537744, -0.5738414999236368, -0.6473558688611358, -0.040289097104935, -0.038589936075822395, 0.3887649231232386, -0.3992525818033572, -0.5679217952231419, -0.0932087088205138, -0.8342932166351829, 0.06682167530848715, 0.1505747735761418, 0.86241369059599, 0.9630629506979158, -0.0010301021119172304, -0.020883410165512206, -0.12949886784877052, 0.1838913953356509, 0.8426953070579033, -0.6646175711762452, -0.8450661914132704, 0.6097538612279547, -0.5839367797520829, 0.8011497812653616, -0.20700417684632866, 0.6827184317663124, -0.21706725206709443, 0.898411627064909, 0.8858501162047154, -0.5651345256858433, -0.1637165117362127, 0.7733283427955231, 0.8445133121954871, -0.6009305931540894, -0.9617017558613818, -0.22164400139500096, -0.14553221608942035, -0.3062932001116967, -0.2609345371505698, 0.4223927764149735, -0.10032184762317864, 0.6951082798563217, 0.17464018452003272, -0.4882328055296099, 0.6725201558269149, 0.4710097925548933, -0.6616327642389879, -0.4976764262256723, -0.19215817673482594, 0.6481072984063099, -0.5427951988128961, 0.6240487766665932, -0.6113361914411946, -0.26369011777061124, 0.6672300270781566, 0.35594973890877, -0.3948580182937116, 0.5719792915877082, -0.5756484998112699, 0.5929862116784623, -0.07254896636998565, -0.784628755831301, -0.7775520172083799, 0.311662061076982, 0.6393445696220181, 0.8624119206051477, 0.07162374450059494, 0.6406429153341522, -0.5303964942185735, -0.16272502280553724, -0.00921921807432824, -0.24196860658396502, -0.007065763794793289, 0.5006499731693945, 0.5349540573770795, -0.8320356541247786, 0.612046387228327, -0.9549527240109081, -0.6728968486777409, -0.4137654425138244, -0.15709921690816064, 0.8479471378764518, -0.19381341207300906, -0.5547587784648067, -0.3162532423391602, 0.7784413051194592, 0.17744407790890837, 0.18849763746883363, 0.876720153713314, -0.4346312174207796, -0.2457815090726878, 0.947251974038406, 0.35829338710237524, -0.2445431902807722, -0.7605643303367702, 0.4387564969543145, 0.44316869156828953, 0.5497330303899397, 0.1427141331846098, 0.8371247530640233, 0.6594457295690297, 0.9978732870096025, 0.2979808031858533, -0.7235115724783161, -0.512125656997275, -0.7070014795820931, -0.9197264966438976, -0.1750729028251785, -0.9533717398806789, 0.9644418572676627, -0.1873754978920834, -0.4603324911924891, 0.5976238084594772, 0.5106454425822728, 0.6432725642118435, -0.5395690519675211, -0.42237438836406227, 0.9436982142471495, 0.5402691660216561, -0.38140700847897, -0.5684068465195993, 0.1393252789191921, 0.5126229201983743, 0.11294781811723564, -0.7434586788775097, 0.6811460988684288, 0.18408172819026203, -0.920733721711058, 0.15252019449295173, -0.5281584882440924, 0.9846237220047926, 0.6987342067506621, -0.32460851577736616, -0.7411005519444407, -0.17701682910594618, 0.21044404326423183, 0.8661934967855767, -0.12692648289902375, 0.6603425162288084, -0.8839698152224917, -0.18678161139739347, 0.10973794637660528, -0.9249288359573788, 0.7093551289720412, -0.9740773524813868, -0.9913389282327492, 0.8745955424274758, 0.08731730229916201, 0.6143326947039938, -0.7488944108067175, -0.25236146184263397, -0.5424659726509773, 0.5120500647551507, -0.8697904442902089, -0.30559140894964787, -0.7606940195825753, 0.5846463398322883, 0.8191594009821528, -0.5039256855776393, -0.9104817621334407, -0.5676150621891671, -0.44281702706606496, -0.08100161095895508, -0.5623522878729865, 0.20431620780817816, 0.47454246657317256, 0.9187782135322016, 0.8601701053937734, 0.7522464360776546, 0.8246995583735319, -0.4831551679344246, 0.6900185213238663, 0.7456808505882084, -0.9223790053854664, -0.17565209319111652, -0.6855704276186276, 0.4384768545401616, -0.6011774662740179, 0.801486800347015, -0.4015782132890351, 0.032367754023264306, 0.5524972579790752, -0.8109944347075655, -0.42824689118321824, -0.5319869598120937, -0.18816231949801532, -0.7652696868858813, 0.25574585693391994, 0.02450616650901072, 0.7673852231956273, 0.6053756817627833, 0.5455840733364428, 0.16034468239747524, -0.4052177326890247, -0.644287035384552, -0.5283321890819168, 0.06811082242311706, -0.9035783250821672, 0.30713147953221953, 3.428623978296611, 68.57075545002942, 41.377149279446904, 0.5563955858316241, 43.21224413667843, 8.542942955294638, 0.019856879709464037, 0.49266453872304394, -0.38069568983136604, 0.8704149085838613, 0.6629982442904279, -0.9945367828086107, 0.34262671021673996, 0.07882757173878896, 0.6476810448059351, -0.7250206582004153, 0.002107829498703806, -0.9632508068818635, -0.5586900075398031, -0.35790384570773504, 0.6874862710459089, 0.7519895346395848, -0.3403855129639197, 0.9465624895740219, 0.7072536777758087, 0.8694608648155415, -0.1827857904698338, -0.5408677294187596, -0.3578600959098499, 0.2929261538125818, -0.5860289541172068, -0.07127475742444389, -0.679893324317147, 0.9773755131354254, 0.9332793672402986, 0.04441381915949005, -0.9119316378435969, 0.9598910804675622, 0.41437065947236906, -0.9340871230937742, -0.8677459585303358, 0.7091202175355913, 0.882413946969453, -0.26802588884511813, 0.8182993382760095, -0.08106281819295291, -0.6203861128218413, 0.4971383632156581, -0.7552121263186173, 0.011650765335380564, 0.318002055282282, -0.09765929911877103, -0.7223698047949858, -0.24020602665128377, -0.9058848656094372, -0.756893492749773, -0.9854637107293962, -0.13649954283813925, 0.8412557777585474, 0.6391948096465367, 0.9257174645611521, -0.2750916490997579, 0.00349635736907139, 0.7865347772306241, 0.4679275757854173, -0.5922506475382172, -0.20450652621189858, -0.7679758092001776, -0.5357183314297067, -0.819106718107951, -0.0055305380216603695, 0.3945608394294604, 0.8364196875416201, 0.6657804367218676, -0.6224050021151584, 0.16856104946620576, -0.4628004442196525, -0.27009386680406733, 0.04671086286667192, 0.01662911268809708, -0.689553823193922, -0.5338566821869155, -0.9297539193539643, -0.5810938412303004, 0.11253236913242781, 0.5125165200486701, 0.4759127790564288, -0.11673751953840439, -0.13977565813163784, -0.6982777575125927, -0.16051370533721565, 0.3094434455634911, 0.8121798620369225, -0.11263068940716892, 0.45577722206603566, 0.8635945771877271, -0.018227339417707045, -0.25617948582592986, 0.33358555673113166, 0.5872624058060891, 0.28924417502023037, 0.805800611343449, -0.6824641848319581, 0.41180776968774113, -0.5031540747446483, -0.5580625230284957, -0.692096486690539, -0.20057399825110434, 0.8569893505655519, -0.41923354610795127, 0.7111496230188736, 0.8188558632365881, 0.27279028137196626, 0.8625325698120005, -0.3582252424091117, 0.9672161986679493, -0.6799956628088366, -0.8581536173496769, 0.4483417377023229, -0.44870477247084484], "cols": 20}}, "1": {"output": {"rows": 20, "data": [1.174571090703662e-10, 0.7246688233013786, 0.9999996621694203, 0.9999984249447901, 0.9999999999999944, 1.3536620163652055e-14, 0.9999999999999987, 0.6286008036917324, 4.665366097997165e-13, 0.9999999999999623, 0.9993983711272361, 1.0, 1.6038126722843862e-12, 1.0, 0.999999997344462, 5.985225650102134e-06, 0.9996515666937918, 0.9999176056376489, 0.9947104446208838, 0.0041926633916645134], "cols": 1}, "activation": "sigmoid", "bias": {"rows": 20, "data": [0.8468959548462321, 0.6143110866199621, 1.82545485096246, -0.28170943083334254, 0.5976003028540048, -1.2824001855368778, 0.49382402311575374, -0.12293261306714619, -0.5292533782411339, 1.380657838308184, 0.04831164463658824, 0.6199530600295999, -1.212982714420108, -0.14202221247655183, 0.2532832295027171, 0.14627160290813881, -0.07972525319924373, -0.7512670714834365, 0.4286303493152709, -1.2253252090743112], "cols": 1}, "weights": {"rows": 20, "data": [-1.5155956632950547, -0.2739514052534276, 1.0893934838396686, -0.2876877326549947, -3.208653885237493, -2.3992577662246335, 2.1487254733163548, -3.0002672561603636, 1.3285330077316422, 1.263422767625415, 0.7178355255480561, 1.3480457232310799, 4.604416813561817, -4.80407211576473, -5.470510507499228, 0.5943544139847982, 1.062396568967409, 2.810756111699672, -2.359546481357333, 3.0611367014525643, 5.035631476607092, 3.3560854156937934, 3.5742788517087494, 1.6011143926958193, -9.194024240483872, 4.497032091734538, -4.981497128522987, 3.4114063771323457, -2.988998211003241, -0.7179803760972542, -3.0208078135312526, -9.020096175995956, -0.3743374037875808, -9.023194214269656, 0.8641930892076813, 5.306441652417673, -1.1119098673878323, -1.5075794578960147, 1.2217480075646447, -1.6396275789928572, -4.991153758193521, -8.49421419253814, 0.47419217117749535, -2.4894022841708305, 5.18470984250351, -0.8290097547781317, -5.98411017122877, -0.7078358636903921, -1.5039491828527864, -0.7337485913657374, -6.376964304846953, -0.3142800852351231, 5.1968652827473925, 4.706509002546352, -0.5660090824280647, 0.18123786648377027, 5.049170909245628, -0.3275953058115526, 6.353285330748166, 0.8541526461122415, -5.485499955730748, 0.8217559779740647, -0.5836661208247215, -7.938257678687519, -0.938401892416834, 0.10855130800238458, 1.901180937508354, 4.659812648545114, -1.0058346434089827, -0.9912990392465143, -0.2554055305908799, -0.31364885223845207, -0.44487509741475945, 4.895334566491518, 0.7129159899566642, -4.720457157748857, -1.6516334488724325, 2.49240709570868, -0.6537504787922434, 6.453145367028774, 2.464820661128755, 1.2928907481427347, -0.24453477482740713, 3.3519351826759154, 1.3948570882119344, 4.347690292762551, -4.299441881472207, -5.307823205208748, 0.0537168386343874, 9.541476905689814, -5.2843343719674, -0.6770710054126863, 3.571833188445994, -2.5049840645157158, -0.3283389979581154, 6.098063819541441, -2.799421239449046, -3.4881577716718737, -2.4180987307960837, 3.131965068870903, 0.46830857928894815, -1.4674041794412278, -0.1734847515732753, 0.6852593054412974, -0.546268323430778, -0.591978499275738, -0.6271575910516632, -0.24318210278402863, 0.9412362473838559, -0.6865772310061838, 0.016925278028344426, 0.22815223928546682, 1.4051627471763743, 0.4940813586126623, -0.21157249590843022, -0.3710968644239569, -0.7596868520697343, -1.2977166260759319, 1.41983904160648, 0.4299817917367053, -2.3437210213303654, 0.5744815877822526, 2.044563068157192, -0.07684944784723972, 0.07873024074394461, 1.523009962503675, 0.06919400652386856, 0.8196850952039904, -1.1915942495051168, 0.16569884205379662, -1.6527186253687722, 0.5952472791581608, -0.7830707379421035, -0.450533171831947, 0.23271646145614927, -0.8501333844781135, -0.02713978348032476, -0.05303006035792272, -0.4676268431209527, 0.09135928202489636, -1.0948991578846974, 0.3449819743545068, 0.8387923044057022, -0.7651579967567075, -0.6109431823108556, -0.5443020532964553, -0.4946738274331438, -0.9158297262196503, -0.43548252644525226, 0.19717606728997514, 0.9255789088737832, -0.08470465826178109, -1.1771781298661428, 0.04386816081830597, -0.8864062506716565, -0.46056641934766385, -0.3630763633383369, 0.21380112794452236, 0.13717253221483358, -0.1695581734222601, 1.1243077014019132, 1.3940337648285384, 0.39584175802551147, 0.2922416727364969, -0.3734254702701829, -0.810459462066458, -1.1133778960217038, -0.8200245634833326, 0.20349667280916858, 0.9252393802674712, 0.7879301989279052, 0.6283918840990143, -0.20616484403533616, 1.1149174306936822, 0.7497888759178605, 0.6994027653785206, 0.8981542344309196, -0.2724047012494402, -0.5133208851102183, 1.2035272296351693, -0.7413395008074881, -0.19741494833240228, -0.319765463009466, -0.33771581771479725, 1.0723517977909256, -0.7892972372823, 0.8417718652233767, -0.07995456664240035, -1.5109454166102223, -0.19458785074299662, -0.22336717818824292, 0.7322698319413186, 1.8588881709008207, -1.3109862943608168, -1.1001315110677579, -0.7641067806643992, 1.6734748777496902, -1.1845610841091176, 0.65230257408666, 1.4873640859305917, -9.225891407470018, 3.821623933813843, -1.378869733835212, 0.11373513482096786, 2.4769761719876304, 2.455398683496265, 3.508683944622963, -3.92773867744682, 5.081746331669298, 3.0401814862194745, 1.8835162525889282, -3.444698740672087, 0.8970841840367463, 4.730400689517105, -5.059705891056386, -0.8772911937483712, 0.5773802345683198, 0.732368033375813, -2.09325729188168, 0.7870108445266059, 0.705014686930483, 2.7989748405272192, 4.068702192659088, 7.463367965853515, 2.13475802222736, 7.609112271105529, 1.2300160312665818, -0.20809071788697497, -7.4913547820511015, 1.575331633349416, 3.0641439726074755, 6.387112336569278, -1.8379764157392344, 2.2924764842025325, 1.9511045184950675, 0.7520981634047539, 4.21430640277159, 3.5308907110279852, 5.83633028961757, -0.7858980073332443, -0.18718485906470508, 0.7260235233668388, 1.576351735761153, -1.8595373963542905, -0.04670033097963506, -4.226878561706243, -8.690281341972454, -0.1595913176773722, -3.2260828154176644, 3.94019373901051, -4.458816142701914, 5.294204672537933, -8.066371248829688, 3.375833427411863, 0.32711591156576725, -0.5806331131557203, 2.2080845048345217, 2.0183857451529055, -1.7237008777879923, -5.349640682642376, -4.947637394448428, -2.038046757072146, -1.0378858254527181, 2.5524507333169377, 1.3216356606144266, -7.205577539414874, 2.6720253928710322, -2.271927241293164, 4.9078913567274975, -1.77015873938751, 4.413227171647396, 1.567996893521348, 0.6974485386217742, -2.874467612126056, -0.7053814828509433, -8.750247618206629, -3.7220475124707737, -5.385806427683719, -0.6955994880136129, 1.2589293433713662, -0.5643354667192415, 3.975868526051283, 0.2655258377345812, 4.406614717521073, 0.6138131119186757, 2.6782434776999686, -0.9905214509729026, -3.482642877996188, 0.184247233742698, -4.072946879024473, -3.1699628687525543, 5.447106670809105, -2.794328829812418, 8.361654303160428, 2.0395741945373946, 1.5602853605020492, -1.8386280297722353, -10.065037990829687, -0.3596482963445943, -1.2362433986560661, -0.5214086144791328, 1.404156472872266, 2.1837214796649116, 0.8084440576202787, -10.068438516211067, 1.2162400605864494, 2.70078496151995, -5.479326716823617, -1.990952853825856, 2.449369207075788, 0.3213815111430744, -1.96210154278857, -1.4021986980930756, -2.4600946953683813, -0.9250955900501991, 5.693678047522355, 2.230605535008964, 0.575988220752933, 3.2867620478129007, -0.003692922611126122, -4.89431851081469, -1.260220741754428, -2.1502843423634683, 4.961832504781977, 5.9025877241191305, -5.348407019673589, -4.23603750051478, -3.76475387653478, -2.710330704373832, -1.001801790788675, -0.15007506015831937, -1.6495546840860944, -0.4466663646743704, 2.3041582376670195, 1.382061586575766, -1.11130555103086, 1.3976019967003672, -1.3842779405157593, 2.2501285646821776, 1.1017686279386858, -1.7835036355907703, 3.2666288943394477, 1.1531564841221933, -0.5383814058709413, -1.9617948230035132, -0.9278946072980409, 4.446375737799072, 0.48015872506813084, 6.915488677501469, 2.513137517934539, 0.5071565996241675, -2.332750713863563, 2.9266695889587835, -7.269424871652447, 0.3841834967299486, 3.378100216688838, 0.35290569834195057, 0.031838436695478235, 1.8159699306690218, 2.25023535350684, -3.0205316853787623, 1.7461944928463398, -1.085705786386073, -2.1717912255697684, -0.13365983650270455, 1.5024196057707613, 2.3472096511169664, -2.0535479234287766, -0.1175160802791639, -1.1827244578667504, -2.5422677177643496, -2.3047591825632567, -2.286434331251355, 3.5536083737081485, 3.8551187781752834, 3.4479359036120933, 1.2896313414575296, -2.6138561120392514, 0.9784425133967343, -2.0520674685523583, -5.368863597566283, -5.163503024667905, 3.591949495911966, 2.324854531226262, 2.273054512805602, 3.273993423434065, 1.651463544695693, -5.76243341553506, 0.728603215203751, -0.17318820995541565, -1.6109858941577104, -2.870604044678633, 2.259417967629329, 4.28714481127215, 0.7411660697734721, 0.46095143823618107, 5.139145995926623, 1.134805571852511, 0.6792145498554097, -1.218769273161613, -1.3288078261356508, -1.1012060692915497, -2.051923720891019, 0.932311758306812, 2.723218965512389, -0.13724542418639754, 0.3522572774830212, -0.7250074169413258, -1.9127445804910812, 2.562707046257743, 1.633498559048574, 1.998115074649671, 1.0528813355675128, -1.589065147620557, 1.3823660778704943, 2.8430547870844407, 1.8407317866650401, -0.6611636288907363, 0.6103056837772716, 1.696325798323303, -2.2042793083735237, -0.7739657672572254, 0.4877950093682674, 1.064466909845344, 0.17421094663879327, -0.38802055364523447, -1.6258632335575265, 2.728817228012013, -0.050772327833156404, -0.9118620123151918, 3.8124952456918946, 1.3188244881955946, 2.0048090469309785, -0.8223300845390781, 1.4354368259764785, -1.6677407024280881, -3.7351842570555154, 1.4221125485491373, 0.7931779149364998, -3.7107912723106247, -1.7870322169779072, -1.1638192510818215, -0.04494851105791011, -0.6456622326505598, 1.5947359267047005, 1.691003113007291, 1.5557037693389026, -0.37834745087905136, 0.6976899450745258, 0.9228020672749113, 2.4845905636227736, -1.113704809218252, -0.037394298339584395, 0.9576619751358137, 0.9436888050291615, -0.5472989968727645, -1.982409060227676, 1.8405694620569482, -1.1858258609051942, 0.28958439835661814, -1.7735197188178737, 0.6723021030940718, 0.4457820481918338, -0.7724292582450785, -0.6379936802123006, -0.7875804131414579, -0.9368019798675103, 0.1024273185255101, 0.8924059560607259, 0.18751459298550582, 0.825449104150379, 1.0653997149131818, 0.6506962825785435, 0.3241968440928877, 1.1201835570904723, -0.8197974621811, -0.10806911711147625, -2.118681776992807, 0.07902829877264059, 2.0496119736309537, 0.13072764823044972, -0.8252997695095602, -1.0633019767030851, 0.7261609563180952, -0.9539515107843498, 0.09014871395252999, 0.16144908786100226, 1.9785504294676044, 2.1960403817079466, 0.3090569139576902, 1.854200689909703, -0.16840673427963107, -0.15616633425211557, -1.3344213073775661, 0.8262097589447384, 1.6454761516560061, -1.289101619360263, 1.8382688234656743, 0.9535828645080198, 0.507323263739984, -1.1233093162838788, -0.11903287264670835, -0.8914744786830053, 0.09133012298840068, 3.967113640666688, -0.2510386439940009, -0.35267368741763666, -3.1221966391764466, 0.8797280927709419, 3.5505653179200296, -0.6490116026718323, 2.1518741575374953, -2.0418964286150922, -0.5608434677529835, 0.5534326864604904, -4.329262725621616, 0.4779946165751831, -1.0957301770197139, 2.040671962105657, -5.236369383579723, -0.8002939516956961, -1.3787843036454652, 1.6381953801864444, -0.5014529972088434, 0.6230673072759672, -1.8923223246147964, -1.481219778321963, 2.529704103974827, -0.8190441367394864, 1.4199474998474675, 1.9818794376625142, -2.783579424371296, -6.260961626079681, 3.4782949917652077, -0.5943581244314672, 4.114901314226618, -0.22554449142935556, -2.0718782959464797, 2.531845332605189, -4.337694011740059, -2.5547524278288916, 1.4472146226897036, -1.0761260102628876, 1.960325183118199, 0.4145601247273312, 3.5981500622664675, 7.033540001331559, 0.31457746110792384, 2.515676938496881, -1.4703530356632253, 2.6664267533002755, 1.149665563548882, -1.2735942607467003, -2.9722180001637803, -0.5986590734002601, 0.2379976394318695, 0.5093625518765695, -3.2787866573533755, -3.659247412094277, 0.9833418634736081, -3.9065084646672537, -1.7384519274420582, -3.2248183211927595, -1.3918395778688912, 0.7417262243883008, 3.522432750454494, 0.15819410013744864, 0.8542651652044124, -5.067457127548455, 2.877345525680504, -1.391250790673342, 0.550561036190527, -2.019514207412352, 1.0979176819138043, 0.3934005762819184, 4.224216858476167, 0.2775553844523759, -1.4799191022812264, -0.7268743962664272, 0.7680320003720043, 3.180612977290998, -0.9398381845663607, -2.179185232999723, -4.7628021168807715, -2.1152450213919165, -5.606252153066467, -0.7018000593921837, -7.0567771451713925, -3.270345689424813, 2.5776651559086323, 0.49881887844637735, 2.5487274491530005, -3.9416060257337, -3.059864230693203, -0.7962979189144871, 2.7197947957336863, 2.892710399456472, -3.9171069892351613, -0.9375389116884271, 1.3849128770952914, -1.0506401140865687, -1.1351644491938786, 2.114803597333327, 1.844738259360601, 3.215466261939201, -1.1094572551564108, -2.9392492471690463, -1.091592460838479, -5.601429127142236, -3.4403133520094373, 0.080319746173893, -2.3239831420802988, -2.933219941984393, 0.32544263826404085, -0.8939781705549487, -1.203304823898077, 1.2022106870385982, -0.22716912735880626, -3.2393877645495937, 0.212648495595092, 0.03728375123240981, 1.4103829571088264, 3.097921859004817, -2.78265666571705, 7.9377147010433555, -5.311178905878713, 2.925945747520397, -2.9334290503555187, 3.478458690236187, -2.511771560174111, -2.794840080929951, 7.516378104826052, 3.766565654604414, 1.5069539387132127, -0.20678804412663856, -0.14221665823336577, -3.7082567504173576, -5.634524454487334, -0.13052452698777117, 1.8304686723163897, -1.4551210849143517, 0.41744065415223724, 1.2753310492300625, -3.465702728943479, -0.05315338211937729, 0.8154874588696374, 6.417336414164211, 0.6037833472943884, 0.2525702871278918, 1.6763095981429446, -0.2973967289872606, -0.6992946254856294, 2.342460478818123, 1.151023109447138, 0.9830885225571434, -0.7237978803269655, -0.6829957646032272, -3.7139528979969016, -1.2477657724235864, 0.6238036993125065, -3.055426438159878, 8.966110297469069, -1.2935589578368158, -3.4188552271253205, -1.0435468050008172, 0.49707186578993917, 3.8840583502001067, -5.308386186056554, -1.7211872017584067, 1.9678712052500777, 0.19752049972845007, -3.9043275877740973, 1.9170871665553175, -0.5279860282530807, 0.9438754749950382, 4.2189738380694095, 0.14500435764844363, 2.449193637475644, -0.8504711810819366, -0.8724040720175033, -10.050930344008592, -0.4135546041008752, 0.37681630000946637, -0.543211006577379, -10.391963890843249, 1.7180414281801715, 3.661200704369179, 8.449972151429682, -0.22402680866273242, 4.23434941079587, 5.689858215289497, -1.2507665006511852, -3.7393853125388525, -4.4168388961955145, -0.546947546648195, 3.3392225416868366, -4.347167679795869, 2.8671764265724966, -2.501680126278766, -4.377216410702129, -3.3478676250413466, 1.2310605826377348, -5.688124834249467, -3.285262697369575, -3.640187122385797, 6.002797105315431, 3.9671799709438247, -8.69210545885344, 0.8429501739503907, 2.8936816706132045, -3.28768091569073, 0.8284231059602296, -1.5989200128457204, -1.9186789140492715, 4.513075785480403, -1.9771787809825274, -2.2509886165138493, 0.06614578367039871, 3.1790231825274278, 2.153076818547224, 7.516471418956172, -2.2297362681309854, -0.9552115381613104, -1.2314500004248004, -7.835665717079195, 1.001154008456475, -0.760420937175048, 0.5271767101380616, -2.7717894180393814, -2.2245731954774466, -4.968880003448716, -0.3129022489112328, 3.0073836149260096, -4.1028898806646295, -1.4057331034351452, -0.017909188768824465, 6.472388711390745, 3.5862209249923045, 12.64479795207889, -0.3189405105399129, -4.5412174643574685, 3.0903218962962935, -0.7855269785870398, 2.3378196632968, -1.7193663680808047, -5.773055097396371, 7.618734193645085, -0.29053148481651647, -1.331793909588546, 2.446801130222111, -2.3038266592080245, -0.16030465972288455, -6.424017015891819, -2.5403301641466807, -0.36632857209663316, 3.6401232857318213, 3.3615637053458465, 1.686908452574684, 1.8165840311233439, -0.442716177340513, -1.5249155112950743, 0.9083464442123319, -1.2615604231167143, -1.1358486840009363, 0.6103490365762982, 2.0437698051506126, 3.7382833043224943, 4.38699777652989, -1.3948429584719342, 4.525880607391501, 1.9156871307795376, 6.263159927356644, -4.453701548011816, -3.6464894077037635, -2.276941081595952, 0.25761441401783963, 2.248641884897176, 7.817267604893007, -0.3931577825014546, -0.7645485534330567, 9.96938084871312, 5.977202294077443, -2.113883596554254, 6.431307904896204, -3.6728159699879823, 2.7188421266756118, 3.578380808503697, 0.14659455018248885, -4.62508558894651, 0.7035340329098403, 0.7942084415479898, 1.5981118583344154, -2.695565077828812, -6.629559106294516, -1.258481838476023, -0.12593967083832464, -4.189083376412778, -2.224987549381444, -4.707893820396272, -6.902049132113291, 1.0579595488566513, 3.204711238976318, -4.835240542261628, 0.4540931306359104, -3.239024596939137, -2.053618905150482, -3.352798246193872, -0.9069713744379282, 1.5545897340510388, 0.46741186360090253, -1.4054514367715363, -1.412414161544885, -0.6076517143101475, 5.012296853745803, -1.0167082968780408, 0.9758179950767044, 0.6390779469504575, 0.9813508899508697, 1.0005989183522206, -3.2433595108263673, 5.9634281267150175, -2.1085845123255385, 3.9826837961818407, 1.662558420059541, 3.8976968763397015, -3.1195255090663405, 1.1394641139513124, -1.52915921806933, -5.562447517831704, -0.2953458729527604, -0.17451459711477074, 3.1139964398778512, -2.33877825436403, -4.865368852668894, -0.43681419273812977, -3.2924656165499555, 2.7520123198786184, 3.97242829742131, 5.233943423412442, 0.5081770620693219, -4.928705965220259, 1.792678420450206, -0.4153130342975586, 3.997274532296969, -2.692628050097662, -0.41510120928804484, 1.4094018417433374, -0.0217971812080679, 0.6742787160150328, -1.9654731047821747, -0.7815973571695253, -1.0690894820046446, -0.5847177717827092, -0.4852592181672268, -0.7508335999121701, 3.4588598619557867, 2.389796975403387, 0.8342768009523188, -4.826888375850898, 1.516518182239799, -1.6533978678645453, 3.252310228957836, 0.45338826877546046, -3.9910538131450326, 0.4917887562248598, -1.2085703446566567, -1.8319957041449837, -3.536909158672909, 2.2944129596090135, -1.9185389950243166, 1.6102889152334932, -2.7013573525337686, 1.5271798283621982, 4.981180598513454, 0.1247329418399339, -3.6375980088496482, -4.808738489095193, -0.8398416584873735, -0.8236511814953515, 0.8859156673183722, -1.7032561559803463, -1.886078151917882, 0.8359259051385424, 0.27575401145000855, 2.9128850879762878, 0.34541192321278374, -3.857051534641704, -0.19235034130251646, 3.080741830252467, 1.334664165191402, 2.017517772543747, 0.21292500689515165, 1.1058519770860002, -4.14326911268966, -0.19306594214717668, 3.66204724699911, 2.0072033610168525, -4.372264031471573, -0.5351978219699115, -7.685684892564183, -0.18644617260479227, -0.5993829176551132, 1.9344708992989537, 0.16955328899684197, 1.447504556319341, 0.7169351272346369, 0.6830058335540505, 0.8270962572675317, -0.026918375533064736, 1.912900874658269, 1.0595914832188913, 0.5108257116850924, -1.0746702935300854, 2.4965653562725394, -1.906027378600674, 0.3269130976580083, 0.9306633838408752, -0.6359780607586996, -0.1282964751059366, 0.6994263548432219, -0.09109267995583709, -1.281610554946809, -0.3873105406362638, 0.01230399324340397, 0.43003073998917896, 1.0424512261793426, 0.0309977348008698, -0.5944846773403318, 0.15670877840031927, 0.5428123995855848, 0.033056052832982255, -0.914116730762825, -1.2762724827189362, -2.0941783661564926, 0.20266879492741413, -0.08141879286267034, 0.03510434351041813, 1.2160957360476705, 0.14048792978107139, 1.8290547892316356, 0.49683091981748706, 0.7117287372463832, -0.24954801769174106, 2.118479092181313, -0.47354257910674896, 0.2556413727351595, -0.34944801141162696, -0.6822821294015842, 1.5287073725866418, 0.007461365722509264, 1.2700111874319115, 0.13544698778693604, -0.11074671251547835, -0.08038607777267655, -0.09078305550963017, -0.4910941444000109, 0.5758913008069065, 0.9038084941411496, -0.3443886887532078, 0.5332672790558859, -0.35237343970343726, -0.06799977372480609, 0.5125213364786511, 1.4527383272817622, 0.4255638708746612, 1.2024376212442882, 0.4688735702924424, 0.9620677254605915, -0.46879856234288075, 0.5854509363251204, 0.7236412768181708, 0.8521278730038234, 0.3248448837024762, 0.3940320950079497, 0.6036933184132477, 0.25371523639107335, -0.9057063728451379, -1.1784595773167763, 0.9247838775947484, -1.6652718804598814, -0.33896763748583303, -0.16219481617020648, -1.1210217894439827, 1.5752985909381736, 0.49234441633032605, 1.0993738572116887, 0.3420268732119322, 0.8003177783671633, 1.6755152236855047, -0.6555023926945294, 1.1380012141259155, -0.4237267660261205, -0.26706234533065065, 1.3620565266227762, 0.08258372844898114, -0.3670402111611868, -1.4132922655580504, 1.3833821609946242, 0.25518844699900206, 1.4660991881438392, 2.8834133640385766, 0.5004196375788185, -3.871810093374514, -0.3962463977778549, 2.2604153516019365, 6.227246624746975, 7.335387115840722, 2.983582972735914, -0.9434005588325189, -2.257697950541569, 0.052350702230528255, -2.363233855445482, -1.3926038278877066, -4.919230814312198, 6.656756630463679, -4.665826061604402, 1.4819361681747523, -1.7073150813531859, -1.453647229756807, 0.9305249407645931, 4.641855397667382, 1.2385635024723225, 4.406243716843796, -1.1467112764738363, -1.3082398381190314, 4.757257181879024, 0.7921743897942612, 0.7267496537974308, 2.828041191682305, 0.8753331098253118, 8.898015184088658, -0.2933424978513045, -2.8408788984996125, 0.9186005283465644, 1.5288311712030542, -5.6234457180683295, 0.2889831487671, -6.291066772552255, -1.3681765461832343, 0.002831503714356122, -2.5342905461617655, -1.1299425589058378, 0.29736918880006397, -0.6716180578914055, -3.7009157411272877, 1.147332825315805, -1.7445580373678515, 0.8794646358744496, -1.9842781674910324, -0.15731541790969747, 1.852343634958492, 3.090377252978799, 2.050683058301976, 4.573134489323498, -0.327881264915894, -1.2060065042813808, -4.5057348965643875, -4.981058675467508, -4.3728767460475435, -4.723541188901921, 3.5784586595070556, 2.5698416013931036, 1.189661702229059, 2.3778409795956303, -0.6052090751632907, -2.045232956130552, 0.9580171229956598, 5.069234452265369, 3.474118720837572, 5.192259240144464, -3.3661451168775223, 5.328132645045002, -1.7659557697029844, 1.986484757770615, 1.1850730521458703, -2.397137427211934, -0.5895041348087294, -6.500664025294219, -0.24216396159591452, -4.353411609913764, 2.3517915392211566, 0.44229941013799645, -2.4022435635009654, 1.3948058878643201, 1.3752885995218196, -3.026312226274347, -1.104227977098753, -0.5149159072375121, 8.328968073671811, -2.6746285151895983, 1.427157672339794, 5.032586617113129, 2.1095126643950453, -4.636975852345598, 0.909414966591824, 2.348142663133202, -1.592193027461126, 1.1308927735589713, -2.143196658586925, -3.5252918998452527, 1.503328440673209, -0.6825887735717403, -3.3650270498532096, 0.5751488533798855, 0.7742234319185146, -1.6212573146529619, 0.5453182411897988, -1.1495445355923068, -1.39653869608925, 3.6404309850001013, -0.19294350239563854, -0.7564269047229172, 0.36486700936670646, 2.603834204745572, -2.0592306084666943, -5.529879928290042, -1.0199392534691138, 0.3676679496949476, 2.1769959269926407, 1.9709445436185868, 1.2584889696394435, -0.3600709846618399, -3.0098295483063686, 0.44191852434274403, -1.2745352868974762, 1.726397602785098, -2.5699698006909313, 1.0878077114126592, 2.0234586911740644, 0.8538102864227541, 2.995240645222197, 0.48517306440869407, 1.635453728700557, -0.4852406222922186, -0.3082685659061485, 6.464643461454635, -1.1064181506220163, 0.22565311138771796, -3.6134729447446468, 2.325253141245331, -0.6532815805949386, 3.3800810891561897, -0.5627267884774159, 6.42311833630421, 0.8472964453409055, 8.52097091394195, 0.33438711378992614, -0.5390383658807222, -2.329953587820399, 0.24547873043160431, -0.5870020677235251, 0.5896311632676162, 0.4462633025252058, -0.9634305351777002, -0.06051551885929916, 3.787728195847849, 0.7534571849281284, 2.437411006351491, -0.44281812201935705, 2.569797562833608, -1.4203378638741517, 3.0927362929872064, 1.2314979122174876, 0.296205936983643, 0.5005863736617886, 1.1952948956508498, -0.652447267150682, 3.0493994604482273, -0.7135443742843137, -0.13630342709782486, 0.7426239065914293, 1.7104291595624028, -0.6816168295020916, 0.3786936741693318, 0.019152018616394487, -2.7222225561737674, -0.2949577352493383, 0.4428019383521217, -0.4194345349194658, 0.9229288076256646, 0.8450331837172047, 0.9607297321852437, 0.029071414363865924, 4.280977108377065, -3.3083181425762547, -0.03339589710498891, -1.1025757824320555, 1.7888553135149574, -1.1035923156975944, -0.8650993932736634, -1.01306399361759, 0.6160945663078634, 0.06833801834219211, 0.896145732685365, -0.02698931156191468, -0.07907757790880836, 3.9739226417569897, 1.708780745414028, -0.3996223593442465, -0.24333073771644548, 1.2889825801566357, 0.5479765820138374, -7.046364840275951, 1.1151417446736054, 4.942125400765725, -1.3706454365075966, -0.5389236114782898, -2.2870142520709518, -4.616588906939917, 4.481786902310205, 2.2191893567988497, -3.900772292709625, 6.617453215982032, -2.011634669579375, 2.3935902361298287, -1.7701802928888974, -0.48622579781649394, -2.0846421330792313, -2.3393394168531776, -4.498730618533659, 4.752560359088736, -4.755392429963629, -3.474118395324374, 7.3299618276704015, -1.0011000392728566, -0.44587558885255457, 0.3601185630600214, 3.6604651452251775, -0.09521396268925236, -2.5591934606071454, -3.921893096032888, 9.035321064672074, -1.8188912629482108, 2.731831847914361, -0.46471127802417345, 4.6305403394304, 1.2448422558923258, -5.491658146982262, 7.654939125730001, -0.4339367823766317, 4.9506922082124065, -0.4745897201517124, 0.717904488653766, 0.23453566241966844, -2.1516638687992096, 1.501048868584791, -4.96546204430566, 0.5420820300881315, -10.32710548970887, -2.629939429942795, 2.603813216670997, -0.07337049666609222, -0.21843784719421855, 0.07533916676047822, 0.2992454166858973, 7.83264810491886, -5.06989209947567, 4.0467922063245005, -9.077884722766415, -2.55014636074579, -7.800404528895577, 3.8206488571393074, -4.440445261529913, 2.0174457422800587, -0.6911217101232477, -9.03037623866203, 4.9916047969081525, 2.972002553290714, 4.013863712095115, 2.851131147651187, -4.716989036233959, -0.13272652564496265, -4.6007673944308225, 0.8580777657589918, -0.030266951372335028, -0.7493670100431412, 0.15837056923615492, -2.279797657627808, 0.5947085076227004, 3.5459993985340303, 2.375252492797547, -0.2978550871458598, 3.0247751547807065, -2.427158710224918, 2.1513426391499513, 2.9868203810903196, -2.88364269116731, -5.45273211245058, -11.251402027450478, 2.084177016632413, -3.4881983358348063, -1.6471904525620538, 1.939582425956633, -3.3888795591073073, -1.147773087438604, -0.44653233472142206, 0.22193654467391524, 3.2254047804685855, 2.2777754732300632, -3.949839551719566, 5.135400004085107, -3.403144667235762, -3.3271342316819066, -0.14330836550397008, 1.4901543665780093, 1.1489651402075205, 1.3633008288454276, -3.8775551367977705, 3.3964140987478983, 4.704059459085428, 4.251708451123412, 1.6073439148613224, -2.2748151898933773, 5.424186689755787, 1.971037216383092, 6.401454884039856, -0.8737561541117304, 0.05620796251918128, -0.05025446841832004, -4.8414314887229, -0.28103444139701417, -2.5116138100079044, -2.7937468081055954, 2.140210561489816, 2.3867747816736804, 2.281242190127887, -1.6850887518518052, -4.630991560240527, 1.8501822879453786, -0.16132963956773777, 1.6294548853465531, -4.008919643143161, 1.3052137062702895, -1.386046641047521, -0.9205305602285739, 1.300178218852083, 4.454182338924369, 0.4244752695400992, -7.093354215312206, -3.060845681328114, 4.051490034516081, -0.5689707327415328, -0.6892370135988716, 3.9887420919874494, 3.696706484266186, -4.080985509012456, -3.7563154338473996, 0.31456947463347706, -2.2591990119417105, -0.6356781268810562, 0.9248522437348702, -1.0401311964494226, 0.24304299655684103, 0.517954484405086, -0.7871269534061304, -5.225771920190626, 4.736181243272358, 4.020931177140292, 0.06746944575209313, 3.0053689210066397, 2.38131782618743, 2.312316896920528, 0.14180013402928834, -1.2353999480474582, 0.7713450712762051, -3.8063720733102357, 0.11267382867606332, 3.7686697806551694, 6.214540476036384, -1.3890537627694248, 1.2192200334574643, 2.795963188497687, 0.0651442273957348, -2.409324791433669, -0.7913807895802412, -3.1703278901869623, 1.5704316964094842, -5.018776576864558, 0.9110612090107759, 2.465977468156615, -1.4401840845537521, 1.3347932246116867, 7.209076329011898, 2.388938954710499, -3.0859307488968106, 2.184709849822376, 3.4114213821106736, 8.258982372230186, -1.3945661604471278, -6.178975197081222, -1.4018813420417664, -0.368103023859039, 0.11382987066668557, -2.098698620704366, 0.7339500191488716, -1.8331387401099952, -2.2562954166072844, 0.0349648878790173, 0.7827048926124484, -3.0881184327275917, -3.0664951634928217, -0.018817531163601024, 1.203715399458695, 0.20366053550715482, 0.36130954410145694, 1.8570374602603812, 0.47803615156227813, -1.5278425275477852, 0.4671229160122357, -1.0196028105766763, 0.04704164330796828, 2.7319493343152152, -3.7846958399647432, 1.523531971124635, 0.7735768455334147, -0.16412072574831582, 0.8900325572892613, 0.38454356743047513, 2.391255685240706, 0.984383846514577, 5.130376555504578, -0.9838677282108567, 1.2796645606993144, 3.5105868684267345, -0.514130422979894, -0.6145764168292973, -1.0073365137055408, -2.6550646413936883, -0.031827515363967, -0.5832622095214242, 1.8488052136630162, 2.243112439214527, 0.9977963806298895, 0.543855261896493, -0.5170921476640568, 2.993210957896698, -0.3468233505413863, -0.5277272015101021, -0.37421783749568593, -0.7091292355748153, 0.14695029789879865, 1.6711463653081808, 0.4444397446980751, -2.5597230402872766, 0.07349994100768405, -0.8887374996863043, -1.313558774411071, 0.5200343035376366, -0.2834945176121736, 1.168113974200848, 1.1012969838773927, 1.1069902653563715, -0.610976321982035, 1.4311303144772194, 0.2517577413521037, 1.120053625353371, -1.3733587605039639, 0.23166520716234917, -2.25808517884195, 1.498990672040219, -0.8855526644746402, 4.228570155722713, 0.13664374181877856, -0.04350879522457904, -0.8028722405967716, 2.5689651637463715, 0.3835346335056407, 0.833174556906729, -1.5229238934299814, -0.03593165726886798, -1.1328170377626012, 0.13886755280634996, -0.7811075068457881, -0.6872863441417888, -0.8009702613593943, 0.38610031767432307, -0.17289699859799026, -1.0622279614292085, -0.8096019462386671, -1.8932409499733684, 1.6296877027080436, 0.3148510818633878, 0.06149508726123387, 1.0455694862401683, 1.3947795982153315, 2.988386717015159, 1.1562661295808576, 0.95425829947459, 0.7514409762943091, -1.3922102428654393, -2.663744978982139, 1.2594537462723272, 2.5861064063148973, -0.992095566356767, 1.152449982196528, -0.15849160673376847, -3.813959786689652, -1.6470209643821496, -1.0314752972151722, 2.8133209231504983, -4.171969360765255, -0.09578980113752215, 3.2986500668880114, -0.7099681538572364, -0.8895189069026989, -2.7647521581629473, -3.215747367414554, -1.8218838527968562, 3.5296010721965216, -0.15144651304276935, 0.3152549446273355, -1.5489142604169233, -1.3268417211943524, -4.449978734240006, 0.14646424694417243, 1.649083418758599, 0.4117812717780893, 0.9294903709100714, -0.3010156357282839, 0.49768497829545316, -4.0228555690348955, 4.842967319510672, -1.8012557000071407, 1.6895041891283964, -1.040695256008989, 1.6685491717635086, 0.3137795905968357, -2.7050145634203684, 3.3977404854118896, -1.0351289595553426, 1.6661093771787747, 0.5401550246489704, -1.0149731985940165, 3.1191066314858924, 0.3117731336353874, 1.6801103758261353, 0.07545319027113155, -1.82934127774954, -7.339922540302964, 1.1969678423949877, -2.634918030264156, -1.1906579991542363, -0.8009591986315197, 0.1185549607715938, -1.119871634516832, 0.9055450840423708, -1.8975325261856824, 0.6884852047985193, -2.338456288486514, -0.5830967722253874, 1.7277070763460118, -1.5097953804213833, 0.30332806524232686, 0.8349448055796019, 0.27494941774347176, 4.100981279980538, -4.9087188982934284, -1.5684565417131258, 1.6262082930497053, -0.5375770311478348, -5.05296507998166, 2.4954779849593134, 1.028493509254524, -1.6777173267565157, 0.9449220174436775, 2.7139947569986242, 1.9387178685074276, 1.2564917220720397, 2.42432389673133, -0.6404219024871549, -2.2831144492826487, -2.0702989943515737, -6.3273074632411666, 1.3360071040933523, -0.37505167309501763, -3.515257277380742, 2.76476679560284, -2.32002154762983, 0.6064329784975968, -7.939670981436811, 3.664125472527841, 0.12075876565468756, -1.1077451354043608, -2.174444657180701, 1.283838329470283, 1.169962823165025, 1.6414192395227734, 2.6770768427546834, 1.2555390647101685, 2.3616906211608444, 3.9308199944685076, 0.7842161238695825, 0.3205088028339312, 0.07713801060044019, -1.1436668063578606, 0.8231312971694884, -1.8508171224899264, 2.3522569422952158, 1.0380063406518925, -3.5784280312310406, 2.6095007623891955, 0.07830397493845652, 3.0832223745531557, -0.4154901345646033, -4.3160066975036795, -4.862202325552171, 0.26799680730458936, 0.06588694075689211, 1.493345287936616, 1.8003283050208063, 0.5101475016918744, 3.770931964161679, 1.0250038581593504, -0.32053188670017707, 2.2656779648947203, 2.9956379447677683, 0.46751418354373087, -0.6487820417897948, 2.353108367839069, -0.38106452868345847, 3.6020382249930556, -2.4028889084595058, 0.1398211114936883, -0.506041869670874, 5.339574560449806, 0.5798140509355602, -1.2834730044788123, 2.90934731717754, -3.975764196011619, -0.3415388011307583, 0.29043117611739167, 0.7054358463740674, -2.472364792526135, -6.663517786203618, 0.860848843350503, -2.0113499176493526, -0.23658018265279485, 3.5364094054023516, 1.8782977823397002, 4.94956471059354, 0.8485046916988516, -0.12875191443202705, 0.627717373415815, 0.5615834544198604, -0.44379685990569784, -2.4810154222607554, 3.1467367680601055, -0.11472259189719422, 3.4110662227012782, 1.964797368680834, -1.2085631381859359, 0.15883105580285256, 1.5601965177077992, -3.9160306376569034, 0.8990776761648721, -3.5440430098965447, -1.2335214920695312, -2.723392612949371, -2.358791423052445, -0.4899709517772605, 0.8180718930299057, -3.7900046614446152, -1.4575246778103508, 0.5413084163211016, -0.6439187335685728, 1.6538499755217693, -0.8619765162815008, 1.5596425023384501, 0.25863765280649686, 1.703640297232469, -3.577675923063139, -2.215769489326527, 1.744500007367898, -3.1976109633102037, 1.3760959985787387, 3.4539608415990224, 0.5205789462993118, 2.441543093156245, -0.014280582678436822, 2.2485107791697687, 2.2255430063475186, 1.9862811286218833, -2.0971385091845014, 2.885642254086437, -5.327149711800507, -1.3345782683235226, 1.8279076932377, 0.8942211816871337, 1.224017338457302, -1.607355736451097, 4.57953164004193, -1.1272234653568445, -4.453217313494985, 2.448382240248205, -0.5918835056698772, -0.703838631521557, 6.868920099586613, 3.7917631660187436, -0.14777540277190712, 3.0509711777834307, -1.5380079030662075, 3.411985918133824, -1.6189422705845347, 0.14558655705622145, 7.373343432159428, 3.576648745098497, -5.336390686246818, 0.27368785213173524, 0.4427308988263206, -0.6994577670372032, 3.934220777835409, 6.574338796418027, 2.560227192199679, -2.493151715110684, 0.06813179054806144, 1.7540074166498916, -0.04338846608178045, -0.5488314253529403, 5.106967253601371, 1.5071818275727893, -1.2190694055232525, -0.47516488471039686, -4.116228608540523, -2.440096063678133, -3.732388434384201, 0.0038766299234036425, -4.250285375133248, 3.0380373140469428, -4.329128136599348, -2.404203067009337, -1.4718505192123976, 2.174374262028151, 3.54196196895334, -5.977506915060111, 0.022981340052545856, 5.259026650537393, -5.486686704387913, 0.12754939733788334, 9.533032983489587, -0.10016862974312396, 5.9684223880930585, -7.327157413697314, -0.24864657932944734, 0.029796907759928527, -2.6363287499962675, -0.743233314529477, 2.70259330928639, -0.48370698562958714, 0.7721030191107523, -0.18660181723260078, -0.5210638401623284, -1.8842593720819918, 1.101562806572844, 0.9507743206546098, -0.2682634248713479, -0.2758421196961711, -0.27455943448044406, 3.8684505372170204, 3.3070785419868947, 0.006031955450591497, 0.2802301562735572, 0.35866722640625714, -1.3098697567396564, -2.7035758194237998, 0.9116100451959178, -2.0670372150639795, -0.5041215820167569, -4.037028886637204, 4.723825840683337, -0.8942273587245076, -5.856873958480541, 5.214497618054048, -3.640380955304604, -8.990250327084789, 1.975156930752485, 4.1652625385204365, 2.022674698669149, 0.4966539772014106, -0.4070539529595279, 1.434739020581832, 6.568577988033828, -1.0494035707163007, -0.24905530646314777, -3.735297127842344, 2.1987613664878127, -2.6866795327150776, -1.3731379254721003, 7.11647243172678, -8.068942328844454, -4.151057880496944, -3.9527328585819035, -2.4842539939512536, 1.7064967371264737, 4.736627609707725, -0.7315369660494561, 5.161581949640719, -0.37414535612154654, 0.8396671060941184, 0.5130449140230045, 1.3138006688457873, 3.4883624126275814, 1.7840150163700073, -1.996731125745033, -2.7083870683179754, 4.459630959192407, -1.5945113478477635, -0.6428262137060364, -4.108684431766138, -0.01909530273807219, 1.711589904126564, -2.629120323383833, -4.182131079691354, 0.43274514249254475, -3.0339658425496836, -8.767723951022138, -11.526177977248759, 0.2141624227336287, 0.36126104507750884, 5.529404626516844, 1.5010792248108853, -6.4496037897332394, 4.10590397504941, 1.8009039724028861, -0.8691057660015132, 6.158328639385637, 4.317458388036057, -9.103909275344055, 4.012056097154871, -4.869105153625455, 0.7661699666147626, -0.222549944236719, 3.8157336705095113, -1.263349958125614, 2.1523173846055905, 0.4394804392663402, -6.062479266125393, -1.8726116567897828, 6.485783701941841, -0.9740958869083459, -4.126091066718152, -1.1883341801003307, -1.0509117078660553, 0.2847314355755522, 4.203113708778937, 2.7148717421514776, 6.202836598368847, 0.47851874175168524, 0.6888465281674685, 4.832682087470771, 0.2785444811365729, 5.095812785090626, -1.2159140594326907, -3.9453532027762734, -2.272855890734345, -0.38114151949685354, -3.6299574891043567, -4.590509192761624, -1.9071335044794473, -1.0577505622976047, -4.302447060963586, -4.09404228742489, 4.208259535394183, -0.5158808791288365, 3.9402707069693617, -0.08678594139742701, -2.4793551584200744, -3.6601222888730827, 2.773229760098837, 3.9107441519761936, 0.488864472927016, -1.4400172145003471, 1.9544856098243355, -2.0172012168354008, 4.051376635197058, -0.5434432342458797, 0.5197875866900723, 3.2183736707123143, -2.8070579214317113, -0.06502643701297674, -0.13686844119890126, 6.676130890269305, -3.2522330003287436, 6.6202449292927215, -3.0082034500560177, 2.8079031184807874, 0.8114565440899488, -2.0763841375535086, -8.529276321150219, -2.675449387032494, 3.8436431397921185, 1.2375780987077893, 2.901252439657964, -0.17460072669468107, -1.546825692645974, 1.516378738416546, 2.9288769656866394, -1.0474439435515577, -3.4893524421611217, 0.557445422525262, 3.1024953073851154, -5.068359488408423, -0.40264178112771964, -1.5037309127415277, -1.3361619261447348, 4.7793728685696975, 3.450153344717807, -0.07221709604466997, -7.603934728987934, 0.0471571384003344, 1.976493151298432, -2.8644918679177906, 0.1719450152789626, 4.161197574423538, -1.5091773945295925, 3.763070900807541, 5.273762249457883, -0.5066167765528266, -0.601870766956019, 0.23445741127049793, 4.387459250445851, 0.4193362045449013, -0.8280974195914731, -3.8322898716652833, 3.0540205482542713, -2.882061079731399, -0.9093246521808659, 1.9997026289270758, 2.9711481966410718, 1.2953557405959542, -0.8171253333290639, 0.676677304580033, -1.2517517034575971, 1.452690648149308, 3.821395635032892, -0.2559095593937359, -5.1866983887565175, -1.1908422321284666, -2.5002812273311896, -6.715031246712319, -0.5757376359275702, -3.2920472348975998, -2.276359965456916, -0.8287457971395892, 1.5611652488267782, -0.6595489964493066, -0.8554421991097944, 1.089332114696386, 0.4465437922623047, -6.630630322216919, -2.0570771629087377, 1.7147686410186445, -1.0073890914144517, -2.767074809075393, -9.54476847529602, -0.7039437293144922, 5.045506608122377, 0.7172268244770106, -1.2016644281282618, -2.4624882661190317, 1.0294218983225611, -0.1690594186035202, 1.010028798411157, -1.423884154370199, -0.7802740819958495, 0.06273285641435528, 1.628007418190629, 1.143100992772031, 1.1062104561080968, 0.9993050317106992, -1.0766555282922152, -0.45082073214065393, 0.923979999972911, 2.3318439699674935, 0.5883593285088324, 1.0028284599951782, 3.7180312850288577, 1.1919323320830182, 0.42597000223160353, 0.917919259615708, -0.24467912662257138, -2.182325283605767, -2.5193714718943254, 6.753685203029053, -0.414370665454934, 2.0925171157698177, 1.676370411490939, -1.3012072533062182, 0.5716233178611623, -1.315214669113585, -0.6851207201805307, -5.399644447955405, 5.531035965662158, -5.500072935960259, -1.4171822468681636, -1.8394362540947824, 0.7026975766507768, -1.844671354066767, 0.01996913263444125, -0.5799180154592011, -2.1352569739647334], "cols": 100}}, "length": 3, "2": {"output": {"rows": 2, "data": [0.9998146092925994, 0.00018740652215898368], "cols": 1}, "activation": "sigmoid", "bias": {"rows": 2, "data": [-0.9418451764892357, 0.36677718826698524], "cols": 1}, "weights": {"rows": 2, "data": [-6.999517169285536, -2.07001926363649, 5.394234154158422, -4.632272359889505, -3.2329975793751786, -7.679468256233359, -5.270699027722222, 5.469207808489829, -6.9810285000343475, 0.5371149914083674, -6.236956960539553, 6.395193027654048, -8.05911745096277, 5.789264969007013, 2.9097508714053073, -3.7517512160554944, 5.688027733289687, -5.227338467263941, 5.530359091523129, -4.716955582148431, 7.031013919865193, 2.0986199178568783, -5.374499815117911, 4.640099762367005, 3.360545486738534, 7.66487479669101, 5.3204032786357365, -5.476284766583446, 6.9846573705160155, -0.4017898585504741, 6.291069704974434, -6.370844174960251, 8.054411903031768, -5.743712881606734, -2.872183118612513, 3.744950914289861, -5.633539533606959, 5.216718912371441, -5.506156998062963, 4.715706086210933], "cols": 20}}}, "lr": 0.1, "it": 100}