{"layers": {"0": {"output": {"rows": 50, "data": [1.0, 0.0, 0.0, 0.0, 1.0, 0.0, 0.0, 0.0, 0.0, 1.0, 0.0, 1.0, 1.0, 0.0, 0.0, 1.0, 1.0, 1.0, 1.0, 0.0, 0.0, 1.0, 1.0, 1.0, 1.0, 0.0, 0.0, 1.0, 0.0, 1.0, 1.0, 0.0, 1.0, 0.0, 1.0, 1.0, 1.0, 0.0, 0.0, 1.0, 0.0, 0.0, 0.0, 1.0, 1.0, 0.0, 1.0, 0.0, 1.0, 1.0], "cols": 1}, "activation": "tanh", "bias": {"rows": 50, "data": [0.5139467870257821, -0.08281397475143124, 0.883205037815322, -0.49949359899858864, 0.21749964297475133, 1.3540181730094332, 1.0996153310856132, -0.5435247776024726, -0.4998624207249776, -1.118401683709843, -1.2962798187609899, 1.589575612764301, -0.8162591004558367, 1.603153489207193, 0.1394459346907998, 1.7611036732570289, 0.494929512533033, 1.3691522374735396, -0.7686132865809182, -0.06837318981269169, -0.006730936595838656, -1.3194741901670335, -0.015305587244550662, -1.5094636490684026, 0.5461517121959026, 0.8810499378108391, -0.3048526970816796, 0.5508880764206127, 0.16828891358311943, 0.09328959223239931, -0.13462198014035873, 0.19112798406631173, -0.6120596031982929, 0.8706376567622539, -0.39971805688358675, 0.3994123463450876, -1.1635653430009878, 1.05440676790183, 1.398710689572134, -0.8905978573880947, -0.5474011678681718, 0.25979976930797516, 0.5706256516775786, 0.5316028660256323, 1.1228310760168903, -0.19429984028114136, 0.8428502364185724, -1.386999221277574, -0.00844189900552449, -0.20783530967414693], "cols": 1}, "weights": {"rows": 50, "data": [0.8456306616192524, 0.20780743512672673, 0.5741619067826871, -0.4891750496499081, 0.5640928443205611, -0.37276331259086626, -0.06631712697444447, 0.6224737972127417, 0.10082107527588313, -0.40894716039993484, 0.29470225352572443, 0.7160793432731172, 0.19474894915129992, -0.5702128377277091, -0.9873278942105814, -0.910767593983357, 0.41023536121818815, -0.4542234289514724, 0.7763596138274065, 0.8369887167224497, -0.8187163391043875, 0.2841922667058929, -0.04193677535674456, -0.9015771147579072, -0.7563857062777481, -0.14192847064664393, 0.13562946015378707, 0.3449581138236899, -0.4785026539391264, 0.3710019145702248, 0.6361331273764128, 0.03391728019073015, -0.08757085148040256, 0.1809487918157464, -0.8482713062198741, 0.3655935786834048, 0.6932046875200213, 0.622064706085135, 0.278584443300959, 0.9608778585128501, -0.5546601570718852, -0.8297262028829409, -0.030774792015185293, -0.7706792315563991, -0.33413535797613547, 0.8174921507935247, -0.5746289129917719, 0.8631725443172078, -0.32868336950731836, 0.08231788694012798, 0.16947764656232955, -0.8940025341723785, -0.3266176732852337, -0.10072474501265405, -0.2512985733691244, 0.3271630141057231, 0.9486667878598056, 0.04152130475172022, 0.6757356101496814, 0.55452371443355, -0.8290969729518476, -0.4838812656893041, 0.817573014576721, -0.6146456511897469, 0.09457061989763749, 0.2473843395348685, 0.3662519092567238, 0.35408706736399376, -0.27334784076262, 0.9141457512157776, 0.5291012014445025, 0.06591955762824386, -0.9173236626242081, 0.8139015292807721, -0.34112733228386016, -0.5353040695271276, 0.8538424534895559, -0.020020386488356134, -0.9196947908185837, 0.5692662614459607, 0.05844884408171902, 0.22007723006013502, -0.4173734083629035, 0.5045552820881369, 0.3750963425857914, 0.7097284037704994, 0.8965439512988833, 0.3495872267169935, 0.8349644963720511, -0.38240420044671053, 0.2684591079927454, -0.9334769516101187, 0.862998753512312, -0.9162094672099936, -0.47315199531313956, 0.35004218165992596, 0.43513315358628035, -0.36856365086896314, 0.871669509463671, 0.09585561634520046, 0.48944805194946595, 0.7338298563132812, 0.24710420294254942, -0.4177724687182367, -0.9976715912033158, -0.5142786579308971, -0.6000671810759168, 0.3831568172016311, 0.09200976663114013, -0.9208032607139869, -0.07720639809764474, 0.14216775510792412, -0.5078814069595232, 0.5491977065494209, -0.011497009252145585, 0.7632802252476591, 0.7233933975879228, 0.4147626522775505, 0.5755381844972902, 0.4816207263037082, -0.4738685824388227, -0.6254753175876075, -0.7500703710567518, 0.8802433208390625, 0.5098302209850725, -0.574261877746979, -0.1998023288892219, 0.4894724210563677, -0.19026125845215347, -0.34511159914812173, -0.5754516539056096, -0.9189319987808937, -0.3962141163657926, -0.020838553512783076, 0.39458135569081665, 0.9885296968029154, 0.628085691951243, -0.2846720153759428, -0.8496036180559798, -0.8356280053329563, -0.819285606912749, -0.5439257596183573, -0.8753366101056026, 0.9093911342188186, -0.9128947223226547, 0.7663025088202167, 0.0609462305472761, 0.8300724066328462, -0.7666623817190308, -0.4925941892237611, 0.9129531223274674, -0.42229486320155707, -0.8961170343273503, -0.03123344852059251, 0.30987839880287793, 0.20908113250289584, 0.7863085796470237, 0.19942626625047644, 0.7563914223960602, 0.6398041872997153, 0.9277512986166274, -0.013850969702856153, -0.21862537756308442, -0.860633303263604, -0.19853807241455135, -0.07343016966993732, -0.5511037946119937, -0.11614611896416793, 0.9218477669168748, -0.8828862681036642, -0.928405629632453, 0.1691370217323649, -0.24541430938625397, -0.03840447157313842, 0.038172082071833424, 0.31522745660525886, -0.6256165616859071, -0.5230155687781046, -0.2661695187367552, 0.3485953821766514, -0.1597312409092384, -0.043139051570883824, 0.039406817117561, 0.7914245952927248, 0.2718379786463747, 0.21995689411258312, -0.44388693090307374, 0.9667514665778372, 0.5874543595304149, 0.06179904741830189, 0.39546176979502357, -0.904524071498682, -0.35174256286593963, -0.4258447443576996, 0.8398114771466645, -0.5960456927335158, 0.9521372975680402, -0.8270653449536525, -0.15728581630124627, -0.7578361176657622, -0.36088827517908495, -0.8904956354158806, -0.3773037496964764, -0.3409861488982122, 0.493982599107867, 0.8977870176375466, -0.6697444140017199, -0.20282772644436875, 0.37829077847955106, 0.7070686403328883, -0.16001914857672417, -0.9081660278654944, -0.5943198846213893, 0.24489307740881938, -0.059768325773313036, -0.694845562889224, -0.8254769580597869, -0.09602704848236776, 0.7110381585866639, 0.08259979380786642, -0.843499538190319, 0.6737910537974372, 0.3510847556466592, -0.7536843585908237, 0.5290193796282923, 0.8023099719992481, -0.3614076593611013, -0.1328836741832462, 0.4730559397809082, 0.8395774483557967, -0.14388828228277606, 0.6724247615505772, -0.7598665261183817, 0.6299783928500975, -0.7543507860781302, 0.3464160827850109, -0.8850928103030262, 0.3573355012948156, 0.4218814292923654, -0.5298573076977096, 0.9569383165161227, 0.09791082686606489, -0.21536085215358636, -0.036445767056471734, 0.25839358488147757, -0.4717365332463954, 0.01114862119099258, -0.3708541846201503, 0.12605905920848182, -0.6430017251436053, 0.44776724429113535, -0.0925162707550704, 0.423994958804919, 0.11998581432676514, 0.33530343500240467, 0.06202455212501823, -0.3966610106662809, 0.26283895131988766, 0.228107833477466, 0.6868376023467193, -0.4373532757881715, -0.9678321868756805, -0.7075171687085218, 0.8345745078358664, 0.9085525954831124, 0.2902284713998704, -0.6774826975975405, -0.7728171261720225, -0.9167113137173823, 0.9512853101034942, 0.40179262971397245, 0.19838369595554717, 0.2255437406329217, 0.7759129827666447, 0.7889857027974632, 0.3902912180189342, 0.45165817182506474, -0.7734159652837016, 0.9347021239519917, -0.6701105320393652, -0.8816843344716252, -0.49498791391208474, -0.490140384454979, 0.06267795721784575, 0.8283486966954858, 0.6851049056044889, -0.5277332589975354, -0.3978762973525687, -0.7567460336851559, -0.7821224426007582, 0.8877813003722026, -0.19806996182608416, -0.1373644948366768, -0.7434482991474367, -0.4215837031794025, -0.40123431421023104, 0.3624511619667261, 0.8437224332749222, 0.7231455154491242, 0.5806850798729832, 0.3520614561642852, 0.36660376813566486, -0.29692642229819177, 0.7409559940739894, -0.05852251987509027, -0.9798195965236787, 0.3374351064151062, 0.15613282913195148, -0.38221822517699033, -0.4928223318324394, -0.26782198961123327, 0.6093703736081308, -0.757515239815987, -0.29197943285276895, -0.1802285693098995, -0.01896272378504693, -0.007097562234764876, -0.9656200920574676, -0.07038815308429247, -0.27741488924728275, 0.7384204311613989, 0.6658289860007125, 0.8584747486354511, -0.02777009184124757, -0.8487082455310095, 0.27702244215157634, 0.7030321357315645, 0.042636282306374174, -0.3518149934771868, -0.40239234637352683, 0.7509132628634632, 0.7116764569560208, 0.8265428438634372, 0.5745479955057935, 0.6763691106988339, 0.7684510783939471, 0.9004516573363843, 0.07002375267735039, 0.6780030293372268, -0.10838623645836831, 0.6687721358414376, -0.073936395577199, 0.32456198196232355, 0.46578444241903183, 0.1661343210864923, -0.5989034606640622, 0.3154955225820417, -0.6406374934574861, 0.9817122026072218, 0.9455917408669456, -0.3540608412380515, -0.9841896678313096, 0.7110514422172614, -0.04348116268745916, -0.2283033563647292, 0.8764507440574802, -0.7378046832459826, -0.6910595564569677, -0.4613913075814402, -0.84462713673229, -0.09014773518885866, -0.698902795992081, 0.4571752017606501, -0.03461067663933237, 0.8029236535031348, 0.7770538894186019, -0.21540313047087412, 0.4358747435082091, 0.7037014356344482, 0.9852699999219796, -0.7397813968392524, -0.49335791040698407, 0.6439445074774761, 0.44119991815989756, -0.8533678389433845, -0.3056103488822255, -0.8391952213332423, 0.36737278728945433, 0.18182394303255522, -0.6686832486887364, 0.4789681877415679, 0.42571193450456013, -0.25195467025653984, 0.21146005764672582, -0.38283571432736596, -0.6904920460377009, -0.41897284614128005, 0.7435276604566643, 0.2526548361223291, -0.13203149632872146, -0.435685125994979, 0.7488486575438007, -0.10916524191122923, -0.6477676962306442, -0.4435079426484059, 0.16364223304995296, -0.8985821323868945, 0.16985595242707419, -0.03508183704192702, -0.23632521912221383, 0.29691338663796163, 0.12829807138805127, 0.6924907743350155, -0.9173663272947619, -0.5747770887337269, -0.6806022339694031, 0.5994650101795189, 0.5479581309301231, -0.2678691582437285, -0.9101954731548465, 0.3348328369978937, -0.08452437499140264, -0.28263181097420076, 0.7598007150635766, -0.4673020143586142, -0.13424474546611243, 0.6070196249237181, -0.16691636015168387, -0.34887055323404326, -0.28633544274572387, -0.20947272264343275, -0.476426753851515, -0.09152101131504309, 0.7459451455360775, -0.7675842077152075, -0.6575353107981678, 0.9431020386293631, 0.5522419002253278, 0.9615266925677648, -0.4111394411533531, 0.707967994361171, -0.05559901814705559, -0.25274528068004676, -0.012558363739632483, 0.04953381093236664, -0.5695894378073185, -0.5118813480944704, 0.3967117099442159, -0.3867725461887679, 0.6055251019776526, 20.337109158031318, 25.586075306227578, 26.401259600069135, 5.015970316597691, 8.811895637259074, 7.474622101519969, 7.374838506665327, 9.510938827056558, -0.5571706366414768, 0.6541227133022762, -0.24178073750567397, 0.5369801434172627, 0.4442476429017066, 0.10274922218957827, 0.1740371011978552, 0.8319097400053488, -0.13758574706178162, 0.5488176389523598, -0.008711735803687226, -0.7866109816841351, 0.8016078675520375, 0.5687228037430172, 0.5923614771792323, -0.44066421307566817, 0.03961531825440301, 0.29896658207758, 0.017607592090095103, 0.751330954631533, -0.20038443350493695, 0.6184695109915814, -0.3807934368335626, -0.26442934689716857, 0.18187830430665763, -0.08678241908324313, 0.10901891723214074, -0.059568089733750273, 0.7415465224826017, -0.05814767535996723, -0.4034793398022576, -0.9486990442148526, 0.8551459305381859, 0.6206647572553903, -0.474573761366879, 0.6344363284962293, -0.9910923927261939, -0.6506022262709004, 0.43289276456882186, 0.6010979268369483, 0.40957541123525476, 0.043378041045807114, -0.6170058925416055, 0.5697921740267444, -0.8163233906254768, -0.9418925940969565, -0.44575167833558704, -0.831678699464377, 0.16386943701656276, 0.3308307049183232, 0.05106750998358045, -0.256774746183547, 0.4318628125791639, -0.5041882844508501, -0.45390869588603855, -0.9883146908950802, 0.280034871150703, -0.8222735716156411, 0.02889423005434555, 0.9386524415204038, -0.8743842023542256, 0.489168522024257, -0.6173909896004948, -0.15563048958616443, 0.8272150382672143, -0.17844964829039034, 0.2060744937232346, -0.7187037084669397, -0.7256938650110556, 0.44908573300568966, 0.32174498851259936, 0.9175262000776321, -19.01209454840331, -10.21043468349742, -8.666123554875357, -7.948959501545045, 0.9840728545483086, -4.25386120152008, -19.045173842629882, 0.2914627280872819, 0.29370697557338543, -0.39043372608455496, -0.3016262194042878, -0.9540309821411235, -0.5960987694851954, -0.45048860195027896, 0.35796123419708814, -0.7781460225463352, 0.26775538270701627, 0.5449847168823576, -0.08017924906302576, -0.5736884486926468, -0.46453826337949056, -0.5370169255665582, 0.3105636225425199, -0.439357252928652, 0.2751800167354841, 0.9525526796528385, 0.42975564163600266, 0.544187132995051, 0.024307237897072342, -0.35071604200258655, -0.20149726660567002, -0.23724254471797046, -0.7653065587375889, -0.9553561576906986, 0.27803302197561863, 0.2868087645948971, 0.7700655482393162, 0.4063399733772528, -0.8622918993472188, -0.1854701201824729, -0.9761592392802174, 0.048267765837676, -0.03422051275408711, -0.45788529909855114, -0.7684176314840485, 0.8168372666181829, -0.629766951909714, 0.8624222296117878, 0.8877866725930803, -0.033582257887001976, 0.8954015443134145, -0.20014952987977486, -0.26825449795598044, -0.5791391834175628, 0.3277663462978264, -0.21133807152843964, -0.570096193027936, 0.9693702143639231, -0.7363802278930054, -0.20565553178345963, -0.1889073781194084, 0.03213615373965539, -0.42240245622020867, -0.13250198546738678, -0.6675481078211816, -0.07708312927031957, 0.5019596670070421, -0.48357760486007595, 0.5512217615839636, -0.6106405586642651, -0.708034112665453, -0.6190561037545317, 0.3693567125947623, 0.5872728056421657, 0.003335940863921527, -0.24245914350847242, 0.884153612183749, -0.32519087117318346, 0.5020540402495415, 0.9166155142974666, -0.2928277219327735, 0.48225400275808616, 0.6627211593536324, -0.881501855872862, 0.30452878864025834, 0.29696133102430156, 0.0676861813734666, -0.4423251675508393, 0.2289157956786414, -0.6778397130310272, -0.5195387947858019, 0.5194677997932673, 0.5367946721870676, -0.9729124497492525, -0.5635731571794831, 0.06045296996466121, 0.7457601303040342, -0.05233835774916806, 0.3761835872082724, -0.7423458860827492, 0.8942869071858364, -0.33836006186841106, -0.21283894217999522, 0.0900583271750901, 0.4466809754975265, 0.6018778534927502, -0.6494483267117919, 0.6331349026188029, -0.4901976718569503, 0.04524640856326445, -0.8058202446312817, -0.8988793052491497, -0.7405717810554278, 0.9117808876460276, -0.032567217610832255, -0.7874968575133003, 0.7150205933451823, 0.927966177755638, 0.9683934310666367, 0.7061986109669296, 0.5236341040090657, -0.883635533919293, 0.7683243990769648, 0.3839963555455894, 0.811723645204343, -0.39482578438733684, 0.6226087680554675, -0.05861599280162233, 0.32921666310615927, -0.5040939335552448, 0.636262844823499, -0.5829391405906337, 0.20443368684838958, -0.5384282771376634, 0.12356029804640034, 0.82913337714366, 0.6751761037842474, -0.7272117150384403, -0.5769181801308063, -0.6174573192351558, -0.7869000095100549, -0.7894055023836481, 0.20192764957535903, 0.8662317184799204, -0.41230973768165513, -0.9179305492366889, -0.912040837348373, -0.2350619426233269, 0.7168767761631734, 0.7625189032242088, -0.014106323937446597, 0.8031479775198136, -0.1900468813718752, 0.2800473051447079, -0.5599255923267334, -0.9042740924068324, 0.31098954774543763, 0.7019186782418849, 0.326754910390993, -0.024961949634693337, 0.006630092622267547, -0.11115862560901557, 0.3249103387668235, -0.2984430078113707, -0.7860147163561535, 0.40173874724949976, 0.8884657355597367, -0.5054758436801936, -0.1963086878939868, 0.5242246814875484, -0.23687147899835792, 0.4360793556799094, -0.7966656206168958, -0.6313024303192174, 0.18831743164878012, -0.41065817933284277, 0.6731488778241916, -0.2704755018033016, 0.08066681095677741, 0.20255890331500503, 0.33994385234177793, 0.20295736641019602, 0.18853212027112343, 0.6783347031093658, 0.35882309821332337, 0.3397019697203305, 0.5331786854068317, -0.2654017848568566, -0.28247542689022054, -0.2334733151363273, 0.3115994899025796, 0.9028872138809774, -0.6545329300728429, 0.5677690497716368, -0.07599293157405751, 0.42475142957881773, 0.12464421019783356, -0.4957245044454024, 0.4724264348545688, -0.2491030620721293, -0.030031876485669073, 0.5119732617535024, -0.4086315471804425, -0.6271553670247367, -0.2951957601111579, -0.3190212701543438, 0.5292039959015684, -0.7036441689082775, 0.8733288270363857, -0.6232071149689482, 0.3549896098187879, -0.6915754394986289, -0.06217553585087909, -0.7244290187643467, 0.7151684649270766, -0.1576218910588758, 0.4588656085507221, 0.2001415470175707, 0.6628402716269661, -0.7613521626591759, -0.347490726286944, -0.700392834438829, 0.8362450051537933, 0.3894662496522123, -0.22194612290787763, -0.29648810637778933, -0.8280577705077417, -0.6848575354977602, 0.38699077530539094, -0.8574919624103294, 0.012461363701982142, -0.8654843402782695, 0.5469697293900595, -0.751169058064693, 0.46449986269069554, -0.6152828830481649, 0.17199384872819823, 0.803086956216502, 0.15582853516934203, -0.9718838869917654, -0.4427711321759502, 0.6859334188562423, 0.683578612427427, -0.3821148387630182, -0.7355792607607876, 0.9885176711878667, -0.46360690986895836, -0.07865694149637381, -0.9453040477425074, -0.5208768003260706, 0.9740113033215683, -0.8538307738134889, -0.05852054812950502, -0.8138386051008193, 0.9101696978703724, -0.6813632781122072, -0.7543453541077345, -0.029417518637202544, 0.880927213617569, 0.35419284190085953, 518.8218730059315, 1202.4768287778707, 631.3104212029857, 486.1994374276391, 1048.3947244981289, 824.1037768266057, -0.37134055632880036, 0.8969748205385653, -0.3391420138638208, 0.29544969084642037, 0.9543041233742118, 0.3550052038925713, -0.823522231878322, 0.05637892044456483, 0.3694773783916514, -0.519398923352675, -0.5268658877390149, -0.4524662183338626, 0.7858487762344188, -0.7563108543069421, -0.08455035592369153, 0.6478555762714442, -0.04812691032995153, 0.14019810383239406, -0.41575814155752067, -0.61945857281712, -0.9266324400222723, -0.8417883899498113, -0.7720402814117069, 0.47874087638527807, -0.6274172827624664, 0.023094425248931794, 0.11288731159593413, -0.8341644500259253, -0.9770258263657605, 0.26797884119559745, 0.31836290959416336, -0.22931408712055923, 0.5754812635014352, -0.6489146023926773, -0.06741003169160886, -0.24228915761548087, 0.2006427760882561, 0.7182753926276053, -0.9802188492880799, 0.5420517082574805, -0.9463904583475982, -0.24794371877102717, -0.8400054768979783, -0.22513324126273582, -0.6922288290739538, -0.9423568755994427, 0.3868877868947542, 0.12636213017848696, 0.4609334490159529, 0.112795900716121, -0.3161651531114009, -0.6104233736617197, 0.21851117668951203, 0.35659971357713194, -0.6826224022110152, -0.568744727059199, 0.2179883179942501, 0.2865627737945149, 0.14903219508903098, 0.8692262188767714, -0.0417925889900268, -0.8558658391410912, 0.5050733255748385, -0.8707231557415236, 0.11127913919291221, 0.49951948610909636, 0.4201676252071471, -0.40285101020807157, 0.7216047139233286, -0.7079691400288355, -0.6952587284035867, 0.4987343629528749, -0.860701723527842, -0.9415666515816736, -0.14178419131196773, 0.1443390708572947, -0.022301026100852717, -0.35635372190260095, 0.42776800191369446, 0.7431906649768187, 0.46055204248496384, -0.5685404562738472, -0.8616008868717859, 0.23753911859728638, -0.9774899558313561, 0.14097366251953902, -0.3235599529128659, 0.1499704696026094, 0.9844731572847263, 0.6328764573860879, -0.7273212002920793, -0.75911014220028, -0.36685600081074, 0.4942820211612755, 0.20927782931816385, 0.5365043461318297, -0.9175129746063821, 0.47731371114805987, 0.5372275401970719, 0.44163375929448456, -0.2796963866463902, -0.6932417153964954, -0.3596541175571868, 0.9097827267886853, 0.7455575641192707, -0.331871417337275, -0.9909167555652734, -0.012762255254866961, 0.09168240006456174, -0.774221865134219, -0.5267542222864599, 0.37963036997056765, -0.8755579809518683, -0.33446703521715393, -0.6832121761838286, 0.37583068615290816, -0.32810852890489883, -0.33940103833343205, -0.7756804398405572, -0.414269754511422, 0.22877508492472276, 0.7174785799577643, -0.9891381313767202, -0.6232420020462759, -0.015407771014001481, -0.6628988459982035, -0.12297000033985328, 0.5179376400192419, -0.1788438297858712, 0.5673752726449837, -0.4520172539216951, -0.10011853623888434, 0.6028104808159338, -0.9521343869341765, 0.6163952049220844, -0.6447998885238815, -0.1470140037090728, 0.6433630410614455, 0.1459531810930499, -0.8686769213426102, 0.4362662503658752, 0.306025857248474, 0.32666133120312346, 0.5818181221407619, 0.3715326466594622, 0.8777589211734451, 0.09071385702265244, -0.8293348410675037, 0.4386402265681655, 0.06513546207685672, -0.012648748064460813, -0.6345586839161463, -0.8867226574870368, -0.520194548588415, -0.973755595284808, 0.399005784644604, -0.014560917871262902, -0.7292749262132996, 0.6787818643177248, 0.5116383936836342, -0.7699388734214225, -0.505569372430893, -0.9416137456324869, -0.9646450222253751, -0.5151289994545518, -0.6138709548524002, 0.9585918083467817, 0.30597853592422264, 0.8601152317703207, -0.8831389338737856, 0.7464637789548481, -0.6971309171688425, 0.49408523363903534, 0.8514687804920757, 0.8201444520029322, 0.5542711884765912, -0.26160868470340404, 0.3061306220459288, 0.29099734608779637, 0.004919914851584162, 0.3670359399683971, 0.018018914586157342, -0.8307538735879376, -0.4250723680329602, -0.34242998316225526, 0.7408942775159597, -0.761208658066802, 0.7420592700775213, 0.8258430654458206, -0.4401722175470717, 0.12618628712250102, 0.33488204076383044, 0.24900977084895848, 0.3984112575633114, 0.7964646475579293, 0.3299836444944235, 0.7101082922298974, -0.18135483058355573, 0.562340969330172, -0.4269264449212311, 0.014766301361214706, -0.5522207004901969, 0.8042457494502289, -0.03931068621925338, 0.6017398077555047, -0.8035828355391808, -0.2724836565771953, -0.654870697534846, 0.17388240086651185, 0.560845668501031, -0.5950247451290902, -0.5103466261945673, -0.25190667635322317, -0.7877141541283965], "cols": 20}}, "1": {"output": {"rows": 25, "data": [0.9999999999977844, 0.9999999999999387, 3.603207267521343e-07, 0.9999990987259347, 0.9999952844749344, 0.48156526082905127, 0.9999963184688269, 0.9999999911884875, 8.909001887585828e-07, 1.3926493385011233e-14, 1.1444644951996842e-09, 0.041424824005869186, 1.6596400436620382e-09, 4.9478717690021184e-11, 0.9991847535890406, 0.9999999999999845, 0.9999999999916815, 0.9999999998208762, 0.0013197970397591091, 0.9999999907600802, 0.9999974946578831, 0.9999203330398612, 0.9999999950570366, 1.1405935403177587e-09, 0.9999997633086176], "cols": 1}, "activation": "tanh", "bias": {"rows": 25, "data": [0.9384374478083068, -0.5259465918487692, -0.7407665096962853, 1.318916849109991, 0.6966569437415486, -0.3076678927824602, -1.4748579002513704, 0.5090493324161852, -0.6468017084659097, 0.9861893355166513, -2.118494970605008, -0.033116901211097935, 0.6405033055750166, -4.832359671072192, 2.184548916066269, 1.7303324384417131, -0.39322775573822527, 2.513281319659619, 2.886735585141796, -0.0742039069282154, 2.0858752320963534, 0.715777066855334, -1.343051102953257, 1.434876403414533, -0.8817953362851293], "cols": 1}, "weights": {"rows": 25, "data": [-1.4498983671116108, -2.690797533892883, -3.3344400861459524, 0.21989618226957272, 1.6241938540079597, 3.1448753055284016, -1.1928952439071638, -0.3497614480504707, -4.394957533454437, -3.5490444742168323, -10.578573687740596, 2.21564521291563, -7.104140394545649, 2.1035883708190157, -7.839570771696979, 10.161155939056881, -6.356799447153495, 2.1429434905379257, 3.254410244611157, -12.627537636747727, 13.124371541552224, -3.138454977684764, 1.4767535054712275, 1.3449293533442568, 1.9136233522743253, -8.334408950934739, 0.701313105534231, 3.0232762363033885, -3.553703852079695, -3.1874607192418556, 5.557380276718675, 2.4852759541868226, 10.266658768521548, 1.9048962061397794, 2.2319375616639454, 5.23587634531333, 4.720934471159107, -7.628663771051143, -10.066477918809746, 1.8828161654554199, 7.088945418138968, 0.650774272155637, 4.334015182344809, -4.439069270146594, -2.159363478933308, -1.7828495648644722, 1.556452030196436, -6.919047638021644, -0.7314961080582509, -0.5962088977373595, -4.410708117737303, 6.567987419915691, 3.016531795526548, -4.7228071481604745, -0.7082413003238369, -5.051574133136816, 0.45462051885066, -0.7331234480385808, 2.9163678874130787, 3.8396731516001505, 3.6950449369260214, -4.4236396425683875, 7.708197400289328, -4.270764690893173, -6.442346647229237, 8.039020149737807, -0.21973682827653335, -6.249952871928755, 5.8661472177090195, -4.180431336192193, 5.745410532759036, -6.643122019148906, -0.24209331509882548, 0.8872976354576126, 4.933218882800288, -8.598036687508781, -0.09820918547104387, -0.8788478698781087, -0.6862028807151018, 2.3087149858407354, 1.1998648077172056, 1.054196350606071, 6.772922753381326, 6.608090990172966, 13.466738768713718, 1.0467155700320716, 3.645898981009887, -3.5659951929671543, -1.510967670699976, -1.1665850408663427, 9.044224555074926, -3.3524909687948266, -5.50140717079041, 1.6036295477990212, -6.247662272380525, -1.3490286356559675, 1.5381607169260831, -3.90633217839441, 2.1255379621598873, -2.8428325547044895, -2.3858669900825027, 1.8788358154005103, 1.7499738129528835, 3.1047234940510315, -0.6142284346063309, -1.2097144174423318, 1.7345491153887223, -3.2649487547078455, -5.404195625273391, 3.8322755378428224, -2.1029951709263983, -1.1936405559280154, 1.2462057544028924, 0.023126444657756578, -1.6558099376123516, -3.0659364202454573, -2.230896708200005, -0.28539603051755336, -4.917518634816315, -1.3552633210207796, -0.8827706401940544, 3.3605132928574855, -1.1131458840156034, 0.2008984847261584, -5.862813561498622, -1.0436549367938428, -0.6233252559735718, 0.5003439746837167, -1.6739123943628968, -0.025034606918901702, -0.4980437469804407, -2.0099867926726813, 0.48848917740943604, -3.136766924191756, 0.46033671665470116, 0.16286002891514156, -1.1413651491660786, -1.0955220152726808, 5.458641215088032, 0.14866045591249483, -0.3506424541909889, -2.3659677496547937, 5.04565618451878, 0.5611224069363879, -0.28558124322790135, 0.432076320605064, -1.7489635499774283, -3.9231898349981864, 3.2248641174534765, -2.9136428774594125, -1.725950404971573, -4.232027940126251, -2.6670632392582383, -2.705485273991434, -2.3913766221485586, 2.6246182040436317, 2.702848018070572, 5.329323165566432, 6.742993473192021, -5.468564399064952, -1.8307228942970994, 0.8401964879477988, 4.361560042692285, -1.2261157476023639, 0.27766798010505356, 2.148915249673223, 3.9438248716761204, 3.4432659426515793, 2.8740536705511355, -0.7469059033875854, -2.3606073657831774, -1.4774717680306901, 0.4360747177936093, 0.004350977121820372, 5.937922785649239, 2.1867192068725485, 0.7068985691527451, 2.3254755758332646, 7.482142846797404, 0.6123398341178519, -0.10542568675958564, 0.31380065574071786, 2.8454547489904836, 2.5643084375578242, -2.8727326653553424, 0.5113720587265163, -0.06186303275324661, 2.364000990471639, -1.776159215579189, 0.411389247241889, -1.3155459618566285, -0.6391477629312914, -2.4964953364097155, 0.7780083861857002, -3.449847515342667, -2.1683679646104963, 2.9293069087698695, 1.6632343215284187, -4.050033950498439, -0.19970672249911212, 1.290073083271644, -0.19906430343699577, 0.9167319075967515, -1.010662838970169, 1.805529050132307, 2.3057922806020184, -0.5770028442293448, 0.3208122747897419, -0.28174378405501516, -0.24695664062862746, 1.0197988006430556, 5.247017363677257, 0.6157861804446648, -3.5665741506569657, 2.7116913615175986, -0.6804171340369095, -0.7859933959865192, 0.23313911544717122, -1.235142155888886, -1.7720588108214643, 0.837471686530947, 1.8798807476258348, 0.7651776195309938, 0.16430809836107163, 0.7062336062157489, -5.038899806424047, 0.8454238768270802, 1.6273920313006602, 1.4199060571241198, 0.8679757801678116, -2.5054530631540826, -0.5720679897068154, 1.3400880339402397, 0.843491479005971, -1.237445219534846, 0.4883615820424612, 1.1963507511792215, 1.9496053423055368, 2.750412675020467, 0.015071862274513665, 0.2096946749357553, 2.5066903101225204, 0.42355218803613015, -3.2937707190783003, 1.4353334210790367, -0.6470596871458434, -0.00039519534126161276, -0.5273133960012175, 0.8521322106156882, 1.0237117970930463, -0.45614639998188977, 0.629774963403117, 0.8508644429677815, 1.560910634123177, 0.4505458562173453, 0.763741174880346, 0.11676188118474647, -0.09571298665208264, -0.1920179712256882, 0.5655763735735383, -2.2610904227802364, 1.2179187331604333, 1.0779744036112164, 0.33291092607879974, 0.3544183196938391, 1.6455489261887095, 0.031175460872879254, 0.8867390475314295, 1.151101584151525, 3.018973409061552, 2.0572851915299326, -0.7981178043909228, 0.544146312189701, -0.6145573703414493, -1.112438836665512, 0.9670928694537048, -0.8325703872942432, -1.2713355692654416, -1.057262494065918, -0.7374353708602103, -1.0463141062492907, -0.2801230401135039, -0.4309658334968478, 0.7568515685945237, -0.018111917316923926, -0.8142740133868628, -0.19150383772965104, 0.18581057303039558, 3.117959581626234, 1.294965839270557, 0.9384165720359886, 0.5317256167257213, 0.3346357001362781, -1.3598434576108072, -0.05797745422781194, -0.31196383476250233, -0.42137319515382415, 0.06715569216698761, 0.5456036873931904, 0.1569636792536106, -1.7708267000415359, 0.7706658843138615, -4.185840522267128, -1.9816688774001963, 0.9573482174937914, 1.4566507360829704, -0.08171017729825694, 4.001918187438241, 5.9905852292323, 2.1660168573796326, 5.485282398086079, 4.9134608427838025, -1.1867914107257613, -2.615870675754169, 0.6187326700858272, 3.5920752095102273, -1.7551272182403541, 9.37395243084871, 7.104300798780401, 0.5974344061776593, 0.9034026122723648, 3.863274207029252, -1.2144349564877028, -1.3292362423273185, -2.4578282448746442, -10.316738147696169, -0.5367127152880788, 1.3314484368072692, -4.733034791094357, -7.011526373277431, -0.8804365289192942, 1.0682795256205824, 3.1777637255303612, 1.3864729688675737, -6.969253727489843, -1.9076877490591786, -0.4012928854282654, -5.873781145933549, 15.783588173131388, -0.7047955747252937, 2.2310959738508247, -11.428133711685456, -3.6606188909962722, 7.147157203203799, 4.309489217494738, -1.2517741840675254, 3.0971091400725266, -2.9525485388985615, -7.458578522898771, -1.99854382538461, 2.0663012276945047, -2.1639043900672736, -0.6828545233949711, -1.491478745632617, 3.480749519499842, 4.972527732521778, -3.961077381046187, -6.036613156301308, -1.8055812399058517, -1.7245904174130995, -1.2042533286942039, 6.987008596329017, -0.22296616989490417, -4.822454788062585, -1.3778003249650281, -1.267025295496445, -2.8577751790682204, 0.9873633088764117, -1.107251015699119, 4.584398770628091, -10.167710622729906, 0.3048103433179804, 0.22258933139914083, 1.8228310217427595, 1.1967778023430207, -0.2662055671343994, -0.8559108027270368, 0.6165504776049316, 3.2083404991111344, 1.5555629118661602, 2.828020795521808, -2.269325112120556, -2.3563839830870044, 3.326075481334575, 4.545776923372115, -0.6067875301996072, -4.81093042217472, -5.502109843558174, 0.6723430078492373, 1.0473284810419365, 0.6190627211035605, -3.4889585109212127, 6.248264703513287, 3.109617649563024, 0.7777484190173399, -5.067470993384612, -3.0432297075596093, 1.0231630964007283, 1.2891134155418777, 3.1969468791886415, -1.1138272512006369, -2.52073109292556, -1.9622522500689858, -2.55406699226989, -0.2775145446432397, -0.7450531111327833, -1.9049390253142353, 3.1557132688270264, 5.266605186465785, 4.2968343362335055, 9.186055653413083, 1.0454671042257955, -3.0552794905044047, 1.5055639921949826, 7.192515539008669, 1.0802328873715037, -2.020894651230314, 4.484328093866604, 0.563619328167168, 11.539421827520552, 2.494520129896527, 0.8313002119348163, -1.075732283668214, -0.9022368793035986, 6.545090358792952, -3.9514780101153106, -0.8253566840724835, -7.555923903682851, 2.609109704713043, 5.544290238496953, -4.445801208230203, -1.9982932873922041, 8.509725442538025, -3.4629944292123245, -0.6408781256766826, 1.7585744697528232, -3.795074742553157, 5.904154654673189, 4.787586278674813, -1.214212505919856, -7.301278370253604, 1.550025871550909, 11.85281626346349, -12.197854420011343, -13.921334823730094, 1.336903204797386, 3.5396478046328963, 6.968976132403827, 0.7912194580904343, -0.05799578512241806, 0.6261988525199567, 2.3862594260132375, -0.47287690949895067, -11.318381449681729, -5.932804726169571, 5.295990429623075, 0.7340079226215723, 1.4567054835819886, -2.561842059897542, -2.7084900727889907, 5.318496969245759, -1.0539227400211626, -3.370861320706689, 1.780725655237078, 2.7758917200810824, -8.87734596120675, 0.8477753935456435, 0.7320456663359114, -14.95802516868919, -2.6158322406223724, -1.8851145762146988, -5.02083848750719, -0.0937605362689547, 0.10837601506392017, -4.188756682863777, 12.484116073984747, 0.7808986050921123, 7.366395927767723, -8.643573616990576, 4.64796224252149, -1.0141126067841524, 12.24386409301535, 6.085750373986051, -1.3667703423623727, 3.071354677966161, -0.4082621802104314, -10.540608522485822, -2.7464682942855205, 10.035097640072948, 1.2399561825837377, -1.847261830365757, 6.2249501201134745, -1.4325303849835853, -1.9183318595559709, 3.0202692377139537, -4.8843622649666685, -3.5956732298787695, -6.601760055899003, 3.9165259554259166, -0.8719891357732314, -3.3812266399924336, 10.554746674057276, -0.2345377175957073, 0.9119202334169666, -3.167293729363351, 5.166155874189142, 4.109166844136155, -9.741756382143445, 6.296991976221739, -4.969341002077292, -1.6077116564130416, -0.38977252122308387, 2.791796905541602, -4.659489302885976, -0.8622804735107172, 20.0194901715604, -6.2625907528148, -4.405067565459852, 0.6071469334037563, 3.428611107472544, 5.002837351168097, 3.663673563228344, -1.4441854012065614, -4.7521995949964, 4.679459267404452, -11.615894630546483, 0.3004754855721435, -12.485540888953677, 1.073992479734886, -0.8174909918609224, 11.277373308722064, 8.57499573591254, 4.424539563166323, -10.49694727404478, -4.375248240990993, -0.862326033509103, -8.293608322516926, 2.8788789394454146, -4.017030476734373, -0.9556243352579765, -3.7252002074261164, 2.6438361510334882, -5.129241949992956, -14.636252262873086, 4.1426498457100704, -4.827317981980141, -2.948601385509814, -12.821728702377277, 6.307171462754773, -2.2367653801393095, -1.0554273378735524, 3.925388316663384, -0.17812315739730894, -5.783470522711595, 1.3738662944776185, -4.62967360919366, -2.813323796093097, -0.46270319251312586, 3.5229363667974147, 5.035697002150874, -2.5542396363586293, 4.839279177963544, -4.73212507323674, -4.042653266632397, -2.2666335420617334, 0.7365561550483725, -0.21432394919038333, -4.2469205923939155, -2.7089480485202957, -2.385052111363396, -6.276100809361336, 0.9598421274641149, -0.6167922714964077, -0.19922012505805703, -0.5068947961539976, -3.407150461900993, -0.6044863186624341, -5.529510468364284, 1.798053939775984, -2.6377442967172273, -1.0929847301491844, 1.7714406353188854, 1.8347358698723262, 0.3195161781454986, 9.004857161061471, 1.0354081290549906, 3.0715616772172383, -1.7535275415536542, -1.0923814176308007, -0.0571035241794034, -1.8788336850333, 1.6856444891098858, -3.974827064120073, 6.22209743074994, 1.8811110836510152, -1.6636814920969676, -4.877608074920267, 6.152774401441246, -6.408283615116571, -4.221963317436249, 4.125492470867763, -9.537477999659606, 4.441507540833139, 3.5498476560488386, 9.874504696055165, 0.6502750128695909, -5.208803107057307, -8.149005554599443, -2.718049064386616, -6.3406328693407445, 0.6440751747194978, 0.42682884523919173, -3.8288661028204496, -0.22626084069191235, -2.2534571717565894, -10.584915063914176, 2.6023802740419426, 2.3637050043269565, -10.331023360067427, -4.923786177911189, 3.0815676062121304, -1.2004179410946882, -0.07784691453461377, -0.6762768393702988, -2.22747131951272, 13.134159248860806, -0.7795066470634324, 0.4375170825352419, -3.70401832893159, -8.350185506693148, -3.2473622314332227, -6.217478924729184, 2.579430875579557, 2.916079555515332, 2.2873891799589345, -0.8735462293467157, 2.911247831794979, 5.789677936510505, -1.4551092866162345, 1.3218061522206002, 6.827629448673189, -6.22431097932334, 3.190705170385607, -1.1011152389231795, -11.20581041033481, -0.20504148663812638, 4.65640827877571, 4.806108692346418, 5.846030347192129, -0.24443941420693707, -5.417961041777569, 4.3299207303600395, -1.1245628125634524, -6.7772373570485165, 2.3157704630658267, 2.309829516693048, -0.9845280884136763, 9.530340523216028, 6.2875596168132635, 3.8400519900195027, 3.098701446634956, -3.9548919148171544, 5.234463081028367, -3.8590792741524, 3.563367397996523, 5.269736341357018, -1.3978738064902585, -4.781385362450584, 1.8362435706493716, -6.961456090488365, 4.468506669704817, -7.689382677599112, -5.101181716965174, -4.43869801838206, 0.22030018611778937, -12.370537142512065, 0.6204259194066456, -5.404339587393047, 9.434495154027175, 1.2652830717311274, 5.55365849924261, -1.367794523260989, 8.997664672217324, 6.391842279478863, 0.0012102437066307753, -3.8338258001274705, -8.418660208256705, -5.05985323885822, 4.872646727499706, -3.5168896788920834, -2.6459184498217385, 11.940974205313157, 3.5537448176540836, -12.086750784249748, 4.472522248344177, -1.5021996443205399, 10.278783393448435, -2.525394014765437, 0.012981786801888648, -2.1539477636680644, -3.1504888057410745, -2.026516283396543, 7.079767364788928, -8.177060053620233, 0.31699860949959296, -4.6392294591207595, 3.6116346165340336, 2.3995088582166817, 0.5716227939518673, -11.939896406523548, -2.545165543689843, -4.141716506324351, 5.471733254068943, 8.264473794790018, 7.76211844607808, 2.415508162036538, 1.491779967462984, 4.831448442223559, 4.972604613358802, 2.4269721833452276, 0.5102532826678039, 6.690397753819619, 0.49728699398908416, 1.6733213630660968, 9.294577708501494, -9.154340439822716, -0.40919573354637084, -2.147500104436655, -1.5662506655882062, -3.1765174936612035, 1.6274009614152687, -1.978146493827906, -2.1107045628892855, -4.534035710066182, -7.112546079155228, 1.6901544520500804, -3.4453871762597923, 0.30819916483825793, 2.84140293542502, 0.4910533621883021, 5.010808070096487, -4.422468097914362, 4.952319733958233, -2.1632029424592814, 4.6723923334614454, -0.4196386281990498, 2.2373817798072744, 2.0792728384434453, -3.9889443555412565, -0.07053988395665627, 0.24803635717811712, 1.8830978631497741, 4.902092398322847, 8.238256766442795, 0.5361803456858363, -7.715142240587093, 3.195356159947563, 6.669218662733873, 5.167274531308405, -0.1780203370325096, -0.165485622572763, -0.006262887329943026, 4.9998327135321015, 11.068397770039759, -6.485040159451121, -7.028712454207855, 2.2086260672294094, 3.4685565258709223, -11.448797671746243, -4.642379188815686, -0.4095521540478771, -4.634892071454302, 2.9912557448861983, 0.255692194388435, -3.2367418521347164, 9.963652353439509, -0.4471810808052786, -5.2144827532780065, -1.6367946802442874, -0.2830551023784772, 4.414353481630975, -4.434738635043557, 16.135958407148845, -9.21021933384746, 13.510766695150162, -0.3784651599679449, 7.107691431638038, 5.982268040196665, 2.9409853585454035, 1.9343376926741922, 0.6620120417618848, -1.704441493536404, -6.633476404600613, 3.251711869551485, 4.713560976192441, -8.87969744055868, -2.4844263364076875, -11.523948743755836, 0.21932749975089752, -1.0386466533981074, 0.12133568805503848, 3.3061444656299823, 6.05309779247131, -3.4215536502364867, -4.079234752653505, 0.9510932749546289, -10.563649330166982, -2.464935738379837, -6.079954165038413, -1.5529632019343702, 0.7974107958070181, 4.018026632723108, 7.4799180110430274, 3.435335118645945, 6.411927339988984, 8.59347617585427, 3.7110467122794817, 3.0981466701227878, 1.1083307939931637, -2.578523017755404, -0.5400064472282992, -3.318395690866439, 0.7056931289392329, -0.7254192580530882, 5.788507143855735, 2.5095508780329445, -0.4883699870017236, 7.812348124452804, -2.046093321318511, 1.3768942671396422, 0.3057341432312075, -2.1193732032879473, -4.906163726228115, 0.34774437775040373, -8.151017451592224, 0.8649672968908833, 2.555306396990191, -3.219217030257527, 3.352979585380397, 0.43101466001461597, 0.6987032302498056, -3.9594572175195606, 1.963594335400183, -8.512296836187309, 0.5136314187969794, -2.53306952827058, 0.5721166179674805, 5.656072832926733, 5.512103702960637, 2.5826637976824074, 2.9040514874525853, 5.438081673999269, 0.16224359356574825, 2.739233614875261, 3.788962710002839, -6.274893443130526, 6.762664508949546, -2.6963078086934598, -1.057198934630293, -1.731247594876905, 3.7386556348624667, 6.2769440814444675, 0.4302100172796481, 0.33535660115211174, -0.18892056731775292, 1.8480878330661068, 2.240160916568096, -6.065502651984906, 3.875711608896045, 2.292329534685048, -0.18573039406313918, -5.017971823889561, 1.9287419678350897, 0.6022042683918202, 3.208700414159002, -5.829743336063571, -0.5823913253672128, -0.5103313525026016, -10.59854672757656, 2.9949407210000136, -3.6984580886705416, -1.3191950367825171, 9.3058840390698, -1.6208993305439763, 7.121295759187807, 0.13319575280835472, 0.013141909896048316, -11.016405104474048, 6.864826308611207, 1.7558970545468886, -8.241083896869204, 3.310482475601733, -3.607223753139958, 5.148052727317091, -16.17400401178125, 2.46123953206723, -2.1719657257471523, -4.037488263276458, 0.6333797732319749, 1.089581028074688, 0.5344970435997584, -0.3570814340256025, -0.9521161437189416, -0.14810937274907499, -1.2781846665598733, 6.251893484691239, 1.8720817310480304, 2.597499912348915, -1.1584485208167794, 5.2434428291657795, 7.016530108234825, -2.570181773941009, -7.431443638030653, 7.141783345480571, 2.401653550482255, -7.688776139096166, 1.8152520624461659, 3.625468594601352, -2.3427737655536687, -1.979552974760747, 4.328676271451217, 2.8382335637356078, 2.8721010505787183, 1.675381786976466, 3.204296986298631, 4.822291185441897, 0.7941898671493832, -6.671682002623715, 10.447052743898793, 1.8975642270826767, -1.484092477231998, 1.1017454809482026, -0.6056368845604353, 0.08002775086777704, 5.952225981811031, 1.8820108465681684, -7.4422614996418925, 3.538775064744672, -1.0027859865594526, 1.9040009249504353, 1.8432470412577966, -0.2759614285143297, -2.9945600371145864, -4.904267834904994, 1.6002088589047827, 1.0925033596317981, -3.6447115814743314, 0.7196632021504579, -0.5304911619822014, 2.03406074448785, 1.5485121111204416, -2.969953939619722, -1.5352182601184847, -7.054946294069975, -0.05188781011535562, -0.6895206702378925, 2.7675512913253577, -2.078011632902448, -8.472362381058716, 5.455469559308972, 1.4634503515969204, -1.3979226857051235, -1.5288929057850662, -4.033227184985005, -0.19119044886781789, -3.9375719876370905, 3.955470279224706, -1.4628275455322306, -2.6038711571617372, -5.435560834893811, -8.70053783807539, 2.4872016802128467, -0.7051295752703672, 0.3232975552716573, 8.492839456683754, 0.05051782195786757, -0.8614584206867715, 0.9902311073103088, -4.895276815853899, 5.6436768696745725, -1.2262657638859402, 2.702642642065264, 4.483927286499239, 1.5364460608998523, 7.936309714639958, -1.99959559834169, -1.87931191769568, -0.2570205110438121, 0.4806790163197211, -0.26461498279243006, -4.106102465801643, -9.460721086208933, 3.317418335645544, 2.674912787229056, -2.883637539430037, 1.6282218210153832, -5.958605735004136, 3.0692039468028867, -4.224411700149683, 4.706635020557647, 4.832174330789426, 7.4231403743495195, -2.09106441988591, -9.920270616164688, -0.11748180285411251, 1.6932717550528802, 7.24499997444093, -0.7716243557199309, -1.861745913507865, 1.8790505104454984, 3.918595469892249, 2.944043230314265, -2.3257524063039123, -4.000620997822978, 2.7510831662995474, -2.805578301473301, 3.0446205747471646, 0.5219835343143376, -8.15351750631844, 5.627394497829788, 6.671537072472079, -0.12460000186981927, 1.3878354562421065, 1.3706736299997182, -1.111480388688862, 0.6253477207424585, 0.23476513029655643, 6.021001985614867, 4.056925849797019, 5.583541559524018, 0.06438968599197312, -2.925655730911785, 1.1295651500131483, -7.200809568116615, -0.2781915580250825, 1.4593342372868274, -9.853739181183974, -3.993741657048227, -2.505711877029117, 1.4364500048578055, 0.2608865322200442, -0.15811285147613274, -1.48891946256349, 2.4599025181633687, 1.375199763230292, -2.672636711175781, 4.137630201117064, -3.771797357580871, -6.193523914704282, 2.1276763224652324, -2.962104197832564, 1.2088380073116263, -4.915822873037682, 3.36760355253458, 0.21953638849109533, -3.1049423280191677, 0.6509261819204072, -2.267252362708593, 7.037540147662432, 1.7651170348704077, 3.595192807392976, 2.836343519988404, 1.7346148607260827, -7.698622816784054, 2.6885410350138015, -2.3542361585275287, -3.769936310771205, -8.452843998433815, 4.716553421246984, 2.134357175087261, 5.327423702517751, 7.738114371806575, 0.23266606957799965, 0.3222404789998302, -3.861096681252296, 2.6463120331512813, -0.3134193400845274, -5.602835082735662, 1.0582589334383234, -1.7129769955678342, -0.22940643282452552, 1.5008757996732545, 7.592451848492336, -7.050114183396324, -2.4608797060083036, -0.21392572167492702, 5.363180845588364, 7.318073067135842, -1.8523841558580763, 0.9055016954965064, 0.8253204468103698, -1.5915027413622986, -5.604218936761325, -1.3682252019313115, -1.84025904877111, 2.3953390118956164, -0.03100247316782907, -1.2378432758789621, 7.319589627282071, 2.8356107026671737, 2.00660868205117, -4.294661851804345, 3.406872496569853, 7.728846958336737, -4.894894050021622, 1.1252056778610735, -4.464929896227033, -4.860870747069202, -10.11690211280978, 3.2043538745717934, 1.9633792899447786, 0.6139103762548168, 8.42305309470499, -9.208020376982548, -2.0906703113299945, -4.075553706128096, -1.4354952332901862, 0.49840964310216057, -3.557613956955513, 6.236406628863726, -14.84865737863244, 0.10583735756005448, -1.0210330840168174, 1.4768770923334922, 4.251728518597709, 1.0643688426833526, 0.4658394209918838, 0.028782283513122186, 2.133477205209861, 0.7492406712264358, 11.902946770250434, -1.2732140837231423, -6.025948970204031, -5.729295042860961, -3.5474731841744953, 0.37803735185002263, -2.762505354700355, -0.18906158655790753, 2.367303617148976, 0.429317167485754, -1.2139867686863808, 1.083177564760895, 4.732640621517647, 6.220715941526593, -4.649776646776201, -3.901322380503943, 8.613918742712885, -6.889445814827272, 2.699102983102416, 0.8358055698528046, -2.699533679201722, -0.16402434373581196, 0.2449603920919942, 1.7917537318946692, 0.7203631802937944, 2.253929631755338, -5.082147468072979, -0.18252369103927793, 9.723701293380833, -5.45407232542624, 9.887947738628997, 1.421330948663935, 3.296802652620226, -0.5941420199946271, 2.371411031841408, -0.03445588647568937, 3.5623583777413206, -0.745372854723565, 1.6082327434555714, 2.6872036030783115, -6.019874630369616, 0.9486969421374464, 1.9177027303608485, 0.39731487283429556, 2.8026167627754655, 6.503578083503289, 0.5460926647983937, -7.724691090570815, -9.556620804024421, -2.2300786160713306, 5.536869380429814, -0.19349176851264213, -5.749189089419511, -0.9580761612266445, -2.676554197922744, 5.0578096603908165, -1.749761684551512, -10.701829121912937, 3.355985249479256, 1.5211462496314088, -5.587859950306615, -5.848605718420919, -3.2343791423294546, -1.153917456459834, 0.27144763514776105, 0.7083571649264065, -8.360841582907788, 0.958594305744665, -8.173919356540821, -4.33689777914822, -1.1716558965669728, -3.663929843615706, -3.1834169398325285, 6.848696843978669, -4.320681341909014, 0.09990736309637899, 0.4796034668231128, -2.7024009644728926, 5.197197051613664, 5.244282306953969, -7.651476505006249, 8.298633384538721, 0.8839537305085402, 13.613611314198073, -3.6890409132344364, 7.759330688498478, -1.0708447715336742, 6.30855290194487, -1.3216580803706324, 11.875930632582254, 0.9846547443625999, -1.0635977661772085, -0.8745747592427674, -0.8939254984538983, 0.33191884499128094, -3.078307742298433, -0.10192309345232008, 4.625514545442565, 1.7694674556926189, 1.3992675527945309, -5.723191710148185, -11.021436176038051, 4.109557229349994, -1.8148087508115711, 1.2529342534581398, -1.6042065676045136, -1.7474306867946463, 1.2663491625680126, -7.22982125078882, -2.169681106328509, 6.139909777395275, 7.6064175417504645, 10.831259059381948, 5.342867301880008, -1.3317836857722025, 0.7202263257563636, 1.8197784531142254, -2.3137890389358944, -4.492116440657559, -3.4529390401387126], "cols": 50}}, "length": 3, "2": {"output": {"rows": 2, "data": [0.9977314043338206, 0.0021163209214406214], "cols": 1}, "activation": "tanh", "bias": {"rows": 2, "data": [-2.0026595754520957, 2.094713842992411], "cols": 1}, "weights": {"rows": 2, "data": [-7.728664070137259, -5.511344422759537, -5.065503249407747, 3.8854940863037526, 3.2543500910955245, 1.4185110820437683, 6.775660432231969, -4.676355483821232, -4.112353977428894, -4.570822807592528, 8.845097034009784, -5.068217844580781, 8.612091192804877, 4.354089255435143, -6.224186704109153, 4.703627293536431, 5.95340938209966, 2.766638850416533, -4.208860616580566, 4.566916732690347, 3.7721356776987296, -6.443428683247394, -2.54592358168154, -2.505570010421487, 5.0675329645140055, 7.77951161618966, 5.489490846384204, 4.958517689047528, -3.9969767825175873, -3.2896825173435698, -1.261780540958143, -6.793537146574115, 4.69163232093199, 4.1160389831954785, 4.568334694236569, -8.845258642829291, 5.088709661463494, -8.617887974773717, -4.355667562891842, 6.263781693045083, -4.704661281349184, -5.977822895193214, -2.7730375259898774, 4.211187550778088, -4.5503369494315375, -3.776839370315889, 6.31443084014277, 2.550641275333089, 2.502001620294396, -5.080450543096373], "cols": 25}}}, "lr": 0.1, "it": 100}