{"layers": {"0": {"output": {"rows": 120, "data": [1.0, 0.0, 0.0, 1.0, 1.0, 1.0, 1.0, 0.0, 0.0, 0.0, 1.0, 0.0, 0.0, 0.0, 1.0, 0.0, 0.0, 1.0, 0.0, 0.0, 0.0, 1.0, 1.0, 0.0, 0.0, 0.0, 1.0, 1.0, 1.0, 0.0, 0.0, 1.0, 1.0, 0.0, 1.0, 0.0, 1.0, 0.0, 1.0, 1.0, 1.0, 1.0, 1.0, 1.0, 0.0, 0.0, 1.0, 1.0, 1.0, 0.0, 0.0, 1.0, 0.0, 1.0, 0.0, 0.0, 1.0, 1.0, 1.0, 1.0, 0.0, 1.0, 1.0, 1.0, 0.0, 1.0, 1.0, 0.0, 0.0, 0.0, 0.0, 1.0, 1.0, 0.0, 1.0, 0.0, 1.0, 1.0, 0.0, 0.0, 1.0, 0.0, 1.0, 0.0, 1.0, 1.0, 0.0, 1.0, 1.0, 1.0, 0.0, 0.0, 1.0, 0.0, 1.0, 0.0, 0.0, 0.0, 1.0, 0.0, 1.0, 1.0, 0.0, 0.0, 1.0, 0.0, 1.0, 0.0, 0.0, 0.0, 1.0, 0.0, 0.0, 0.0, 0.0, 1.0, 1.0, 1.0, 0.0, 1.0], "cols": 1}, "activation": "sigmoid", "bias": {"rows": 120, "data": [0.1893686083490497, 0.9540636135721507, -0.02322072052801138, -0.7041024031528732, 0.010200597382203273, -0.12717126152957392, 0.9961450152453115, -0.15210710968463445, 0.11030111708020067, -0.8179666334274185, 0.8513980235403414, -0.21438759768004995, -0.7386777677461929, -0.348313141196541, 0.00480009744062856, -0.520249860501903, 0.7093256142580251, -0.3258884504805186, 0.0549355466204753, -0.1392929158235676, -0.36623045187191317, -0.3842431510255455, 0.4591869956122464, 0.6467073083425796, 0.5505183011657048, 0.15703600367952708, -0.14659160812400376, -1.0811039818531831, 0.07555213247398368, -0.8118433092049606, -0.4631764945654607, 0.21511126508528675, -0.4926029045694239, 0.3806644829961635, -0.10657627409286353, -0.2002965974604684, -0.2716449285120627, -0.15572273498605657, -0.7711941192173025, -0.5972509513376717, -0.9073008023515644, 0.38047770381748, 0.5308089000461436, -0.6161750963995649, -1.2269171974432276, -0.2953399975639738, -0.6892723133206228, -1.0045050866073115, 0.5067666077783186, 0.6421732042270487, -0.48392567543948345, -0.32968321554096214, 0.7323039153358748, 0.7878707113316827, -0.6589050928625066, -0.9969443991681135, -0.3856215548407349, 0.785301255660793, 0.2684529223657931, 0.2640965238119879, -0.8410586861136469, -0.08086903298932428, 0.15431630883105948, 0.42693756109970543, -0.7182866442503002, -0.6010510476073009, 1.1001125451063039, -0.7444652615782446, -0.351044647490971, 0.9594192445538339, 0.588003172722065, 0.9529215263692605, 0.6390617154337411, 0.5715654735117226, -0.2704352724323644, -0.10680235032355079, 0.7168947748534278, -0.09640514974765464, 1.2002233887715041, -0.4564256926822226, 0.5753866847525194, 0.6725119819413526, -0.13355424294236004, -0.4552914912774123, 0.10885587904998881, 0.08567654115048683, 0.892996599196323, 0.3022547820836402, -0.577626521795155, -0.4407171925140323, -0.2349912060095641, 0.2803927137527444, -0.7041494542906966, 0.45088423803666344, -0.8622309053118247, -0.2107413675709682, 0.610346390875111, -0.9314970954638817, 0.02793746764081169, -0.6708166619392195, 0.21279275105479634, -0.24861586322929136, 0.7175958100156785, -0.6823340059489703, 0.36604667180588757, 1.087538230675387, 0.44530330169450094, 0.8809842945457129, -0.3934135311727319, 0.6277773907449009, -0.12182965822181048, 0.7934467502714156, -0.3703697236543578, -0.24221042190540135, -0.12592702858822677, -1.1574068446008563, -0.16592128771031273, -0.5102493479266893, 0.34811711366597237, -0.9863046011584302], "cols": 1}, "weights": {"rows": 120, "data": [-0.35053380576424265, 0.001481686758491474, 0.8856854010676389, -0.43110790597868665, 0.08489641460097586, 0.68845575517121, 0.2009550731818388, -0.5873256999619227, -0.25094440319052813, 0.49589918269740996, -0.23619635478645673, -0.6709094841056851, -0.15350765986655834, -0.7786818515678273, -0.09216717955104081, 0.22846555996803009, 0.19006224603460886, 0.8500949962441018, 0.7110916304312964, 0.6357896994615269, -0.777674373895969, 0.5977999147559452, 0.4409663426062833, -0.42787386547902373, -0.9801506185601452, -0.6787339249677893, 0.39710576266663655, 0.6734428601588158, 0.14886904721860583, 0.6209711014870285, 0.12882752956352883, -0.039666951747454604, -0.48770284098900096, 0.22023630354878754, 0.8889145765944746, -0.15754115221913811, -0.6828400729632373, -0.9571694009385374, 0.11342852832633121, -0.5779582273919057, 0.06438328360603363, -0.6715051663681746, -0.6666316931109544, -0.8298799646417485, -0.30277892815204477, 0.8351291227074609, -0.30670897309528833, -0.7764950262882109, -0.27577464650545847, 0.4232457228875639, 0.4070764372215039, 0.11953422747585485, -0.3067523620892487, -0.8052158546760984, 0.17989129435859486, -0.038127604094458034, -0.11165519554086178, -0.7202675811499757, 0.9640791543061336, 0.53475960088052, 0.3817031792230059, -0.2519565449970911, -0.8149545271185681, 0.18367026569376055, 0.1909591845827865, 0.09148453067281892, 0.8638553805624656, 0.16050120411745894, -0.3520164730979316, 0.7779582556512945, 0.9815280885237421, 0.42736353632846913, 0.5648611509206332, 0.48542400502872196, -0.904716782007142, -0.5611637222463497, -0.6846495310613756, 0.8756985782744695, 0.6687081243151396, 0.5842623942323277, 0.949661600267675, 0.4977294971351778, -0.270776272870052, 0.9909873510474714, 0.4786620115659732, 0.13869749071592885, -0.263801642193636, -0.437690794851614, 0.9476495791373121, -0.46285394335914054, 0.08019282409932482, 0.5678206767078833, 0.08706505795252228, -0.6368190727928196, 0.5514885700710206, 0.5368441112900082, 0.8520009468678751, 0.5827610499827092, 0.22414944764257383, -0.5725312885384426, 0.6652588701626998, 0.213643546076697, 0.22061300795511984, 0.6779832467461129, -0.6276512066206277, 0.7049411071967906, 0.643116396010611, 0.563845384763088, -0.4759514742263373, 0.4058459564973216, -0.13283030210314317, -0.6942829504663088, 0.5414288905421036, 0.014324258479995411, -0.9898404487362782, -0.17466772368749983, 0.90335301222499, 0.677664782104022, 0.8057443857733724, -0.07994410415917752, -0.31242045185883693, 0.8223034111659071, 0.8856234068701068, -0.24477339571216516, -0.926526956323573, -0.9314775059368099, 0.501139028214127, 0.6577207597591626, 0.2436556063636488, -0.8171143928351281, -0.9947702303398622, 0.4862533024627165, -0.8818393339508657, -0.24133586825471665, 0.8159580963980071, 0.8317847034611774, 0.28631799482294595, 0.583970465032192, 0.9581214715934783, -0.4989684982171514, -0.8688189505259047, -0.8417885142291917, 0.6086839634681231, -0.6930447501778036, -0.775910984979495, -0.8843495120167018, -0.4598718668783732, 0.14871512890772354, 0.788245144800092, 0.6226694166182969, -0.721460563584188, 0.2387062841097225, 0.34189686210415693, -0.9310677708525565, -0.16585611989517135, -0.5633719397696622, 0.9006276958863748, 0.4402731779186113, 0.8473996329615829, 0.1281908028467773, -0.07182607829237808, 0.1233600880605299, -0.7827797779886947, -0.9425023919782927, 0.5342336458280716, 0.6933460619967167, -0.5875272041903989, -0.3715151284000793, -0.5949604251303104, -0.9540937927909958, 0.9037204215378418, -0.7530358031596593, 0.017933038060391926, -0.8942616279704465, -0.24045613645491493, -0.8918739438304428, 0.46707131630904897, -0.07239909729053329, -0.6199382753678926, 0.7130274662239646, 0.4330092871134037, 0.7107502482768051, 0.7993049069893425, -0.9602070965226639, -0.49017740329274173, -0.4835639331034367, -0.5818864985816588, -0.02351411739564324, 0.08673650222049867, 0.1423509492764048, -0.026550452681112002, 0.15151558393089704, 0.627598238155247, -0.5750737670359125, -0.6973464723116507, -0.6028446552270148, 0.10894101603353312, 0.3645082808376152, -0.7186159897527875, 0.3909365286311419, -0.5644155278907486, 0.6335056392298488, -0.8580047003227416, -0.7269773973444169, 0.17536367169942024, -0.7879418937817775, 0.4435283554988154, 0.8322997563091705, 0.1471357289284334, 0.5351644564400646, 0.30236522727693527, 0.3498381090361802, -0.8380880431052331, 0.8514398430833257, -0.14742040556849267, 0.24624847648925852, 0.8075084681446734, -0.6121384358863442, -0.4389472840847486, 0.6604317761124219, -0.3718584390043047, -0.3156811599171203, -0.520110343022337, -0.6460707015233447, -0.9296204097726735, -0.8200127064756435, 0.5364745292546704, 0.8237046206196577, -0.9974646227377284, -0.4394950865118943, -0.9157253265242253, -0.6188662607835762, 0.9179502713831709, 0.3501431095281531, -0.6062762297770861, 0.83487062283137, 0.11150487761529737, 0.4333650006933134, 0.8570041845919565, -0.37136619278136274, -0.9743290920202585, -0.7034392005640053, -0.9930886388138824, -0.30539776715066647, 0.08397817985587563, -0.3430047686651809, 0.590664536385759, 0.719035102048112, -0.3449493079765886, 0.6227179843996669, -0.40602850166640625, 0.5804954000493543, 0.5591571268234297, 0.702268366675274, -0.4693338354244889, 0.7193980969148768, -0.6617060520436371, 0.3497841199734404, -0.8061950109106251, 0.212418573283637, -0.5901001831024684, -0.604006630822896, 0.4415107895333339, 0.9885532433261561, 0.09422953047929927, -0.30633873924180377, -0.06231866858456492, 0.5755268266902598, 0.08658438099002774, 0.563088652198656, -0.20742590882327616, 0.6977199487359282, 0.9947882249239541, 0.5944084539248948, -0.8748111355225858, 0.41861282782635545, 0.8931646099260084, 0.07939285339509539, -0.7164410164840729, -0.7154800226333129, 0.31190296993732436, -0.27734439452301207, 0.5980077878515537, -0.2958096828154442, 0.24834328615109835, 0.011284831386428218, 0.47283432444468043, -0.01370025464490321, 0.0653299963938554, -0.17670648905617847, -0.580595676648201, 0.021126775332031444, 0.9779272112190174, 0.5161837551454713, -0.3521268993104594, 0.8291237402048721, 0.7667696607991483, 0.2093439905858583, 0.9134823486513688, -0.4605796090959735, -0.8354568324112863, -0.4762326987106944, 0.4939679838908744, 0.9857120541035187, -0.3274871467646705, 0.19252007707556995, -0.4277249965901835, -0.6521095268489066, 0.549955332990488, 0.3487085119324871, -0.0865765071572886, -0.6143538011631089, 0.44438550124386245, -0.4694685987484941, 0.9573207259595762, 0.9471365497813413, 0.6004444025844018, 0.6826201388670761, -0.806726272043014, 0.003934401958273437, 0.7324347571475983, -0.8553582032857295, -0.927559656520876, -0.965076476736474, 0.26147275990090196, 0.5071037398770103, 0.02560318501509395, 0.8449803471419481, -0.2620717743244944, -0.37897601596518105, -0.3136565519772174, 0.9550287854946016, 0.6488952293253405, 0.8022839264070492, 0.5984212778937361, -0.1934821994557241, 0.4411271273722073, 0.6154238679262085, -0.94706613348378, -0.9320923474551883, -0.890981678864994, 0.8240464177987983, 0.5455382411258105, 0.6299170624663379, 0.9666224622480775, -0.03357968092126873, -0.3566046695066336, -0.4725202007209459, 0.06084165588129653, 0.769496572048119, -0.6010405324660286, 0.7223495554240715, 0.17011848287800313, -0.7859790595630136, -0.5738543308377786, -0.7890666523594594, 0.8960847598190322, -0.1184045430575631, 0.22538830912261743, 0.6196542787183361, -0.7276343279632742, -0.6277027012598451, -0.018959403926258833, -0.8275198363319993, 0.6814460772116935, 0.5650264805392009, 0.01334266725340183, 0.60177354648058, -0.17574319466537003, -0.25409809961736407, -0.5451149923313621, -0.61546882394517, 0.027997213965895273, 0.778805371639147, 0.5469954564201978, 0.7481646568056208, -0.9671665353136394, 0.8302495938145333, -0.10898075461240353, -0.8924575063870408, -0.4149478040947656, 0.029553129148097268, 0.5876983869017092, -0.8091484482202704, -0.2527420427759899, 0.2129075475236435, -0.9560122758946268, -0.5650222358562926, 0.5250803441719136, -0.8316038735177593, 0.10448045432847475, -0.15297992914088354, -0.6990253478386717, 0.5021194924623009, -0.5755845391658474, 0.42431633997348617, 0.502625479729758, 0.18487928585380642, 0.5537801584143545, -0.7768681203644097, -0.21361123871399457, -0.6787793462138487, -0.9482342198769502, -0.043502656276249496, -0.340484033454334, -0.12018700729280618, -0.05960566162331182, -0.9037223894200976, 0.7365731046239312, -0.27930215589249374, -0.06461034401522103, -0.12576854533938597, 0.3371430334829295, 0.0963546105784141, 0.6313724594038237, -0.28412844825067785, 0.9969566405414003, 0.7192033617414855, -0.17033196167467612, -0.8610456696173736, 0.07423617756332668, 0.639519797775616, 0.41667572784330353, 0.17782398982732972, -0.5981058153069461, 0.3158675982535626, 0.32239805860792625, -0.44348087369077804, -0.645160584143772, 0.6937824448523708, 0.4777313887499195, 0.5340853057434676, -0.312027222617032, -0.28132945275436594, 0.27377281781633966, -0.5790503318768889, 0.025402277039367815, -0.771232113600423, -0.6133055424963538, -0.2295859765481889, 0.012197821091408878, 0.5939593095040765, -0.11666961610035997, -0.19595567849275675, -0.8651977681555749, -0.3046086840883073, 0.7291853798896024, 0.8085408635882321, -0.5206294962137068, 0.6733709310600322, -0.2297395299181484, -0.3147003715255372, 0.10605725811082212, 0.5591989855792598, -0.03531699517391229, -0.7555571357326991, -0.6471316602693291, 0.03289180694264471, -0.6046088482462542, -0.29726487977210114, -0.7127166254975892, -0.20349349492111757, 0.24659170377453044, -0.9395996345896103, -0.7378556051730798, -0.2821043641835739, 0.3280335700179513, -0.5322217860622847, 0.588566028628537, -0.03194457175366128, 0.0018736523641975644, -0.949279762599349, 0.3695159192643189, 0.20005752286881395, 0.9662542810446846, -0.6715659969256758, -0.5129714383866006, 0.40794033268046226, 0.09013046535176072, -0.9595887284290121, 0.7740125577659307, -0.38697513506061454, 0.38843991343196094, 0.14600760259784118, -0.12177808900583265, -0.2723254562698587, -0.04347652183182693, -0.7956476804730257, -0.4525962868328073, -0.06397500126399502, 0.9855684399937761, -0.5275732168393863, -0.1263535488584584, 0.12357795816115402, -0.4352239827605211, 0.5149271057914935, 0.858553944346355, -0.09295705461202952, -0.8758405279242722, -0.3048366601007444, 0.6166626832396025, -0.5938512710783153, -0.3129745750758502, 0.36695306332050803, 0.08205479366281683, -0.6585423264498612, -0.41815727463394275, -0.9037199727435327, 0.848994669190912, 0.10056466678152001, 0.03557800418357604, -0.05081000687513531, 0.9321942955082096, 0.0022915529709188753, -0.9364770178105377, -0.24605101085065728, -0.3312541569800618, 0.8398694232495421, 0.21785057679655928, -0.8171360543376824, 0.8459397003834113, 0.43805167497248343, 0.7555367975546958, -0.8231218629439725, 0.38265529807314635, -0.7623129132558928, 0.6526813311550628, -0.858049234783677, 0.5705448832950302, -0.08928897779448475, -0.960271931687942, -0.08265622129495531, 0.8674185927884508, 0.08872669080880025, -0.2809300197680862, -0.9234649437444786, 0.2079981143750571, 0.9972111637642658, -0.40698437199929316, 0.38840789028884704, 0.39462009195428416, 0.2645274280112513, -0.8711455207126584, -0.7397128945806963, 0.4924677666682893, -0.4614729104834179, 0.14835283810197253, -0.7143117678602484, 0.29515459858979254, -0.8932494258001031, -0.5344396151903776, -0.24176816516002297, 0.9145992316506499, -0.8543081045496477, -0.8618899431765157, -0.13162123742156995, 0.6601095290345325, -0.1287946003806626, 0.5509064756911239, -0.3980104566767062, 0.16901847125606917, -0.7606377389295187, 0.2581257300260502, 0.4958641851128831, 0.3286200434365043, -0.6191690149722031, 0.5852598378367535, 0.9410052969752947, -0.12768703355734012, -0.3298245922675518, -0.4750077409729556, -0.4116423426176896, 0.5195115257946532, 0.37694449431518984, -0.5939712455571109, 0.7626018849029943, 0.30431073023371336, 0.9560818508546873, -0.21073194533605832, 0.2919383868201497, -0.9867261870073887, -0.020683282322002672, -0.17162471668183743, -0.36320833718340007, -0.4396636671756222, -0.91497021371912, -0.5606927575752823, 0.3072130042278274, 0.832134112360635, -0.8142499881212406, -0.07911733101976015, 0.18453953887987873, 0.9497810948263536, 0.8094025283831856, -0.9543673212879487, 0.6243998689349537, -0.2560008401666689, 0.12192092343329475, 0.5661507854343111, -0.03704506318887191, -0.6181333860420315, -0.5610198009493113, 0.23082831894777378, -0.15716974199557954, 0.02769797236084015, -0.5387927578704095, -0.5770653214979673, -0.8140775730415228, -0.22032953467348526, -0.21327465243247778, -0.8704837714798344, -0.12936588357204082, -0.7139622584317238, 0.7956022552675148, 0.5061058644457941, 0.852484501855937, 0.7523685268933726, -0.0593890055997206, -0.7782823658075686, -0.444432408945292, -0.03970137296140863, 0.5147655207643578, 0.17548412043536632, 0.8123214435278678, 0.669418089676032, 0.5744098085491449, -0.9838144038950538, -0.07807611795200975, 0.06441979421450283, 0.1797958225758194, 0.28164849076172116, 0.5119832235724338, 0.04229439700395865, -0.6763216677846748, -0.6727700339214839, -0.12463245523605937, 0.08674286202522286, 0.6129011935141866, -0.290832131225923, -0.665639996543341, 0.14156820635249545, 0.5544770030123336, 0.9592486737053718, -0.8748813149163919, -0.3673535601372375, 0.7297852797433257, 0.2765959139206833, -0.772341234801116, 0.8198948130562078, -0.3061512025617563, 0.6931595373361645, -0.7538349387796219, 0.5734534258539641, 0.4905781500245354, 0.5254252578524241, 0.29196733329184066, 0.8045465857898169, 0.8338439369926858, 0.0702535689822299, -0.1359917017272092, 0.8345417516644174, -0.8442999564283824, -0.6872199129295031, 0.9317398560503038, -0.5080239530815898, 0.817267826070925, -0.13652956601831123, 0.20466971137550805, -0.9852665389048494, 0.9023399785598372, -0.11510182023437943, 0.8212444436693691, -0.026376210605986605, 0.5871699326921054, 0.27431230252481553, 0.83283714282519, -0.7634562121524258, 0.07727638767694045, 0.42695444987337394, -0.049791654912016314, -0.8011097409633614, -0.8742207763439203, -0.2209250297102885, 0.0907852354134231, 0.7985838302553809, -0.15486713070211056, 0.8105593561055924, -0.3681363375144602, -0.08336440211110396, 0.2070440769419961, -0.4941733683053542, 0.492875832003979, 0.828880018815116, 0.2974005166993914, -0.2255223406007798, -0.72749048006027, -0.8699729050830971, 0.604575361406753, -0.7351232729040531, -0.5353875458984856, 0.07761425717532222, -0.6518602906326831, -0.5765800409578257, -0.5733315728889781, -0.7291109708701025, 0.7505257661931839, -0.09908990410926699, -0.5619783327294305, 0.8859107078252848, 0.2259788041424442, -0.2615291424842834, 0.48848184408636475, 0.05519888874004186, 0.39843309004947125, 0.9334717368072529, -0.5929648079877465, 0.9846570776614711, -0.11054536050768893, 0.9422915687632021, -0.43789749355611574, 0.5688657423021501, 0.9983605506301352, -0.9020061572240834, -0.32956815892409486, -0.26836961279141813, -0.7151603139444616, 0.8629143665291403, -0.9350217739757436, -0.9274185277489202, -0.7916465887252351, 0.2816423302595239, 0.07735479455814076, -0.43605491586322276, -0.21117272681141142, -0.6872100611827967, 0.4387859767507887, -0.7186314117258676, -0.1968070064641716, -0.4935514339251892, -0.09564804532731253, -0.9093686647277834, -0.23699269892153363, 0.8892627490334573, -0.5487590667951388, -0.6209569097298668, 0.12902238610367878, 0.5514741425164851, 0.5327904783222956, 0.05406405543461501, 0.01745256044680299, -0.8218460316606053, 0.7192257154563517, -0.2722718968143254, -0.31153322816600704, 0.3166800420224294, 0.5250759795286721, -0.9548795174232669, 0.48404629325981907, -0.000536943720188976, -0.8190955316946009, 0.7028670262502537, 0.5420891018548475, 0.7967732820243669, 0.3454387034197741, -0.951181910910819, 0.7064061909714399, 0.8068182480013284, 0.6544675926054475, -0.5084144745702674, 0.1657507834361629, 0.4573650546407013, -0.4279901321658526, 0.33355676192893946, -0.054053636199016486, 0.3292584830469163, 0.6549501007834602, 0.6589848891196444, -0.6609351500069136, 0.6144947962666327, 0.6670114292791658, 0.8235783738662129, -0.8391803050247606, 0.1796148990263461, 0.5286921124666193, -0.27986951940302074, -0.08851603900635885, -0.1541290356191769, 0.4615361685138848, 0.8875334231809289, -0.2734339057360766, 0.8821251527084428, -0.9129541851706535, 0.42735099686761013, -0.8639941235946671, -0.5286772220498799, 0.11633786418725167, 0.2037144248523337, 0.1318956300543832, 0.40606464391563635, -0.14769667391483132, 0.9044275421305239, 0.6478135940933842, -0.8853421466200708, 0.9920443720302436, -0.5095243246407444, 0.7084710963622529, -0.8922381822565317, -0.3798139754209935, -0.08767924727079746, 0.8485233374791836, -0.33716650957677285, 0.19075718830071575, -0.8382284990152034, 0.5516558368897404, -0.7575129893368264, -0.39724253418998146, 0.7720241779251222, 0.3319170025921445, -0.6321569027592586, -0.408249915957136, 0.37529123055279046, 0.7698714168196483, -0.751338140929326, 0.2977588683806014, 0.07703349381813118, -0.22850052890622585, -0.4500578091195304, 0.8504302499670535, -0.6991442392397214, -0.7717565569519533, 0.6933011013885524, 0.39062552990329613, 0.7996898713486786, -0.1258610808677585, 0.02515903193884994, 0.6496429286997232, -0.13908203658526386, 0.21773695344673305, 0.26969185048587896, 0.574005270683837, 0.8687089626755786, -0.6514961061535773, 0.6730567857447296, 0.6948827363491155, 0.1454083396609367, -0.8870932367908129, 0.5050066666919277, 0.333488097456313, -0.9578532243979809, 0.16368264104078478, -0.9985623933503072, -0.2138105585732979, 0.2304740708698485, -0.11451041760651659, 0.9148961291076847, -0.9418680736589207, 0.779079304591485, -0.5584619528986925, -0.6462061937229369, 0.6251454960624598, 0.09625296677722384, 0.6299914559188939, 0.18811000104861897, -0.48985101630701156, 0.44083818839374267, 0.14055560180611293, -0.6814835376469273, 0.7594911769797994, 0.6718217497027432, -0.8478930691053517, -0.16146129152513367, -0.3137364315011073, -0.4071145164582908, -0.7470614750595705, -0.70921978488436, 0.841410781661063, -0.4696156350925196, 0.09763489019523286, -0.6009715904901836, 0.8523293916950583, 0.3667885021925632, 0.6484694619073168, 0.5497221564738692, -0.8580495129040986, -0.23651303192540962, -0.21822470312409603, -0.8310888466226727, 0.03752128467411198, -0.6023836026830134, -0.06622284560859937, 0.5673578855185022, 0.6486338783971313, -0.9654304457872522, -0.5295134364872525, 0.2582745945217173, 0.06570943537843843, -0.4942045045539478, 0.5935278838125544, 0.9120662620156978, 0.4670720406933919, 0.680435600325896, 0.567354703750385, -0.10660472524284326, 0.11518556650570755, -0.47112479232200233, -0.1991274290830103, -0.24455214953369997, -0.9180674539293769, -0.9216177706711963, 0.5342231807630746, -0.5657368108666836, 0.9405387576858275, 0.6902394494295072, -0.6176441908944237, -0.36963675647112115, -0.15831878330294313, 0.11082899657044631, -0.7918679531795239, -0.02017135723429231, 0.9187654664107308, 0.15194702416291994, 0.8186057696891178, 0.6866455322159044, 0.5805725125502275, 0.6558110655037899, 0.9019174374059888, -0.564727169735757, -0.7528839090832342, 0.12055824169055418, -0.48932062677991217, -0.7408600939219303, 0.639988411430723, 0.21755699197193468, 0.7154741483446472, 0.017482150221509007, 0.3294492668579405, -0.015619006260509938, 0.9841790293487054, -0.5237043734066458, -0.3452084086698053, 0.7387018575915583, 0.03994815841283628, 0.11337800556280708, -0.1307791521018824, -0.3519492520215679, -0.243077227381977, 0.635574922615525, 0.48342279780716435, 0.827543998237313, -0.9971813871129949, 0.6439072270870518, 0.950481067120803, -0.2685064265433039, 0.48232810502049817, -0.2025626608661466, 0.4740071339254468, -0.9431351435622217, 0.1001923873498285, -0.9813766247528053, -0.379266672298608, 0.5870353374134605, 0.6519405539027601, 0.7955286719242818, -0.3640159937327203, -0.1079098021808309, -0.984487140787148, -0.19412221639964566, 0.022176235052506543, 0.03413195242390943, 0.9828767746500178, -0.5142263799275382, -0.0712624336318719, -0.3363166955677521, -0.07028745691214877, -0.5941016423049428, -0.035175236130308374, -0.43946000757505743, -0.08929935364200814, 0.35281360189248967, -0.5732078815904338, -0.34417192951516995, -0.6231167370195279, -0.04170240716688278, -0.050356444851439974, -0.2357096440406159, -0.7087679946923877, -0.23203978458362395, -0.9765162677983359, -0.11122917931811638, 0.5686011208007706, 0.2846582187461897, -0.3115476351737929, -0.9484405375954441, 0.15096275367370104, -0.1056613499161081, -0.5477429332565622, -0.6819601043117192, -0.05646810263727797, -0.6584959986240648, 0.19098116361427242, 0.14150381497277964, -0.46771448262369564, -0.8623226827737644, 0.041729586181213474, -0.767450891587351, 0.9256493559099561, 0.4754669053303664, -0.927269109574933, 0.24526873819247563, -0.8412198654388823, 0.5350244485309699, -0.44743302847593336, 0.7892806368792744, 0.06027219373745463, -0.39512855382756285, 0.11121230850936104, -0.2984372480311255, -0.19379197062104425, -0.10020812631058407, -0.32645265803077383, 0.7903073449775333, 0.2813098886279486, 0.4854230053525681, 0.8217399503853946, -0.43147462022288385, -0.9013510615308484, -0.06744385016153642, 0.8172720652232055, 0.6016914651257002, 0.03842241591294604, 0.7746273391023211, 0.3547240749101124, 0.9342675331020363, -0.4685119050096729, 0.6438371695961378, 0.9129613707956474, 0.2440717826119645, 0.8741359316784756, -0.7622627026786006, 0.21556431360103345, -0.9946067416427762, -0.9402557502128384, 0.04178755141336277, -0.9952395584125961, 0.19724849084667406, 0.5291811196316494, -0.025855452333472195, 0.8261796117120561, -0.8322821238297775, 0.8633064935537706, 0.7090267668291479, -0.0997308023321315, -0.08078452966226912, -0.17770242974536532, -0.6847100255031946, -0.31801977066936726, -0.5082837010922094, -0.4845801041841389, 0.5340165499188576, 0.2596409470118004, 0.6333833831465505, -0.2512963744148262, 0.4166187968867683, -0.22227640277666083, 0.6386918257892489, -0.6481138625826692, 0.683370181421018, 0.8504134960111429, 0.7496290943020798, 0.5815980367273665, 0.814748738510944, 0.4369180310495733, -0.09535548907818958, 0.7199930148519582, 0.7249688725579746, 0.40270052285471314, 0.8778650932322414, -0.9184879109060207, -0.9261105332223967, -0.17209725056400282, -0.06254279668125884, 0.6544362397171728, -0.2957808185141795, -0.11494131674342012, -0.9366094738796034, -0.36165270403625693, -0.9307801843599217, -0.14419535746431444, 0.5273843595574754, 0.02040839144979434, 0.7635567330633826, -0.8362783486167404, 0.1882749907722956, -0.7051324558045633, 0.599986855914155, -0.8860417090660127, 0.7334686728147422, 0.9224725699807941, -0.33936435102776796, 0.29608823988283484, -0.5611476894919227, 0.42043025699726844, -0.012841986730013728, 0.26624956952019696, 0.10124083651994686, 0.06405289134727865, -0.510822401896829, 0.7453251219997141, -0.8667909487790557, -0.08552013995057672, 0.9937390644517639, 0.5389563736388538, 0.4968299982309001, -0.23389668903210392, 0.7605125915866984, 0.9709486594625012, 0.6997508287886351, -0.11988296912330565, 0.7284008223014806, 0.4373925558953258, -0.7831699659145808, 0.42497219873682934, 0.6432785077342498, 0.25931957699781116, 0.24234211471314127, 0.9139128781868613, 0.3028875891302951, -0.2515625728555211, -0.45439629679701987, 0.2405038348273436, 0.9268192921637117, -0.68944545104702, -0.3141353386499377, -0.8203139031030031, -0.6519130676729414, 0.3988124523262111, -0.7542848424464101, 0.6384179833943948, 0.9382959029799083, -0.6982154462472967, -0.6436850602243345, 0.9404127555500341, -0.5225091137484073, 0.6140219481953122, 0.33359248639064987, 0.5630628142474421, -0.30924738033553556, 0.015029046946162694, 0.8576935257317735, -0.28040380235422946, 0.3258200921419707, -0.508366214998514, -0.38212745126680603, 0.5446645964889845, -0.2153562982852395, 0.386964534811266, -0.1264725885970377, -0.29823535434310267, -0.6855788251671298, -0.5424459964868096, 0.716989302189279, 0.3585421503283215, 0.42679430984596145, -0.8810723411168446, -0.5299335904403908, -0.11712369842139347, 0.8760406401596519, -0.7226262654171658, 0.16405495520652114, -0.48441741813988615, -0.35612843727650345, 0.19134685480913638, 0.3848762823687568, 0.6972230347161712, 0.39886978103898674, 0.32775431933206756, -0.44356994767572555, -0.05905741192502578, 0.1622876579578043, 0.5754219338287903, -0.3952577107529116, -0.2514980246899816, 0.6677837694241866, 0.5325294020192404, 0.9811115878463217, 0.8471427965738338, 0.6531372996138507, 0.8039995010792855, 0.6207967105464147, 0.7811771522282509, 0.9726683614134224, -0.14564801806861838, -0.8311353614537893, -0.10328069491947867, -0.4266255726359376, 0.24654105135053794, -0.7118462550437399, -0.369983063549268, 0.18642465179751988, -0.008983516289736704, -134.04633731688844, -4.962541647214103, -166.36554506784964, -85.44838263279676, -72.24460524422126, -40.607567925516335, 0.36595127889800816, 0.9165607510063749, -0.7491400725087609, -0.9268120635353454, 0.7251412329390305, -0.6572476964559537, -0.3791455731014637, 0.8468442932203555, 0.7562128153868177, 0.6026112003203512, 0.7766140323077466, -0.2659742686233486, -0.934998722598199, 0.958043895025634, 0.3481201376934726, 0.5850824802606038, 0.8466164423411227, 0.4051203449466243, 0.35337581358610515, -0.30308214000565004, 0.16394672932802679, 0.09006492475151795, 0.48662554684917136, 0.2502184497519284, -0.01559872506851967, -0.8172172244687179, 0.960769284909311, 0.17899943390526252, 0.08546264384950053, -0.9683167186139288, 0.1408556347747092, 0.8714793638431513, -0.08278648174685133, -0.0668797215655812, 0.5671030968231856, 0.9293838575018945, 0.9440720143791055, 0.9869888436996073, 0.29571802783629897, 0.9124680606466795, 0.9036243536639468, -0.5760381238675834, -0.6281411314921821, 0.9456190922560699, 0.26700211657048234, 0.02799685391468243, 0.17865052703889073, -0.055995879110896096, -0.6329997063224719, -0.5812477439224764, 0.6256655459619225, 0.47687091236288315, -0.04120927335696778, -0.06237314487657053, 0.6752262786534078, 0.9628021546490291, 0.8079525019198583, 0.744080662169128, 0.7197323148460018, -0.8886918692773238, 0.07609323229709797, 0.40204350301519054, -0.9209108702770825, -5.481369919979606e-05, -0.2210685504406289, -0.5484767046797547, -0.8174783185472401, -0.9675346537494818, 0.274170412408858, 0.21994353429953684, -0.941902262579037, 0.4728071976232928, -0.7738638002179201, -0.5637733473302105, 0.8612492709768047, -0.3454693239533495, -0.735366755947378, -0.6402191025323445, 0.10282275367075555, 0.15378205874512507, -0.6807080784722044, 0.9773142890200126, 0.19742984769975402, -0.12375015473943063, -0.23428258946510905, 0.645549094811924, -0.027727273938816133, -0.7523321339164097, 0.9756376337221091, -0.6064901253674111, 0.5787455431287776, 0.259820259174421, -0.42650500766251453, -0.3631682546177588, 0.5743622964548634, 0.7147604463514317, 0.9371777228644933, -0.7024130008625815, 0.6094887962071158, 0.4018834967825231, 0.2254999701695366, -0.6728929898600373, -0.47789145410888545, 0.4083399539423678, 0.9686072688645324, 0.22081275027210534, 0.8222710965670017, 0.8599765482952666, 0.8139811172232707, 0.01538665639428105, 0.860174753191099, -0.7949514349600197, -0.25629634480487073, -0.8031262166832362, -0.728581016694051, 0.5640871894728761, 0.765498461763739, 0.28304358969994836, 0.8423673920265531, 0.6442944648512952, 0.8006123280718476, -0.9192489065489511, -0.9172329760800662, -0.478974652194331, -0.660382923041781, -0.08612371803113694, 0.3799243149290923, -0.845305289159126, 0.0401433347925082, -0.47340288646994577, 0.11149464896391525, 0.1182111147905438, -0.01985701793151584, -0.553402637771774, 0.13458702906855358, -0.9956724250042586, -0.702266941210379, -0.9842329429376859, -0.539058662004344, 0.5559457913632857, 0.7918554757001286, 0.9661446162694511, -0.42164899174195836, -0.36907319103193714, 0.2644861692212135, -0.9001624584382741, -0.4970716407750835, 0.21002734060667239, -0.5027730762893206, -0.4360559568096456, -0.20974270043342136, 0.6844481304312655, 0.1147231101108186, -0.3981319874078999, 0.01198898511526214, -0.20029915342564864, -0.8742291434217129, 0.7165787458086263, -0.8937596480662453, 0.35869113038521094, -0.9897193634292294, 0.18027071696141528, 0.22137669524266146, 0.14375990937096428, -0.1477613866946348, -0.24853595379884075, 0.4889609567453237, 0.13745329250173866, 0.5413455030254504, -0.3266418612219828, -0.4556722412824252, -0.8322927685832899, 0.7208332682559151, -0.34634977557404967, 0.6070648945291728, -0.9826000695959325, 0.3647613324317116, -0.3787305870258548, -0.19191992894644172, -0.6935018504324975, 0.035884690999415714, -0.10070023544223594, -0.2771622966873508, -0.33639822291016364, -0.24268684283289566, 0.10498161006967499, 0.18809186305736736, -0.6008265144017975, -0.9180963334182071, -0.553855231305995, -0.7261610927606232, 0.34015770498036524, 0.27166266713664156, -0.6838311795558618, 0.645366632750781, -0.9646840301526136, -0.753315251445198, 0.8308919763567559, -0.5424448414862351, -0.6328481682192153, -0.09906574249576505, -0.3360009442806813, 0.6228467661221933, -0.616001130781429, -0.3178659684532872, 0.9926665276113045, -0.16750954669594376, -0.9281717217429317, -0.05094572717942625, -0.16488910301084614, 0.3026046248325953, 0.8505833420322482, 0.05471379109103558, 0.06014908235133465, -0.23023522283107428, -0.6345006105120752, 0.3298030305176441, 0.9895514084529767, 0.6758306019167916, 0.22651801905602129, 0.394948791458459, 0.9870146410070468, -0.54621083020743, 0.8129309969340954, -0.963976570665797, -0.46400626909532705, 0.47209750601376355, 0.033272553562078366, 0.48738613811376563, -0.6382274700100106, 0.8868473691832299, 0.40061993926563955, -0.40366069617293854, 0.6113553811443722, 0.981017169422733, 0.1861450191258638, 0.6685060954857005, 0.5922676952787518, -0.2122645156485885, 0.7098041378347233, -0.702889422202676, -0.1775503773192486, 0.16453976399641235, -0.06703531480288571, 0.8839964531040423, 0.9777064099833328, 0.0030489153568573624, -0.04489760087739958, 0.5933148547039424, -0.19041088902979686, 0.6993121405004907, -0.5066288649452988, -0.6002130558399723, 0.45320344152501324, -0.8318187526600508, -0.11357570714522142, -0.5729685507742825, -0.16969490874834056, 0.2910401235243818, -0.5798973144167815, 0.18869948489170096, -0.5410490408861459, 0.7899202666476617, -0.8720646621513909, 0.917024439546944, -0.5882126778695873, 0.40568513843738635, 0.40738627980638514, -0.8663217379137431, -0.4986014887720709, -0.17215493612942745, 0.2178917298258376, -0.021288390308304317, 0.3169302911921259, -0.4581089888662573, 0.546676068133388, 0.30521791013503297, 0.14121556136905689, 0.7208850808337324, -0.5384030529111501, -0.431484812089566, 0.6905472043309444, -0.5945815851132132, -0.8176232194083672, -0.306534089749148, -0.9342088819603509, 0.05318074665835426, -0.19366218930143297, -0.25279143629940126, -0.9657674520711603, -0.49935460599728065, -0.3266889187857307, -0.4367184033709959, -0.33134572766369064, -0.13500151928104498, -0.5682457036225457, -0.7913373072293186, 0.6773522759262889, 0.7944461466363244, -0.19582018773170007, -0.4273205996860434, 0.20037249513470679, -0.3740421225329986, -0.1945892652921859, -0.10484894152596413, 0.6179069201955176, -0.9101378553044568, -0.20893555278492482, -0.8658658837858337, 0.3390134175085633, -0.9275119595246244, -0.09303902977452005, 0.9210980297699127, 0.8309150542760448, 0.47629743597300744, -0.35057238916330435, 0.07106581978049586, -0.15152510111277406, 0.0333414756779864, 0.6171071324138195, 0.6302368750992926, 0.339039223254203, 0.7158735838733854, -0.861260631357398, -0.43216858696192384, -0.7769608480263537, -0.17557473064779705, -0.5732650937438217, 0.7246472400294715, -0.1402629989611126, -0.6568823068148681, -0.1227850415707048, -0.5078819575717004, -0.43146018988286206, -0.16255888907061422, -0.9159874047320027, 0.36199806546294866, 0.644546422534737, -0.6579254714887759, 0.36407550470046135, 0.7018385681112205, 0.6077740154340341, 0.656986094952059, 0.32199440836888527, 0.49634200719197663, -0.46184266336449187, 0.8943282962797441, -0.4948168055572506, 0.5042102953343108, -0.3359003195319268, 0.5055540506405065, -0.6891972327283611, -0.034379176640211284, -0.5674831048120881, 0.35852364720685603, -0.8872356800316539, 0.7214429054552132, -0.792873180850828, 0.14349563858781278, -0.6389917494845652, 0.08372518672027573, -0.42159247610354034, -0.8768937290931862, 0.2043480023216082, -0.37414433865996255, -0.3514322386346289, -0.18003026638426523, -0.4207823052066082, 0.46559869040737367, -0.5436537927339566, 0.44150220992519795, 0.10025570080788437, 0.547144249827175, 0.4688985983990286, 0.038869300517727634, 0.48477296380352963, 0.9955358680462354, -0.49468095373386656, -0.09601640496935593, 0.1778747618854235, 0.07657875367370859, -0.9552554164605589, -0.9370165341817831, 0.8107201690275274, 0.2562099626194241, 0.37283806907714645, 0.6846814182337333, -0.6920922307633033, 0.8780632452479857, 0.2980621668936645, 0.44062977404415027, 0.3437505776506804, -0.9174909420174273, 0.11672727023074958, 0.1801290877230548, -0.006696763588041721, -0.12496627100762225, 0.9203566769782925, 0.6770920318578477, -0.655664097490751, 0.6097568128040194, 0.4109595291138304, -0.23312599745177742, -0.8526698945729689, 0.13233472010537217, 0.8065569718425716, 0.545794871187486, -0.997039250646722, 0.6872167726425553, -0.5585930368233949, 0.09477165622373218, -0.33148739530692994, 0.7054135995060657, 0.8302703755127865, -0.1226510241595049, -0.41379545496894354, -0.41417374231094106, 0.940213295110248, -0.8487973875723673, 0.46167803365782123, 0.19585626076189167, 0.8448057280899981, 0.049427580688302886, 0.8371942320240549, -0.8472570274029669, -0.6751752913444391, 0.012912455277418022, 0.843881642623354, -0.698667430176596, 0.7043127757548495, 0.17984042995811378, 0.5639051742282482, -0.5498027261089462, 0.9415139330272695, 0.1132955562603386, 0.9748649980444819, 0.7675459649997531, 0.32312272952868626, 0.20639978812292514, 0.04485628732048297, 0.3443937374404564, -0.6703638402025645, 0.3376440933164533, 0.6202047217118385, -0.3153696679031899, 0.4617893700355915, 0.7443946759986255, 0.30299000884353644, -0.6813739337285198, 0.1773659825223899, -0.4370618410812206, 0.1736028460881891, -0.9015578400093578, -0.3016301548601059, -0.10103230970795796, -0.49750935627245885, 0.6384984481349634, -0.875129844518856, -0.71774214998183, 0.7992996484810555, 0.7771309426027508, -0.22064114027876203, 0.117372897017326, -0.12366904939216217, 0.5325684516655875, 0.6415562488732027, 0.7583448509693902, -0.19905270265269226, -0.659659339158742, 0.6963914143841432, 0.9443597299175881, 0.6686279947956595, -0.41775241312041755, 0.6851673581875803, 0.9571365037593873, -0.17225044853918114, -0.6985803565151769, 0.9253614269027657, 0.8331633601865558, 0.14330106923544972, 0.20789639274347493, 0.026647250412796142, -0.09643874814819742, -0.10536593479624412, -0.8434902109934448, 0.6092966054188884, 0.5750019180513102, 0.024453055911535237, -0.700600180425933, -0.6770238958262278, -0.1719123630620596, 0.30933109884789145, -0.7677687335737984, 0.6212346612867705, -0.583643982585146, 0.2148579321411892, 0.8139060453159763, -0.15715202543739815, 0.5396217210187875, 0.26242513205013185, 0.06282361838669037, -0.037097157248697554, 0.6824012921123443, -0.7712984865388219, -0.9190999245390568, 0.949451940091532, -0.07798854852139137, 0.23135010532904632, 0.12775994932400958, -0.5617794307312667, -0.022482454294000753, 0.36037463283654936, -0.13660964995506597, 0.32017414550593726, -0.021843414180398923, -0.34190462819119793, -0.04261991576319368, 0.13420982585165775, 0.6549837768007358, 0.7297119264607801, -0.7010910087566984, -0.7630359531875643, 0.6612167345019182, 0.33919691648303996, 0.4932886049560894, 0.8005905584909543, -0.9100901518522726, -0.5663379231551215, -0.1230671889760826, -0.11706806611123355, 0.022472925738080463, -0.2639970347211984, 0.6365665931368887, 0.012379078970601753, -0.665605403911067, 0.779507589283869, -0.17814101466648102, 0.5467361532902395, 0.557895858610786, -0.5159295583260601, 0.4643092177482486, -0.43588456203434145, 0.8951880923928959, 0.8702301088178628, 0.8437457725747601, -0.7030665344313025, -0.7242555822273693, -0.1957408493554944, -0.9755372433450216, -0.8993729821675034, -0.054096222852078935, -0.6390785805602079, -0.34927257916787235, 0.9323523380337533, -0.24543607638384346, 0.8134759842773596, 0.260124243025607, 0.6494769444627211, 0.30520297804259644, -0.717065610146824, 0.7041481682078428, 0.566639288144746, 0.33516937460795804, 0.9252711464234666, -0.3020089627427991, 0.46263179708604296, -0.964605197821383, 0.15697050902134335, -0.058765864065265516, -0.8664265770589799, 0.18589421327407174, -0.2648600675996342, -0.03301633702787887, 0.934651085598883, -0.46373649124206695, -0.5054023830024408, 0.37057779592492923, 0.9397424119219018, -0.5950832814972302, 0.5142537903005704, -0.17460742029383858, 0.21636565232995464, 0.969692889243644, 0.47665303797442626, -0.05213691658178776, 0.9902568379216665, 0.8425905146639157, -0.9911679280378105, -0.5437136637195426, 0.9862039408541208, 0.39811555612648486, -0.13809745400482054, 0.49737113628247753, -0.04597470726271702, -0.44883322767400746, -0.7085970952475216, 0.6445213601397801, 0.4028844238048974, -0.18197679134218592, 0.7766159894472426, -0.43259262564544887, -0.1593838750565122, 0.8376111292801196, 0.9395818654536248, -0.6316053429685946, 0.5968021812604607, 0.46201949612359505, 0.8306049926618948, -0.3029591743506115, -0.49242060681401867, -0.5696656583318482, 0.8385511880623089, 0.12189639440680966, 0.7442761148480412, 0.9006639814162836, -0.4287449234606522, 0.9414377929890043, 0.5760958626229389, -0.006819103047361663, -0.8186983494094386, -0.5265533187918481, -0.19910623668452043, -0.03308049529671919, -0.5117022137225644, 0.6097193933393028, 0.21685790526174453, 0.8949621352044757, -0.669450828877626, -0.29020147416506403, -0.8059259304610671, -0.4751289292010765, 0.5701109213256772, 0.5814369865453706, -0.6362231678552792, 0.31990956917747737, 0.639406321285759, -0.8238740604383383, 0.31989694557281045, -0.7442881540656838, 0.9675478019215529, 0.5483396975465864, 0.19739666172665093, 0.5282898221068069, 0.568168180296506, -0.5742027981748701, -0.6592741727358518, 0.5941112458567159, -0.5851435369218632, 0.09802534663360407, 0.29786649214759553, -0.16086571629059776, -0.12264738939961162, 0.6621228927447547, -0.5875671522180617, -0.768665548107617, -0.16708867662030147, -0.11396769012569608, 0.9931069652686413, -0.287524839147985, -0.7992246896124626, -0.14692334197034196, 0.7408358503450132, 0.6246804665629904, 0.06501276315681737, 0.5957973822053868, 0.7186433302783231, -0.04792788062082476, -0.569734285956756, 0.05087132813652717, 0.22244916544857474, 0.72653227484449, -0.39736721265138386, 0.9363441465193199, -0.8525531319867303, -0.5773966242562079, 0.2531720879848174, -0.14196715114020297, -0.38854358713607584, 0.5433288270079348, -0.7250463460135179, 0.5201668240602366, -0.12876606025343218, 0.22079467254449425, -0.7509568565588851, 0.08618292458486598, -0.4550589899988986, -0.0027763713868742546, -0.5730596061312503, 0.9446945689333652, 0.006538372282685945, -0.2921994081550139, 0.798521201064506, 0.7890427670725688, -0.0793036441043804, -0.951452116547244, 0.21749110064852717, 0.4258969335635219, -0.33965658530041476, -0.8343118050350931, -0.21841449885823438, 0.6811017714547736, 0.5911313101480229, 0.012750746568988003, -0.33262614062312146, -0.6110156135402296, -0.5562624397249198, -0.4880473627551787, 0.2927664274720434, -0.5897726298154151, -0.494411249727861, 0.4811484749896793, -0.08049915104493865, -0.18152898256797467, -0.5420148097396575, 0.10497875855086991, -0.41655033558599497, 0.00010296521711783413, 0.2176317700020638, -0.47778130240437666, -0.11923913991961044, -0.8751840674874762, 0.3030435985072637, -0.08850100016318718, 0.0970709651812025, 0.12078799919626904, 0.28291668470656783, -0.5738981147396349, -0.6021992467196522, 0.9274135181609617, 0.5268164104161359, 0.900416484893265, 0.8862365289867264, 0.4139219568898851, 0.7525043902743369, 0.0790453670483866, 0.14919422514746783, 0.36019125328699175, -0.874270136998919, -0.9621377424044553, 0.6190964435291637, -0.9955318268936153, -0.2781956638303622, -0.2929237018202102, -0.9489769435090614, -0.2608280207469351, 0.08222307005807772, -0.3980595395752582, 0.9246355725721009, 0.009432607554038297, -0.07256708849260574, -0.5883132388889052, 0.689752826725939, -0.8875040274591652, 0.4130498559394953, 357.4719101980046, 130.24337149654906, 247.9925488474158, 308.8140117066149, 308.96766915126227, 119.51640059520501, 6.965762816303856, 154.05247614776843, 267.0285211364656, 350.8273851111251, 315.227649878217, 73.85971378991759, 314.09750060928855, 277.06497306030826, -0.7841799269641414, 0.9117046997375222, 0.5735389119671641, -0.6215474784832677, 0.6866388673582502, 0.7338458341438137, 0.9377127288042686, -0.798962116997, -0.19950524762961885, 0.6160738756396302, -0.9700447230167553, -0.09042126564973296, -0.13628902128212594, 0.6443908141593, -0.32827093939538665, -0.7932341760189296, 0.6032950377376198, -0.29639245819532434, 0.9228123668241484, -0.8860351880561343, 0.8638390721272164, -0.10832558368260115, 0.19300448952590665, -0.1309670595431618, 0.6167810893606669, 0.5098503919155706, 0.12428580365514064, 0.6692046211049449, -0.6373795586681543, 0.8444419402875387, -0.9931471958158382, -0.047245484414729866, 0.4861325198141646, -0.032200069267614095, 0.0073042843134605295, 0.6598872213039453, 0.5061395697492104, -0.3291181869940125, -0.2946753514676326, 0.10134060144624657, 0.4616402176229155, 0.6700179202653458, 0.4694135079164794, 0.8850941812068414, 0.9093209166944773, -0.2170822568759081, 0.8723005923430049, -0.8335432443643576, -0.5399681609068483, 0.5122669222083143, 0.06738123882658242, 0.8372911170539283, 0.5573217618067174, 0.7616747099638765, -0.3902119503753818, 0.7796254402381546, 0.9847505348502774, 0.2843892134185475, -0.22369529408680777, 0.9699062701889292, -0.7770175321090627, -0.4286885870130426, 0.47197977272703007, 0.41539338156670214, -0.4181404221090248, 0.9180709760815711, 0.07918331995387984, 0.26783642847304123, -0.8593995838444599, 0.5536454741965977, 0.11230304350455977, 0.7476750971687407, -0.6419255378426663, 0.3586085880400436, -0.2561129819613357, 0.3385742417915769, -0.3486668152719177, -0.7137986552161892, -0.018777065138465332, 0.466667709496867, -0.04606918940235549, -0.8901010330884971, -0.2191691350071936, -0.6101207773898729, -0.17506774369039935, 0.682405425606714, -0.33161007107537266, -0.6238457399119104, 0.5167820522816202, -0.33638751127788913, 0.05186015865496851, 0.6204138160122679, -0.8877888618104275, -0.1123476680936688, -0.9372091469042076, 0.14542450076215951, 0.4098337868393014, 0.23364990361240157, 0.5613500357797756, 0.31851362380334103, 0.5876174722880869, 0.7838579737128533, -0.5016336893518913, 0.46551889280530534, 0.07264343453252042, 0.4975290039291844, -0.5470055329784191, 0.8307117134143012, -0.15893659381634606, 0.6822830553257311, -0.019106492058021726, 0.3903262565834338, -0.29742037793644327, -0.5064352735791053, -0.13551938876104108, -0.49216915126787564, 0.9378595609208584, -0.6540475370885346, 0.7686579782416756, 0.07618211152894072, 0.957477842003972, -0.12337440520857257, 0.41003577544558234, -0.7810701319454803, -0.692060488037666, -0.36657635017595913, -0.8892284609840033, -0.04000781768409367, 0.7695279860521891, -0.15239446149655578, 0.4805128662111229, 0.08684890277094448, -0.7565047236518709, -0.8506942437769964, 0.9029559216563308, 0.6828432982123367, -0.22469958993913441, 0.9060105508149452, 0.4648591620600797, -0.09007573146027736, -0.6460128784180694, -0.39351818693011187, 0.03557895418220025, 0.016246807374054262, 0.5521157440969413, 0.33521750775359216, 0.572809112499123, 0.8867105784272908, -0.4564282853537498, -0.2840152626914567, -0.06826863157419027, -0.5143969510862707, 0.04957080619320986, 0.8533447022573237, 0.8166092887944099, 0.6152237874472382, -0.6720951864593891, -0.9227587089953218, -0.75581224545704, -0.5113612459370009, 0.2099625879335183, -0.8678782118088195, 0.556161227117616, -0.8096008856594701, 0.13971621025379322, 0.6545371619118658, -0.6322951596740274, -0.1577841175298167, -0.12107927647042205, -0.30857912136668597, 0.6333241907639009, 0.06934975406851818, -0.9495243789969945, -0.0636536931159637, -0.7711113162767329, 0.8690987071971257, 0.36923608156566035, -0.6193187783345186, -0.6871607164001465, 0.6826625906985135, -0.8639156601322073, -0.41781520868960853, 0.17518941912181107, 0.8249352960800445, -0.03323803916130319, -0.8741757178528962, -0.674375527478611, 0.49102318593989747, -0.24211334948958418, -0.6765531300372196, -0.5367285186099497, 0.49074635395771815, -0.7692947587593415, 0.7877938820356423, -0.7638250367774491, 0.038238830897724174, -0.05557051367946886, -0.4148577623795753, 0.859834040600927, -0.8287082387115721, 0.3519479981100533, -0.4459100881414997, 0.6341017631743049, 0.01673716807028014, -0.6067136049974993, 0.8983731310047316, 0.14285153619708635, -0.3259898423092411, -0.6269784920319599, -0.8936336703206316, 0.1538395783522688, -0.46134138379983924, 0.07160969170419462, 0.2146429503829812, -0.6470135586108892, -0.6241575496686664, -0.49561049730289075, 0.5777411060007689, -0.787339348204187, 0.3808383169297507, -0.5570159235495433, 0.9707490293157539, -0.03391574535593955, -0.4984428564796981, -0.843005258733537, -0.21217081998103482, -0.005954660401695344, -0.12072522337518898, -0.14369355181420707, 0.47568747053009575, -0.19203230228590384, 0.604619631407465, 0.8458835207302797, 0.6147770995188537, 0.078712970899814, 0.8923694919367653, 0.4888005531873063, -0.06764433696526351, -0.7558250297673188, 0.1741941899939401, 0.8260467389438153, -0.7988048160485852, -0.8617361697823269, 0.9463767475703031, 0.6456256000988423, 0.7134325641389465, 0.2713566539015948, -0.5392050230266823, -0.8521782338313424, -0.7049209812875006, 0.814579682084686, 0.25183015652151086, 0.04657238867373703, 0.0027006606491193352, -0.7053433233735542, 0.30167395244280004, -0.561308740000239, -0.08113308023379462, -0.0729236216581095, 0.5003842993151209, 0.9527324758124929, -0.4548617284759624, -0.1598407328440925, -0.021669410366000452, 0.3140649303545717, -0.608542222596792, -0.11013870030487505, 0.5618942347868328, 0.2711714533968965, -0.3653902628281127, 0.7040931537399748, -0.9481578426706541, -0.6543348149595636, -0.17759539312730555, 0.11442658060368727, -0.5427791161583138, -0.0020767230460287944, -0.23202000813147805, 0.8047191784239105, -0.8155782247587278, -0.8018716785128042, 0.6897944845361088, -0.18641696338932645, 0.08687594586565162, 0.32001167353206483, -0.0958664548108481, 0.7122191239802169, -0.943902634820561, 0.77748855237403, 0.5939275259860812, 0.9405151556517934, 0.40326269197170017, -0.9296663213559277, -0.9575177694484116, 0.10703609748497689, 0.06691010208277248, 0.9879445181317696, -0.27021119785173187, 0.8570933786579089, 0.6206414570678513, -0.48118118095538587, -0.10934657107832368, 0.19482298327056768, -0.012022498884624477, -0.7745880729531331, 0.17508281651963786, -0.11122571368623158, -0.8021848000761074, -0.9501444375011339, -0.15477499963161856, 0.38601992312587363, 0.29528418354486385, -0.9196911659920652, 0.9316225989791713, -0.10273660719428457, 0.6383813211745464, -0.25208815095815384, -0.42505675066051474, -0.3648248270775647, 0.6438783247886459, -0.27886982433856455, -0.91419818668273, 0.3783266162283636, -0.2486472433148348, -0.6947009709540384, 0.9358433957329597, -0.39031155295395914, -0.10120592959360497, -0.40802214837776196, 0.8660440008144057, 0.26717104167774997, -0.9212453636677118, -0.4180460139757469, -0.6794748114398355, 0.9801903965583585, -0.27826840995377045, 0.9698421989416803, 0.23212198783636628, 0.9072482687511794, 0.18033571855704889, 0.05432139474712816, 0.04759421824194021, -0.23020570667095974, -0.1654965632965888, 0.3819436069524327, 0.0036392730417917907, -0.2570119211282966, 0.7840351084300645, 0.7880789886985364, 0.1319222462722407, 0.08520000162420449, -0.8896224506399069, -0.16348792184077854, -0.6904719520395854, 0.549816938443354, -0.27018267972478305, 0.32064716315678665, 0.1986879279041156, -0.2861791737815247, 0.7472468323290367, 0.3505012064278037, 0.49792553309792575, 0.6041881473949926, -0.14410335166502852, -0.779595534122185, 0.12462177922373341, 0.8728630223724738, -0.5452942705139676, 0.922897941091638, -0.10296211215941309, 0.21599296607962915, 0.7613960991228443, -0.2316978156644216, 0.9663980101435892, 0.8594586255033965, -0.14071264317981003, -0.4973671884055051, -0.8763237702759605, 0.01891040551225376, 0.8109833101268116, -0.8944187423338281, -0.6432253057805635, -0.28515440522601665, 0.8392309153079098, -0.9461934395497142, -0.9494439161774877, 0.606447859809486, -0.699356759875599, -0.7783380314511457, 0.17204562139109014, -0.9502608111290562, -0.3293230699613683, -0.02370487487366746, -0.4008565763020553, -0.7450105042442756, 0.5425356867418478, -0.899091624422802, 0.9654227809705529, -0.2714871144327289, -0.397549420554252, -0.6869495609677603, 0.2978819555049903, -0.07160453188735016, 0.31866561381899694, 0.17852268853603825, 0.09659282582626538, -0.9256147203540939, 0.8867283601797684, -0.4979442818074886, 0.5103054456699105, 0.6191814516609013, 0.6155946655470623, 0.9710521354137474, -0.16211985232976778, -0.2336217678788266, -0.18925160948116315, -0.6445049444479756, 0.8689390464198916, 0.01259627738696012, -0.45704581406151346, -0.6923177160605618, 0.043952525847250845, -0.056042146890155964, -0.14168183626170006, 0.09798380628750025, -0.8254958986195899], "cols": 20}}, "1": {"output": {"rows": 60, "data": [0.9951472549505747, 0.8673090021274954, 5.834625286308941e-07, 1.4568634222682378e-06, 9.202111153352025e-06, 1.4598725635808453e-06, 0.08953256971305595, 0.9999082836233656, 5.442010047465376e-09, 0.9999754861322308, 0.9999999999861393, 0.23870221261541144, 0.9999993618567915, 0.9999970761143675, 6.261786196800972e-05, 0.9999989279885017, 2.3132443908266568e-05, 0.999709250417097, 0.9999999999182398, 0.12208782446290092, 0.999999862377405, 0.15635246620832408, 4.391841459769473e-06, 1.0, 0.9999999921206287, 6.0108141290134074e-05, 0.9999999647310865, 9.89653615774832e-08, 4.052816357238142e-07, 0.9999989210168325, 0.9220247000110938, 0.9999840700677587, 0.9999994803299885, 0.999999729710783, 0.9999937735982178, 0.9999999999946791, 0.9999257119023014, 0.0007824796249443329, 0.9986774084368745, 5.459983603239678e-07, 0.9998592635158602, 0.9544570332960532, 0.003924205772114359, 0.9999996241655249, 1.4569801055410053e-08, 0.01686132565259139, 0.9999987010426676, 0.00023160155645310032, 8.167509475717256e-06, 8.074804206002394e-05, 0.00022959545984201578, 4.153138767351147e-05, 0.008399786398117427, 0.0003075149734287735, 0.11474257549658885, 2.8128950881951524e-08, 0.0004774719638444693, 0.9999999736313814, 1.0038142077442342e-11, 0.9978962023707423], "cols": 1}, "activation": "sigmoid", "bias": {"rows": 60, "data": [-0.7947869616490452, 0.0928773430789919, 0.5631120995140081, -1.0434013653256622, -0.19675661584870013, -1.3092016723174793, 0.3428972199141744, 0.5127220348433182, -0.26419457145209585, -0.5638570070605062, -0.4110608522572429, 0.3762601284396878, -0.5073017207102414, 0.883173583949918, -0.2425943655664445, -0.3569278351319251, 0.07129745020026129, 1.3341282493861355, 0.42361419599334516, 0.5182841860815979, -0.8368677430517374, 0.3558244428733364, -0.32919279043160893, 0.1631578162184122, 0.8318812305078285, 0.049234400081711364, 1.1028632829443177, 0.5878518352767858, -0.8687679429496141, -0.38719502980839426, -0.045788357369611676, -0.34078943106567017, 0.06736226218740177, 1.0935600588177936, 0.5459284987982246, 0.9392534312035438, -0.47270977623358756, -0.4885438568142093, -0.31246187166016415, 0.9239564209528239, 1.3976370546884664, -0.36510289543434254, 0.15377338118345607, 0.29033815156963005, -0.7413844952648273, -0.9786073523913883, -0.5659162780779463, 0.280265315449196, -0.5163866612780297, -0.4104824736453732, 0.38582201369514657, -0.4005341703127661, -0.6138008665511951, 0.9869993749024443, -0.4410776357612693, 0.31840139875902, 0.7215580873888372, -0.20842003728168174, -1.2080246414994498, 1.0717585647334162], "cols": 1}, "weights": {"rows": 60, "data": [0.045121387789769915, 0.7926639004466928, 0.060359463510488244, 0.28071647461103677, -0.35036736794488166, -0.16408083469975196, 1.310262355404612, -1.344159339277757, 0.9182926862173095, 0.27802919767540296, -4.038797091694158, -0.9478334893791893, 2.543538378652413, -2.7260816790689035, -2.671787418885372, -1.0060197513667408, -3.671438412821509, 3.0312562958720424, 0.9655103922722604, -1.4420980574081044, 0.9230475275619691, 0.07128968975461061, 0.8594201155033605, -0.7739791553020772, -0.028131891965420548, 0.6816125747472317, 1.9691962589485321, 2.043417714401309, 4.753763143661078, -0.7200328518655148, -0.9985137236632449, -0.8296477532270472, -0.46509002314755854, 0.5303686829397325, 1.4802664923993658, 1.1798979031113788, 3.1939263685437043, 3.2085799668678923, -0.5645392835655351, 2.499339939082227, 3.987543801784858, 0.04023447877075637, 2.1428377831858567, -0.053878607237611204, 3.149671879557359, -1.408479177421836, -0.01237796775953559, 2.301964004201816, -1.5235025446775894, 0.5855926330134664, 1.3201612174285215, -0.8675527843194853, -6.27869183521358, -1.437794858178293, 1.831035438766478, 4.113128098070904, -0.7341701665927316, -0.9624017895313307, 1.1994780389072854, 1.335837334203675, 0.1267580064930952, -0.1486588760079755, -0.8324625207273485, -0.8248754302739304, -0.11469541492990977, -0.17475569852579503, 1.8779017861558744, 0.7776583575272003, 0.42903069695264867, -2.058296654822789, 1.831784461439336, 1.6853386570715454, 0.6441662593345029, 0.4013409870955597, -0.5496349814346452, 0.23697097984364143, -1.0923593628905612, 0.5531239890862336, -2.1466294484725568, -2.6801004374522717, -1.237842660623298, 1.3603035783953104, 0.5224353561860214, -0.9732822376368566, 0.4353748082942989, -3.994845862821749, -0.260980913482239, 1.3963839174339892, 0.4721444567485548, 0.9965954926964787, -3.5389472773721793, 0.2935702936987602, -0.7229853679810041, 4.797850455245711, -2.537791225310275, 1.2334972286443169, -1.681080108856551, -1.708234562658319, 0.6408892724580745, -3.42905057656763, -1.8038500977522565, -2.373027794545013, 0.11529149844299541, 0.8671591840205288, 0.037635360048255066, -0.6731866118430481, -0.10489117280245956, 0.43461650248703126, 0.7843174633624107, -0.44302707976203193, -2.603304462526481, -3.9755665199844836, -0.34598951866581024, 0.09554550265258202, -4.7575389970082425, -0.15559767715903638, -0.19369167618330632, -1.5473218109680902, 0.25027715527112365, -0.11584779003380181, 0.39908096366846674, 0.035105493619483924, -0.9095479084290349, -0.13321851230494725, -0.09740286644897998, -0.3616694613900206, 0.03338281832867925, -1.468355401990277, 1.494360734026594, 0.6386110984735598, -1.7047577896427477, -0.7083843738944055, -0.5178123165477251, 0.21362268100688234, 0.5286725769943956, 0.5628421262105104, 0.8709874914732382, 1.2273625095250047, 1.5733083585990586, 0.6231797026430683, 0.44358030031878604, 1.1410763001590152, 1.8984194041590463, -0.44238921961562966, -1.3617046937458666, -1.156396110604217, -0.863017626819004, 1.7270227050654323, -1.600021469282553, -0.8283347303539494, 0.964915688905957, 0.5601097491893111, -2.093847195604092, 1.560435990621151, -1.4883608304656997, -0.5492431242664492, -0.2141715602794275, -1.653335112811918, -0.7205697207863649, 1.1059970633735845, 1.7060822507624958, 0.20106695855729578, 2.196068414985566, 1.2050156229533107, -0.03512928059080583, -0.35086758906949567, -1.0700592040018704, 0.5670814002181366, 1.3204728249379907, 0.6046134965773514, 0.8957337108359557, 0.47936806742116556, -0.4442690335190437, 2.19464594745949, 2.5457016045231637, 0.8626084986422274, -1.0532351576595143, 0.2297477547681936, -0.3838483028130683, 0.766743043853857, 0.20974054115326476, -0.11815674904700249, 0.26923328644880806, 1.5421276093872707, 0.2552236488657695, -0.3349285300612541, -1.5383911716000718, 0.8012715526926468, -0.8344003069610658, -0.918077747148497, -2.305901937861025, 0.23340024521212585, -0.08418223774917559, 0.4954158206332031, -0.6165879925135573, 2.152748797263721, -1.2423677191332332, 0.31051449197588854, 3.092470092096211, 0.33581032520914156, -0.9194257744103915, 0.43144399733921407, 0.6837744084290263, -0.140000225942048, -1.593514263336444, 2.4219227932287537, 2.7567238245690833, -2.3599771901525033, -0.5678450392157227, -0.15517248240462428, -0.8410042013771601, 0.6767783103549748, -0.15355554273017002, -0.3449142398916116, -1.7588158804238507, -0.17820178425199126, -0.2908959893939034, -1.218523107919517, -0.10634041275892037, 0.4240807109000827, -1.603027110305749, 0.7818993565834448, -0.5251634912398504, 1.2972325105251326, 0.20687121157029756, 2.958808896877808, 0.08801998498806018, 0.9469202746597414, -0.2300065639611268, -0.9756852278689736, 0.07975307054019326, 1.2361167058112708, -0.9400700047127677, -0.1812033116545096, -0.24727204955001175, -3.147843028532347, -0.6631939870321797, 2.5901653957208457, 0.6941034982199616, 1.8369664819000666, -5.067985663631388, 0.6660144039377267, 0.297954421752804, 0.2584458779819263, -1.693212424229423, 0.049877081524783935, -0.6184528168669756, 0.775694493055511, 0.315590821596653, -3.063380464129557, 0.7809592154007728, -0.3341145455130631, 2.1483657640834752, 0.21996641291569954, 0.26105803671271416, 0.7733688107755328, -0.2667303241861186, -1.989402060738801, 1.2651784747368948, 0.4804337069205388, -0.7609894114955277, 0.5201745391752222, -0.699650157289236, -0.9253550175005956, -0.37056018015661646, 1.244540754098874, -2.892522177965369, -0.7070629188365679, -1.056957403916415, 0.8019161377006762, -0.2958940388496117, -0.9701909045313625, 0.10473300613124288, 3.0521626927276175, 1.3067980215095618, 0.0630898333872839, -1.4065067548235044, -0.12103047974731038, 0.45234763533998223, 2.0296135207040984, -1.395767026440204, -0.17177289637110688, -0.16996099128926986, -0.1411883811167871, -0.8328705258335217, -2.4887977396555905, -4.073467888625495, 0.20754367422888997, 2.0893932201458525, -0.7197868227960129, 0.775138148172098, 0.3884470900068108, -1.0638833877570786, -0.8546567502228429, -1.523059358700661, 1.0266226809801957, 0.3497686434082404, -1.130535051826384, -1.1092743214591911, -0.8681981223635622, 0.6461226808878168, 0.5492691312872982, -0.17376591969398023, -0.7334438745715144, 2.4914213219667967, -0.04322245930333323, -0.2223572517759482, -0.008313869156920893, -1.3318418012774411, 0.69522128971543, -3.730618705299042, -0.9522332701050784, 0.7429437103545434, 0.5436880919850365, -1.1736333338217093, -0.7681189136135465, 1.0563872252744375, 0.6982848373386585, -0.21867034729691873, -1.3163594617634347, 1.0275049793191264, -0.3932197629923027, -1.1583357167798216, -1.5309987666911589, -0.7903213675907562, 1.8650557429652876, 1.6463662249718451, 0.2594238176517745, 1.202209722334628, -0.13902488134258215, -1.5918875172132072, -2.416722593514338, -2.027350571776164, 1.7002229797419752, 0.47799156019571, -2.2781834124141223, 1.5870235855644412, 0.625736168676871, -1.0559555572912236, 2.905830370803777, 0.5145117873317382, -0.2906176670259079, 0.22692093620229825, -1.2958572070944738, -1.0422708814000046, -2.912886811222193, 1.5641475050104607, 0.6839196720515666, -1.4629449266189485, -0.8932317488535528, -0.01902312603407643, -0.12772777993707615, -0.13864363181719055, 0.7377993273772081, -0.3094323984609982, 0.19464534845474435, 1.7106549324224758, -1.0775036169346426, 1.9344903532141222, 2.336237223687097, 2.054594457868026, 0.7793875228018763, 0.11884559816965472, 1.2735383182666193, 0.4228064545362012, -0.2968887874197892, -2.066596463592371, 0.18715341464796173, 0.4007157741190064, -0.44896062449646934, -1.8524741079618747, -0.9500315748291228, -2.125188999613822, -1.4425400395106915, 0.2760117224633861, 1.147346847636732, 2.0459639698980614, -1.025563950047476, 0.7251897247935832, 2.21288664847629, 0.8403782570993273, 0.8753636234666676, 0.6349471201956338, -0.08102818103042937, 1.6725086943725302, -1.5838741426843204, -0.9214971360919791, 1.5473491546159948, -0.055014321725505244, -0.561346096173296, 0.4134405044783427, 0.5774911172375295, -0.8667467575975445, 0.8032429545843732, 0.4869601096633423, -0.4943924454676704, -3.9787258851345375, 0.9091300493272597, -1.1234954080944242, 2.171257735786506, 0.8008260822791469, -0.14280895134097274, 0.9280524818996198, -1.3352364266813912, 3.244720397148285, -2.6644334594399175, -2.185339379319611, -0.9720313798914949, -1.128906249694195, -0.1214233127965665, 1.4290251517163621, 0.2335733742375322, 0.931559827132944, -1.3763417076061182, -1.2645751560783414, 2.439621353485614, -0.5406722685053248, -1.3168216387833127, 0.8598588511121583, -2.6615937360124633, -0.8938890334646894, 0.4746396497111396, 0.19739641712878772, -1.1666302583410821, 0.5004123394279385, -1.5794682911655715, 0.9596862365553978, -0.5613587902882619, -0.2728976427918501, -0.19883878449603096, -2.4685556559097357, -1.5987710892546914, 0.10066258963837643, 1.1274324344007627, -0.9927207038238566, 0.4079041313548005, 3.949632956773251, -0.8478965853169792, -0.8905175306865122, -0.13255135597292367, -1.2546055621498398, 0.6224742657843779, -1.05860303446384, -2.2552470154912587, -1.0948276688799283, 2.4484292675640598, 0.8066893221234479, -0.9769409403711737, 0.8638303377794829, 0.25635676348402675, 0.2198720561017832, -1.030904897675276, -1.9136814613859858, -0.7118220865200283, 0.7047025238524017, 0.7058601141160197, -0.6907753353179263, 0.1358439307735881, -0.19225430816393546, 0.7429924306149515, -1.0574761407074305, 2.4346959317646326, 0.9642101644093238, 0.2602293115165792, -0.2501355391682322, 0.2631989705316839, 0.04409851357213269, -0.2948005144243367, -0.019103264183549608, 0.6457575846591457, 1.3292094446665836, -0.3564137579478808, -3.5246152645531557, 1.6902339694618609, -0.3693546635258184, 1.8681703497052218, -2.379341536660126, 0.5338722233798281, 0.5051558785283475, -1.4937280847379057, 0.3924332155868533, 0.14807570330920203, -0.2383863622365899, -0.7001980618730786, -1.0208170737688627, -0.1972349263416904, -0.5715735543490819, -0.02982899664615099, 0.9977951726483544, -0.25742349051550184, -0.24628888495699716, -0.7256187815158573, 0.47311060015013506, 0.15449151331306968, -0.3332071446067271, -0.27759799555467846, 0.37128271052841283, -0.6281133510757473, -0.5140976210432575, -0.5514156673299133, 0.47229261720846044, 0.8118437732194344, -0.4545516317910437, -0.6905292841892279, -0.4340340066375376, 0.17306740631990034, -0.2856513117609992, 0.3055593940031115, -0.8387647726331845, -0.9069936801813717, 0.8019635605902138, -0.10650452732199865, -1.0718680703507872, 0.7530460004794359, -0.4675217061949819, 0.3377066885820665, -0.004633866607438875, -1.0001454857157503, 0.413918041621246, 0.12557929157556985, -0.5367813888138777, 0.7666207775553059, -0.4792250710604795, -0.30302983844468206, -0.9198392995768396, 0.4776207206825273, -0.36825194473027945, -0.49213990365075894, 0.8094337188398109, -0.015735621790385058, -0.23579543164218666, -0.9905131439845377, 0.2458095607896092, 0.16845849982921005, 0.10147502513310085, -0.9495231899158878, 0.17792928091778762, -0.7364323445554709, 0.06726817816810049, 0.260525140314629, -0.944461539138578, 0.1264311469458837, 0.6962408009912262, -1.0163983675147537, -0.2042297144389518, -0.8310526574123817, -0.8471173079373076, 0.06029852353356931, -0.7392396405746203, -0.462451219674291, 0.5696751710433466, -0.24296400493956993, 0.19566291635190133, -0.23364363370489707, 0.7080716662489787, -0.6163025451942645, -0.9889717371047715, 0.25409486576767987, 0.8481432945549578, 0.15415133033407685, 0.8416770178548212, 0.679610832257916, -0.3704695920279761, 0.1170806440704971, 0.5312567021118895, -0.8440716154959098, 0.24316311853853645, 0.5406669853489188, -1.077850076147961, 0.24967264579073553, 0.4144979039973667, -0.6015427157766522, 0.5078034659268426, -0.16900457406119043, 0.055151773740074045, 0.7097025429198635, 0.6611311320131454, -0.8240530890443818, 0.6140409918354613, 0.012000118843631984, 0.24047162229373353, -0.30261721527008745, 0.37226032449644825, -0.6610377903886987, -0.30671456929942853, 0.5526362022566441, -0.1749687075513258, -0.7033627918672346, -0.7605577404386764, 0.4562101790338482, -1.0550196037653936, -0.2839649612558287, -0.564351122506355, -0.9959463632972928, -0.8933841304899044, -0.9562840410889608, -0.36494020729149285, -0.8624127299126567, 0.6795709725776983, -0.1849687703839264, 2.5468949325934727, -3.720401260707116, -1.2257073025465623, -3.859866654511628, -0.5670636583454001, -1.9834608009022707, 2.884065063043702, -0.6995844352045596, -3.5892977522990166, 3.1365626269419646, -6.088490063985322, 0.1253413014785327, 1.3290230303149884, 4.809185721708095, 0.2926692914636478, -1.2290283559886248, -4.316036149896998, 4.188641737710887, 0.21290802280752086, 1.0781120619716749, -0.46237492926979806, 2.1220152615306955, -0.3672583944713441, 2.0446979094855533, 1.9096975288611386, -1.6860083061875617, 2.808637820818043, -1.6090175584089539, 2.80259940019954, 1.7667360876288967, -0.8458736870600861, -0.666683864206162, -0.04679473643607144, -1.2367273672668802, -1.3486784463169337, 0.9092593004525039, 4.595421992060335, -4.895540341317034, -0.9703312754821947, 0.7863781680341603, -0.6991416021192282, -2.491122981996593, -4.312491170291476, -3.546478723795773, 2.392331084962959, 3.9944573241984216, 2.551840692194925, -1.3030603244090213, -1.3205119448233213, -0.5970952128048397, 5.056067054459257, -1.1799515904722901, -3.2889772306347593, 1.199997458604608, -0.1698565967845752, -0.78252430178483, -0.8471920829272307, 3.6768286533211545, 1.787613315112002, -1.213651588663768, -0.750007336597893, 0.29729354324923973, -0.8265659743401803, -0.7040350590432838, -1.7080273602533904, -1.4068635750609764, -3.228771616465975, -0.32629651925112746, -4.010507748534421, -4.025401294922332, -1.456766085279248, 4.299763217669684, -0.8904112788510565, 0.7520235264679341, 2.153954463248401, -4.3517297352692434, 0.43779514241228845, -3.514670352506066, -6.94171233763913, 1.9339757265098232, -3.874132904954446, -1.6527303173397534, 0.39140950201020364, -5.075729260214897, -1.7386170876691225, -2.028015997107546, -3.79841199478113, 1.2512006991893552, -0.5368893146612839, 2.5046234014148117, 1.2395213103250595, 2.3325997274710786, 0.41161118797007473, 2.5354041394033398, 1.5284709592756367, -1.7621420071581224, 0.7943239684364906, -1.0604020496852613, 0.10062023443520528, -0.7760358728162358, -1.1945514714788434, -0.8786572945881009, 2.3736744699390995, -1.7260636412376027, 5.477070461855645, 5.462025841783888, 0.6500499040972251, 2.5299782270647277, -2.473931118602826, 0.7343886545503271, -2.329641758070457, 0.5461674590094814, 0.9265975341645666, -2.703109342022119, -3.4960275641776652, -2.3631335334436074, -2.2179473015001054, 0.5094618987930519, -1.4995421653672347, -2.230734701326599, -0.8791342523421822, -0.5249901587355442, 0.3394613530458098, 0.5170689464470035, 1.5984407289657667, -1.127850177830197, 1.044855373659525, -0.1397277146020987, -2.8672560833928977, -3.5038037244227787, 1.906631926100366, -0.15279980638406992, 1.1695644898943793, 6.694453661318896, -0.48431040548027937, 2.1113256277284966, -0.04901768450820293, 1.8281676528990378, 1.5080613235883478, -0.5155354631521794, -0.16291740234222166, 4.363448737287021, -3.0335541167048974, 0.8684976043787848, -0.054645230491645026, -0.42178198336279576, -2.3060004421330884, -0.03801901153924946, -2.613121054344372, -1.0899055370864184, -0.3031135998988715, -1.0611894760734935, 4.510443841134995, 3.6193100022029547, -5.499115422155035, -0.74155185691304, -3.098516963104095, -1.244377482180042, 2.1823922024640274, -3.3554026260581824, 2.4730819588567203, -4.8728751158013885, -0.7546234329329482, -0.6759061930564692, 1.5954406384987332, -1.102508388350323, 0.46051782711127515, -0.3350607791008484, 1.3999200370710738, -0.4587476887400824, -1.8114287584099622, 1.8713553062269184, 2.482882242221907, 1.6574300958661619, 1.445995121780275, -2.7857967016941494, -2.815233852956286, -4.525653173861407, 2.496124124022297, 2.2450182196760524, -0.22322650588067164, 1.6104947355561643, -0.06604746089940422, 2.1730412713108715, -3.6829372975954633, -0.7851600305253144, -0.016758979466845274, 2.2575490841940775, -2.6526969140593937, -0.7726884112357321, 1.8084045216407936, -1.737940428075099, 1.6681678763071706, -0.792457457743163, 1.3295369059722224, -3.7676861475795804, -2.618013215959998, -0.13328121864161138, 3.719510125146737, 1.4251291490797366, -1.1176535572323019, -4.995340087783692, 0.7157113333373513, 1.7335079685319053, -1.7416813423339594, -0.7721348051024807, 1.2287751711834662, -4.739898875510617, -0.3999509873887482, 3.1865443116166934, 0.8051669085138888, -0.14912238089131635, 3.6865578659456504, 3.3641970320162917, 3.1959487914359768, -0.22343073055470722, -0.9019464664940223, -0.8378644515009643, -0.11029600628700764, -0.30077729656025376, 1.0555343311113257, -0.6001419306267273, 0.28761943270071516, 1.908507936151118, -4.6601430790611875, -3.151702033043723, -0.33346956701963665, 3.1864137575601705, -1.159536941146597, 0.5565968868906368, 1.0381496848386087, 1.6596220696163952, 2.990446633875369, 0.5058055957404187, 0.5823973532756072, 4.390282745875795, -2.214472858211936, 1.6369439755510626, -1.5682676356678005, 0.618452957476404, 1.109627426305875, 2.623606415860689, 0.819477697938894, 2.1972135382499434, -0.154859632685645, -1.13152032705716, -4.920541474948206, 0.3979892797536713, -3.640188538649591, -1.0854974212899726, 1.6925066737776764, -0.2082624814775203, 1.4870536117559177, 1.7480534376600063, 4.528980173316239, -2.4047172422971634, 1.9952566586012896, 1.0023006244660844, 1.6021503644200095, -4.895762684086341, 0.9302674877342999, -1.803528484050751, -2.435436481752604, -0.20137560398499937, -2.466582287213983, -0.701675343437444, 4.155303987655033, 1.0543191475064901, -2.8241824397539457, 0.12422426689063076, -0.08749147298808609, 0.11732976800023165, -2.0774546075302975, -1.128370768015416, 2.531990115113535, 1.7014273538830347, 0.0979382944292605, -1.4233474660737184, 1.1194436314740377, 2.0703550357478164, 3.548191649800987, -0.7501789969541386, -1.167471130588174, -0.5312088381106533, 2.683058594184827, -0.5621539954482401, 0.6900574295571942, 3.2105882899294387, 2.0281232623958982, 0.043746091735992816, -2.141653265735991, -0.1460074783732264, 0.19618064440705796, 1.4152650810618197, -3.5901070753597004, 3.431450050086267, -0.48122568731565246, -1.7857425742577675, -1.7030381592241925, 3.695054730202746, 0.1797292721844009, -0.5049226638661746, -0.32457807786830806, -0.11472253720887517, 2.6194735913138563, 1.3585041627320638, 0.35579629107452376, 2.5915520590625976, -0.8179086988599237, -1.4908306126930444, 5.958452794734689, 0.05076351087313539, -0.2888821732917785, -1.2906169338384996, 3.2267578517060262, 1.7370415033329711, 1.2733160175885319, -1.0437141197195539, 0.7332047313355046, -0.7170195245482651, -3.7717262820644675, 2.3489519164710093, -0.6483386845960746, 1.3341516833286262, 2.087515878367576, -2.446475174097859, -2.091896774679679, 1.658339212651806, -2.3394706842648025, 0.9037522841635494, 0.25082541266742275, -2.9152291009700155, 0.589490063013813, -1.935108240779463, -5.1762287164855945, -0.7052582347891169, -1.2265495900132939, 2.6539423995332414, -0.49032199686203976, 0.33726331329859094, -0.5309091696028342, -1.5064173984611389, -1.344467867447968, -1.3167918077864302, 2.865980177344823, 1.255464818733471, -2.4419826852309177, -2.117245092458681, 1.5705050289027485, 1.5035532766155884, -4.220767038786687, -3.075135812253849, -2.995556443556154, -2.1054595766243835, 0.39244794355569596, -0.7939483698343651, 7.121665695353659, -0.9836609458493736, -2.795042822126972, 0.5669888059568194, 1.0657978179295127, 4.7421674173992105, 0.2853473231653443, -1.4847651314112862, -0.368546163919696, 0.04472770404825885, -1.004948210932482, 1.1138507508558029, 0.6969737009520467, -2.233393894688972, -1.2210232776877434, 0.9320582094957504, -4.300887744228157, 1.3432625756646919, -1.5829595578136841, 1.3594371439865591, -2.532285026304107, 0.875250107213685, 3.5327193453921812, 0.9872200849548648, 0.1300190651548555, -0.17978138108065744, -0.18229858138838986, 0.16462234594930256, 2.46216564187731, -4.012940769494242, -1.7504188740294866, -0.5317803000183596, -3.3022555189494636, -0.6537758768538526, 1.4087550171525292, 2.141660308679334, 2.902171614432167, 2.994690971975019, 0.03306807954620705, 2.1331500212797416, -3.0187558864952546, 1.4395814769407087, -0.12535611976167824, -2.2840598034751753, -1.9683653183405914, 2.8466208688552284, 1.0111418878179745, -0.21300726238800796, 7.124810641175118, 1.4412563638400915, 1.4962991480529533, -4.409112685499827, -1.202046789596649, 0.6561913844111482, -0.47153605295351464, -0.6047707584969186, 1.994144095981477, -0.707629820826608, -1.785203893331899, -0.2992864461287244, -2.8288661175017835, 4.019121737931838, 0.28454864398909424, -0.7765659673193706, -0.6404167937083519, 0.6723214349843174, 0.4590134623239357, 1.0431474769822175, 2.904901358963404, -2.512492150760997, -1.3589440999117044, -4.567894540783784, 1.6104845607020717, 1.0193833244034285, 1.1770789864813849, -0.7723603038743466, -0.19659193636309533, 1.8017257602808527, -2.4367679611290454, -0.40357007789810107, -3.8724592813504586, -1.0086012938070195, 1.638936165258069, 0.4720917982921411, -1.9124626134327398, -2.4094101593826034, 0.9808511469314761, 1.8812533808333087, -0.7977736463751632, 1.3076313602857108, 4.275399918468198, -1.088582464737293, -1.3847007205204251, 4.636483795303143, 0.2897810234371291, -3.0862278855260117, 2.359809409345563, 6.629320660559975, -1.9647732374083466, 2.155867204468184, -0.4912001152884309, -2.028485918175739, -0.007238287432021912, -0.4372492765258363, 0.6660957325418116, -2.867911474604173, 0.2375209309881018, 3.466273714900643, 4.401240322414229, -2.332851060193272, 1.2675386436473455, 1.627632408523249, -1.3460149961528611, -0.6924874339116202, -1.8841431871860483, 0.28222495659098096, -0.04632482516547517, -2.4928440446792366, 1.1366517751681542, 2.1958172492525905, -1.5320125521639074, -0.31103220917220453, 1.529468175318024, 0.18088022124677286, -0.2157849106418644, 1.3968931111004255, -0.30630815177432, 1.0777517920065314, 0.3314148105009984, 1.0268188761645451, 0.3122690589784193, -0.4745914620353672, -0.5524275581695558, 1.0130694552528858, 0.6057567982095621, -0.9909621260463232, 0.38006557808357233, 0.0388276289827112, 0.5026829255675984, -0.8404131920043311, 0.6039408173931708, -0.6933238138721673, 0.04100364199271075, 0.4287648200688018, 0.5368807547283225, 1.0807797775162595, 1.0756929676462765, 0.2585422474854852, -0.9031293178212403, 0.7272979735080928, 1.4225017928390853, -0.6111402458304114, 0.2344919211862933, 0.11051829175717981, -0.3573588950778332, 0.24299246725899848, -1.0454080694311036, 0.23521571189974866, -0.5040477769694113, 0.37348550467106834, 0.18543841678047462, 1.1045365514586512, -0.5357228935999825, -0.678039050899163, 0.3125338627064255, 1.2983388990499114, 0.0952072399288641, 0.7159421499644107, -0.8389757777144277, -0.29391937990648936, 0.657759177021624, -0.23628560974257076, -0.6720687333748253, -0.5982668152115117, 0.74801436209848, 0.30751973193043397, -0.6957957515144633, 0.6360969273488568, 0.7086207401612988, -0.9290413445505082, -0.281349697179938, -0.213279133521994, 1.2763028905810037, -0.61240180802082, -0.2570347804732458, 0.829973468989611, 0.8243554460743325, 0.6400210869742607, 0.20781566871746898, 0.2919856621068566, -0.12729580092042964, 0.7699130960523287, -0.19845673558893145, 0.16023477679810635, -1.1095066646133487, -0.60211325847739, 0.9600189059479063, 0.6374244643236773, -0.3509091396096723, -0.46874307104391877, 1.7421151681539313, 0.6331608478845931, 0.9935121877041906, 0.45602910856551926, 0.06182168230486438, 0.19727732231859388, 1.3839836899831788, 0.4246647753994562, 1.0448827072760372, -1.0410015782319149, -0.5358733236056938, -0.38454144135601387, 0.35252988880764924, 0.41424783938051707, 1.210714534928634, 1.135909513628619, -0.7784207912272795, -0.7249508231810732, -0.669266532638255, 0.7856905177958011, 1.1572604705044496, 1.7102143068627038, 1.2125139802365232, 0.5266640574793413, 0.8968246766178429, 0.6029814761959081, 0.2456278187876153, 0.7243646134642875, 0.540821739481047, 1.3771019382901994, -1.1882132353763408, 0.27230630956450697, -0.03518841937476788, 0.33262718466388136, -0.6394979030656323, 0.37110661429040437, 1.1887727035990263, 1.45448643572275, -0.980969895146235, -1.3819465730564637, -0.5171143387891433, -0.1574021497473546, 0.9313498461797006, -0.5138521932798846, 1.172515825862205, -0.06314896864243574, -1.4390864594159256, -1.3609503621697676, 0.7822106791650254, -0.38591777415689354, 0.6375809938244695, 0.3859130929742632, 0.31906754811740606, 2.340463624451868, -1.8208937968421721, 0.8628311825228254, -0.18110634998840944, -1.3542960752410624, 0.8474773142857152, 2.3245025721926074, 2.0115990323601043, -0.19869257966749473, -0.8393430142005694, 0.7445242140357268, -0.5564027620446282, 1.250861535748811, 0.6034980691637918, 0.4580745227833478, -0.3843134519894956, -0.2057676364478453, 0.22090119961221114, 0.010779499757621243, -0.09154760891234079, -0.8061006607447284, -0.10678336444037198, 0.8531772285358384, -0.3267919636433089, -1.9149397604450198, 0.10931970307746666, -0.5690574889476004, -0.11287094076957767, -0.16904861722344666, 0.900147612880846, 0.1308965670671087, 0.7289646301242239, 2.2451500150544597, 0.9787828543217897, 0.685052822623391, -0.6625740644176837, 0.18388298137029185, 1.427790653189328, 0.7830147093871994, -1.8989455263925459, -0.9610625926089669, -0.7335943756902935, 1.0880305024279857, 0.5139711282404668, -0.5198804972611344, 1.0216969495126214, -0.4303888477426274, 0.8565890210975674, 2.289597041455223, 0.6803103767628078, 0.09382519805174251, -0.407366782756092, 0.6780551753905284, -0.039510101971478195, 1.014945468758607, 0.512872751601868, -0.014345266084089184, 0.718906968782908, -0.8862708916529964, 0.5041225113244159, -0.6169978664103779, -1.2328541022409336, 0.6701436102764748, 1.1999292480067683, -0.9782721914356266, -0.6246405520817979, 0.8419188621808674, 0.7500070260018505, 1.1454406051627446, -1.4772651785789037, -1.2778834126830823, 1.8358906089229465, -0.5270946183338823, -0.1598359693220742, -0.5906726316274111, 0.2883652885379259, 3.5338753760037647, 0.18536680351020313, 0.5837575285820659, -0.08808555770265859, 0.4712496060074609, -0.2879724758709659, 0.4837814468925055, 0.19254989902716527, 1.2733287824057686, -0.8242310594421605, 0.018395416721737962, -0.6921477210250645, -1.0250063031133367, 0.3346575209911283, -0.09361028854759612, -0.6632684183890674, -2.280052200136013, 0.04345916717055696, -0.9519215041504252, -0.5237469578804089, -1.4772037738533956, 0.4942081933951983, -1.4229911454673483, 0.009200071315463387, -0.9130189476742192, 1.9065593004623465, 0.063434213003285, 0.3848264150881465, -0.6104564825859051, 0.2614653194774764, 0.5768425019820659, -1.1497935045654906, 0.4672050046090872, 0.7809247853783585, 2.257958637234306, -0.6495917001664708, 1.139652369026299, 0.7434890907273587, 3.471759918116982, -1.6845767266050522, -0.5696025795153864, 0.30710689411706044, 0.12192239671916809, -2.659534120666263, 0.7017746717439783, 1.6887487461497628, 0.5609540969821649, -0.3882512328716251, 2.7290055653016045, -5.1940240712090375, 0.8576431709463279, -2.013928891200068, 0.8961113354463089, -1.703840076742634, 1.2243344887416783, 0.41948995768452424, -3.541269669753046, 1.970073154473036, 0.8654162725654212, -1.115078483533882, -0.24965008772493727, 2.9792609873341713, 0.29299789340719584, 1.2071602758923372, -0.9238313638955628, 0.9542925565161338, 2.159709951977966, -2.7154189573704413, -5.425066578488783, 1.0090416768129653, 2.9053774756263535, 0.8726962449276392, -0.5198958081868718, -0.9454906363696223, -0.9767154384953468, 1.196619576777356, -0.3041515638582997, 3.083983872692917, 0.4673492515961765, -0.12087246016391495, -1.3961013875069659, 0.28257137164445945, 1.4678640288257256, 2.5289686129886095, -1.074413792862188, 3.5610223663073124, -0.00013536598395693573, -0.6729531757886237, 0.11970995469751358, 2.668623242885815, -4.249786366954525, -1.9540097313330944, 0.17055927674531202, -0.042480729937438406, -1.280554470558508, -0.012566892916600066, -1.0441382466568627, -0.452015675053925, -0.6351925398599721, -1.5034796777926083, 0.005917809698625032, 2.0797054351693984, 2.473206538563553, 1.650148749475419, -1.1022586085494774, 1.128924063194446, -0.39931475365959473, 1.6114952830845946, 0.8868843207999029, -2.2009751434664944, -2.757360555867759, 3.4822752759828783, -3.5612330329590294, -0.1982770319175171, 0.11615884459006261, -2.6277545632602317, 1.8464829304061499, -0.6212997097329619, 2.432296069953789, 1.6098541741323944, -4.0978031277003995, -0.6040348626307376, -2.7068496982268817, 0.05673706945679089, 1.1089435719084297, 2.148031740906438, -5.41051304874786, -0.20212158447434445, -0.6455028725712475, 1.0554141462108024, 0.8151510883316198, -0.9402747994571292, -0.8104918953599681, 0.4376253149182076, -1.2851583459553195, -1.5322258567892604, 0.0506627564052841, 3.424327797987111, -1.0571581380613428, 1.5553323751464514, -2.9621156716990993, 1.0051131142975982, -1.2998265898819408, -1.6920409624471136, -0.42478544087822184, -0.12042326408088543, -3.404810312195865, 0.91067686094376, 1.2809802802627386, 2.4252544634547877, 2.4841739513619463, -0.051984436095183245, -4.496033797318089, 0.014767298434886599, 0.3555839467326012, -1.4856288643913333, 0.2852875234982466, 0.4005863885558704, -0.6282336740776752, 0.6860600155443143, 0.3142133610090865, 2.7502922332771313, -0.16720569224049567, 0.31798319628867405, -2.6901497431388464, -1.04559010177214, -0.24450725847202265, -1.0084688758963125, -0.5520233447831512, 0.7608859888293754, -0.14435950451329896, -1.37986815742001, 0.5285475573098501, -1.104152994395069, 0.10105005556635668, 0.8304450593310856, 0.4014939209590852, -1.3567761909174898, 0.24442851419998804, 2.6918833422646804, 0.48537261066264253, -0.9608109844761852, -0.1085252628766488, 0.050318092210359704, -1.3597099640108885, 0.3485555441629682, 0.1641800134493215, -2.081554799470731, 0.5228348883859948, -0.056115771054275884, 0.38981784299475025, -0.2790136002118224, 0.5761668668946003, -0.07333930018078837, 1.9069655584111693, 1.462894151620792, 0.5362426260483782, -0.07045867990502556, 0.11835804731365294, -0.0960162518863658, -1.1750707880815707, 0.7430949425670393, 0.3160467170464146, 0.05079606586963786, 0.6557137797334817, -1.3035088760504638, 1.0485735146897426, -0.7329755957397992, 1.044668175033898, 1.335537061936353, 1.746752193221062, 0.6583059587697968, 0.9680043775705104, 0.16554531939094289, 0.7350184493855415, -0.493077195878946, 1.0385606029127192, -0.49917273186309474, 0.629218906144193, -2.092546703814323, 0.14902763943134262, -0.8559916899870175, -1.116912657371847, 0.2759356150864087, -0.4454619519896673, -0.8608309360539663, 1.2427011256920475, -0.08372858873377684, 0.5334641648639722, 2.4956698454913138, 0.40934301819555435, 0.4038787965596125, -0.713476084077898, -1.8746181696510873, -1.4957749026911002, -0.8937751525272659, -0.0035719968925561965, 0.6674716723950712, 0.2960662379107967, -0.21161342080694304, 0.026087070797831388, -0.08279764787199387, 2.4809063456841085, 1.1338944329451945, 1.2016772005022396, 0.14952044978026155, 1.7582383502853134, -1.5204517012506726, -1.3341770141306826, -1.0648714514144575, -0.4405838940602908, 0.6814616312144572, -1.7908606580129023, -0.14449005292988895, 0.4890104187780643, 1.864429936931667, -2.7347336296710236, 2.3887655458526553, -0.16493566278523028, 1.1161820484442335, -1.1458822580456351, 1.3663851272326692, -0.11261140417650446, -0.01303125148226884, -0.5700398272985124, 1.283683951789205, 0.6770001644376785, -0.6087157373328244, 0.043716228206667776, 0.2572810768098188, -0.9842230253422867, -0.2977046263257961, -0.3724043189294246, -0.8075971002035683, 0.7844081107549384, 0.7576915094475027, -0.7693118872136074, -0.44831068678597435, 0.7104926198516722, -0.19777989780016206, -0.3686585318255007, 0.15637571153737057, 0.2561935773445561, 0.9804861984786604, -0.32079229898698997, -0.8727633465153867, -0.2863592366998828, 0.4412707498809691, -0.6364439555526893, -0.2402004183349457, -0.724506537782544, 0.7543110612528535, 0.28200767872075894, 0.35057546317042354, -0.7875827779900887, 0.5290252848773436, 0.2363375417820328, 0.49146137219992914, -0.9207589935182219, 0.8450578918805014, -0.7739160990492322, 0.9651378461878578, -0.08181176844150972, 0.4591922381220888, 0.6607662621315153, -0.12264279165739228, -0.42116921097074056, 0.12201850507719554, 0.6738654972834567, 0.7553111826349366, 0.32110268963891153, -0.8822714747526224, -0.05128518561277571, -0.14138870580551743, 0.823808064914826, -0.5331058795745273, 0.9719653712993802, 0.8290755119197902, 0.8481358160466083, 1.0074247400023857, 0.465869506051318, 0.6334773157195527, 0.10162523511850997, -0.18269733480994357, 0.5839113554141905, -0.5148401093306196, 0.9446231310476505, -0.52217989736694, 0.27014743935413577, -0.8061717552335192, 0.1639798603963566, 0.4870715159594396, -0.4057892796219719, 0.21162025133237752, 0.85644004332548, -0.43208345815962995, -0.28662449478562324, -0.4071682661938437, 0.18914746395270748, -0.7754962674185062, 0.3330957691472803, 0.45439692424471495, 0.18524658357781926, 0.19199018695461648, 0.26946791649028917, 0.30863186547133376, -0.2766730775837075, 0.19832217011747477, 0.4888720571166069, -0.9106512342084153, 0.24106680183971588, 0.537208014541356, 0.14610237326380804, 0.5226436269798053, 0.9476258525170127, -0.3060890774943892, -0.8052779589740267, 0.12470355884865214, -0.2515938237243333, 0.25685329098078263, 0.7026787544933664, -0.4532902595524785, -0.020358943607948446, 0.4501889146370195, 0.09647366308218237, 0.12800487693926554, -0.6311194544106581, 0.15143171177888537, 0.896310022039347, -0.4731535111303235, 0.2655102025897739, 0.9778562845684415, -0.16856850215826885, 0.9708443812768193, -0.32318625085698466, 0.9317357768636702, 0.27397338337094457, 0.680378435670345, -0.9965670235752514, 0.032263096523437514, 0.30470260236182567, -0.7534593927033708, 0.28341816543469894, 0.7043016655390506, -0.36196908991573506, -0.23836977159841066, -0.08290741506941282, -0.3110756006346977, 0.7139421360302747, -0.02165014026875266, 0.8753287594597039, -0.6337148500127245, 0.8537810780076062, -0.09852771841695315, 1.0007741039405258, -0.046787077764290044, 0.8257660488118701, -0.1936725615566138, -0.013897744458870494, 0.7659166359725312, 0.766917655596541, 0.13060203874035742, 0.9264884841263507, -0.9565961491261515, -0.3176658830958294, -0.6791519802278146, 0.42609830998007897, -0.2580789345661795, -0.3644776816275237, -0.8109000757823256, 0.4569108784826562, -0.5415419907922707, -0.008821400310206583, 0.6867270791109644, -0.9774334378640434, 0.11458379770605391, 0.32091072974868784, -1.1439707030270436, -0.48550708234571205, 0.5106540261454195, -0.48887673862744263, 0.43426788189506466, -0.4772369755099902, -1.0963085310978131, -0.960403726159744, -0.07474856003390849, -0.49836541063931206, 0.053540749446065586, -0.6807113226350517, -0.4434246505002079, 0.1998972439993395, -0.32632810253170624, -0.3568971163887677, -0.7970066249472524, -0.6200435426041975, 0.7746817664608662, -0.03673993162130708, 0.5695951399970391, -1.0701098502725088, -0.11467035725327507, -0.43920428710600923, 0.27371697603994616, -0.27108676536540977, -0.8602882262688211, 0.6836152386234294, -0.11699238152978648, 0.28670743601449433, -0.9059953215849729, -0.7517136071618893, -0.19652874217490574, -0.07986885313010833, -0.057039990292396, 0.42948137043734946, -0.8425723134118385, -0.596861071678088, 0.8769423225781201, -0.7991085492967166, 0.575745082565183, 0.45096039006713307, 0.16110444556542514, 0.06396569498411264, -0.36472171492836225, 0.7425913232246745, -0.2944619940461619, 0.49537919290221516, 0.9403869275114508, 0.4338265574597251, 0.8032304684223768, 0.4594703687010256, -0.3972542699465809, -0.1971204100489514, 0.6447349761297121, 0.6517285741754523, 0.0871908625764177, -0.41888487024940024, -0.4972721191955245, 0.8459947805559775, 0.033465948547297994, 0.35913318164309876, -0.8682285709809955, -0.06814265065191634, -0.4251100153077942, -1.0292828401368057, -0.7914641155726475, 0.8115589856498352, -0.2162364602995914, -0.7445636127561037, 0.09759131892124465, -0.6023420504620884, 0.7490589237024923, 0.6671612471130891, -0.4824712271934683, 0.15991552227842043, -0.38275053458071473, -0.34703820869963115, -0.3429274478730115, 0.13958138072814225, -0.828827791999399, -0.17517322854992426, -0.50641940531268, -0.5581115270576109, 0.23952856488675422, 0.28970858154167184, 0.794933146416852, 0.7928856388185476, -0.5174327290411518, 0.14681352172953985, -0.24079601119134028, -0.3159504942065, 0.6336678476590735, 0.1627443789680504, -0.6595170427770076, -0.8971114689459506, -0.759618954752111, -0.5295745922785647, -0.6676401380307211, -0.982375776212292, -0.7642725141355162, 1.619773602282638, 0.7677553861602587, 0.5697757230430949, 0.4411141281405194, 0.5276497366860151, -0.5213927832040552, -1.2310569197695316, 1.236072767168285, 0.8878948937166884, -0.5491334491890613, 1.8339009699957092, 0.4022778114008213, -1.1926582048045944, 0.4605588130586978, 1.0930889037238025, -0.4554070320816878, -1.4005767366379056, 0.7304601721695202, -0.013194223590764019, 0.1961251885580243, 0.5809964097206572, 2.0114049800678377, 0.17506052701039543, -0.473582152668757, 1.2651890069408436, 0.6273060808869749, -0.2682155494602096, -0.6096302075363629, -0.5746554515550756, 0.7405404913190428, 1.5174212111836285, 0.14230096804168238, -0.24757981092771025, -0.036037353473884155, -0.15806419349489495, -0.7585456123027569, 0.06293770352021955, 0.3804257251128279, -0.3262292963265867, 0.7899307924075425, -0.17688439446234613, -0.8579455282754057, 0.09385066757423133, -0.766030507575939, 0.46838158019699366, 0.7667905844842674, 0.4167123091694389, -0.2191031023643609, 1.0120447078076686, -0.03216194510793052, 0.10673917445992383, -0.19818118564583806, 0.631215451140105, -0.1803969344660465, -0.18092991866544905, -0.0699045136715513, -0.8827817510901271, -0.11052976162809895, -0.07161197618541132, -0.39197523735671674, -0.29352266812308214, 0.15050286625172296, -0.1867105601492647, 1.1355297343163246, 0.43367119344218424, -0.5726558644039504, 0.6046017764950631, 0.3598828409185694, 0.1425425766252555, 0.269132798303671, 0.3902330222973884, 0.4900711171787682, -0.1903515402584731, -1.1791968823583714, 1.0460855633388537, -0.5193647619544552, 0.4749278713035853, 0.13709635782740687, 0.08335476783664876, 1.0283158136191188, -0.9055283702631121, 0.6793316890536992, -0.16342015244772456, 0.8061005597606685, 0.4819361391033521, 0.49389881732181073, 0.6873021597961231, 0.3012811117733129, -0.9107328095895972, -1.557692971755341, 0.7734785435576474, 0.6324589368407796, 0.6206578698734352, 0.35654920554310365, 0.3469601490528593, 0.3087594407192152, 0.2562872423264139, -0.9448594899841277, -0.130951655789818, -0.504741974551419, -0.930356607835809, 1.306553546619495, -1.4933070290974648, 0.3970865648086211, -0.3135450918582898, -0.9633068116968398, -0.6083469100404361, -0.12699535464599535, 0.1135229117488224, -0.6932218038504567, 0.9392240668342754, 0.12337289555395047, 0.7344387919488246, 0.26713106528566866, 0.428667089067934, 0.754955365393201, 0.9017412018741326, 0.9654682408219609, 0.2381453127629314, -0.3089550891787979, 0.9420288922590154, 0.0963686678774406, 0.42574110716282515, -0.8529957839589398, -0.7329486588760904, -0.29549039910636016, 0.035112248622701236, 2.988286844791289, -0.11448568208172415, 1.4454836246637741, 1.2643726137442899, 2.262235400724284, 0.5066662790888108, -2.674565322766697, 1.327608139365909, 0.01157229464868255, -0.05792462546357709, -0.07506297898133125, 1.8733324107550433, -0.04719165332079077, -0.34866848655804905, -2.6484403366644775, 1.9714149428599748, -2.4601527834700287, 2.860369263526138, -0.8644985652893987, -0.7790364954042696, 0.37099199336135424, 0.43044837088614707, -2.643065567066408, 0.05624035562528743, -1.160741081224895, -2.9262086295554646, -3.8585079788462306, -2.2394684648273113, 0.023577324726860804, -2.3989368018826056, 0.31214033255217305, -3.4302509865255795, -3.1246732415406626, 1.5079914703455546, 0.42527493721401777, -4.887145672191106, 1.0015568470906586, 0.24004612534069372, 0.7437021771073458, 0.018724748177091556, -2.3383689025592984, 0.03406276312117134, 1.7921576400058619, -1.3871083708550842, -0.1798470884734944, 1.183004269607425, 0.6677054546963532, -0.35193116166233424, -3.2272486378201264, -1.312872423029665, -0.4498586540425107, -0.7690592182571812, -0.366802970533764, -0.4576054291962612, -1.3736885495510516, 0.7637702604114446, -1.3299066438559621, -1.055141825854109, -1.3228263707036605, 0.12995054916607512, 0.12617813391318272, -2.647012404971974, -1.3340614249925202, 1.8258380545229895, 1.2376180159909196, 0.6683707430344502, 4.2968386444619435, -0.6122630890365494, 1.4205091537570191, 3.288320181321981, -1.6663913499244285, -0.759775231790678, -0.08465647639499156, 3.0007241809662206, -2.254877511352508, 0.585483369033723, 1.051137576379505, 1.0271165426332998, 0.12654111519502623, -1.907833461430452, 0.029308304784450834, -0.9872391098936817, 1.0067727873398784, 3.334258404106645, 1.355153904424867, 1.4415216088140999, -1.767682887152136, -0.894526953475112, -0.485978171266691, -0.5410678258446914, -0.7624491116011142, 0.5713089324634331, -1.1819022648328654, -1.3159896648231273, 1.5642466899486624, 1.281599962481416, -0.5746322171011929, 0.37899186651072303, 1.1346074181245611, -0.49442365217927864, 2.4546100638673654, 1.535580021774548, 2.127379789427793, 0.9343061461483336, -1.044795760531217, -2.6382744322541964, 2.248346228063108, -1.2092749630362665, 0.07007759198454375, -0.46477121322078524, -1.5579832869928683, 0.6858444222320336, 0.7020440795140604, 0.6863217894855638, 0.13055768587455155, -0.5931077141859693, -0.8646908958177184, -0.6519474177301767, -1.376094652683963, -2.5892066381316003, -0.40307783153680543, -0.15498244515807355, 0.727257263884962, 1.001704445981938, 0.7892437417607895, -4.39365058066367, -2.7940077949007485, 1.8976578464155007, 0.9232935119294461, -0.24273279482652102, -0.7296669561915021, -0.012635467944580672, 1.1547915469973677, 0.9620407372110282, -1.9393222413399032, 0.7929967572483915, 4.504162299097338, 0.744520209951069, -1.4810724670057318, 1.6881413460941177, 0.8996430431129375, -0.4940159914108729, -0.30654739462893155, -2.120265184738241, -0.42363820666803004, -0.5792002494227971, -1.156210569156201, 0.7987708515454345, -0.17728611170973294, -1.5131844033792319, -1.6415967770471143, 0.7356548194751326, -1.050692480740215, 0.040178034467643606, -1.3825716635436773, -3.6973495230625626, 1.0431628950135077, 0.8640152358950749, 0.26105478713352276, -0.788302018795439, 0.09399956177063887, -0.7317747441410352, -2.2402846823536304, 1.2039748661896525, -2.501617877999249, 0.8660200178951508, 0.23698319807565335, -4.553024123896946, -3.457218640653485, 0.7479025814347946, 0.19769682733234237, 0.5196849306131818, 0.8610916158926877, 1.1111231948224511, -2.233774302102222, 0.47760296009567377, 0.08847808988552242, 1.078846546977995, -2.598149743163623, 2.301367565207343, 1.0220555178246493, -0.5047037490725194, 1.0668338752026543, -0.8421994622711106, 0.1377018526395018, 0.5607200587176895, 4.325748254468174, 0.7273929284581983, 1.3204207639352104, 0.13005227458483543, 0.5058853774101625, -1.3114869188381257, -0.3048524914064879, -1.1873785512372848, 1.2162595671584073, -0.9806660002379858, -4.194601289672239, -2.2132505133922473, 0.19884295858958442, 0.255447084785597, 3.44180969073453, 2.136474615450909, 0.5169140747918116, -0.7749147393385972, 2.957480067914739, -0.2713581838848199, -0.8174395304205611, 1.447573890333833, 1.1549386853724357, -1.8163868989289351, 0.7464732618189491, 1.5421994378320658, 3.0459910320412535, -1.4254364226931597, -3.0485577577593252, -1.3392717624240948, 1.1706190472424933, 0.49330923264774657, -0.1756146226471394, 0.5766363800052908, -0.7791560492105463, -1.0807066780797534, 0.8436428766027002, 0.8319065489943793, -0.5135632831105169, -0.8846465579644172, 1.1035706173353217, 